digraph Tree {
node [shape=box, style="filled", color="black", fontname="helvetica"] ;
edge [fontname="helvetica"] ;
0 [label="JoiningYear <= 2017.5\ngini = 0.45\nsamples = 3396\nvalue = [2237, 1159]\nclass = No", fillcolor="#f2c2a0"] ;
1 [label="PaymentTier <= 2.5\ngini = 0.409\nsamples = 3134\nvalue = [2237, 897]\nclass = No", fillcolor="#efb488"] ;
0 -> 1 [labeldistance=2.5, labelangle=45, headlabel="True"] ;
2 [label="JoiningYear <= 2016.5\ngini = 0.487\nsamples = 711\nvalue = [299, 412]\nclass = Yes", fillcolor="#c9e4f8"] ;
1 -> 2 ;
3 [label="Education <= 0.5\ngini = 0.226\nsamples = 315\nvalue = [41, 274]\nclass = Yes", fillcolor="#57ace9"] ;
2 -> 3 ;
4 [label="Gender <= 0.5\ngini = 0.128\nsamples = 262\nvalue = [18, 244]\nclass = Yes", fillcolor="#48a4e7"] ;
3 -> 4 ;
5 [label="ExperienceInCurrentDomain <= 6.0\ngini = 0.009\nsamples = 224\nvalue = [1, 223]\nclass = Yes", fillcolor="#3a9de5"] ;
4 -> 5 ;
6 [label="gini = 0.0\nsamples = 223\nvalue = [0, 223]\nclass = Yes", fillcolor="#399de5"] ;
5 -> 6 ;
7 [label="gini = 0.0\nsamples = 1\nvalue = [1, 0]\nclass = No", fillcolor="#e58139"] ;
5 -> 7 ;
8 [label="ExperienceInCurrentDomain <= 3.5\ngini = 0.494\nsamples = 38\nvalue = [17, 21]\nclass = Yes", fillcolor="#d9ecfa"] ;
4 -> 8 ;
9 [label="gini = 0.0\nsamples = 21\nvalue = [0, 21]\nclass = Yes", fillcolor="#399de5"] ;
8 -> 9 ;
10 [label="gini = 0.0\nsamples = 17\nvalue = [17, 0]\nclass = No", fillcolor="#e58139"] ;
8 -> 10 ;
11 [label="JoiningYear <= 2013.5\ngini = 0.491\nsamples = 53\nvalue = [23, 30]\nclass = Yes", fillcolor="#d1e8f9"] ;
3 -> 11 ;
12 [label="JoiningYear <= 2012.5\ngini = 0.095\nsamples = 20\nvalue = [1, 19]\nclass = Yes", fillcolor="#43a2e6"] ;
11 -> 12 ;
13 [label="ExperienceInCurrentDomain <= 3.5\ngini = 0.5\nsamples = 2\nvalue = [1, 1]\nclass = No", fillcolor="#ffffff"] ;
12 -> 13 ;
14 [label="gini = 0.0\nsamples = 1\nvalue = [0, 1]\nclass = Yes", fillcolor="#399de5"] ;
13 -> 14 ;
15 [label="gini = 0.0\nsamples = 1\nvalue = [1, 0]\nclass = No", fillcolor="#e58139"] ;
13 -> 15 ;
16 [label="gini = 0.0\nsamples = 18\nvalue = [0, 18]\nclass = Yes", fillcolor="#399de5"] ;
12 -> 16 ;
17 [label="Age <= 27.5\ngini = 0.444\nsamples = 33\nvalue = [22, 11]\nclass = No", fillcolor="#f2c09c"] ;
11 -> 17 ;
18 [label="City <= 0.5\ngini = 0.492\nsamples = 16\nvalue = [7, 9]\nclass = Yes", fillcolor="#d3e9f9"] ;
17 -> 18 ;
19 [label="gini = 0.0\nsamples = 3\nvalue = [0, 3]\nclass = Yes", fillcolor="#399de5"] ;
18 -> 19 ;
20 [label="Age <= 24.5\ngini = 0.497\nsamples = 13\nvalue = [7, 6]\nclass = No", fillcolor="#fbede3"] ;
18 -> 20 ;
21 [label="gini = 0.375\nsamples = 4\nvalue = [3, 1]\nclass = No", fillcolor="#eeab7b"] ;
20 -> 21 ;
22 [label="ExperienceInCurrentDomain <= 4.5\ngini = 0.494\nsamples = 9\nvalue = [4, 5]\nclass = Yes", fillcolor="#d7ebfa"] ;
20 -> 22 ;
23 [label="City <= 1.5\ngini = 0.444\nsamples = 6\nvalue = [2, 4]\nclass = Yes", fillcolor="#9ccef2"] ;
22 -> 23 ;
24 [label="gini = 0.0\nsamples = 1\nvalue = [1, 0]\nclass = No", fillcolor="#e58139"] ;
23 -> 24 ;
25 [label="Age <= 25.5\ngini = 0.32\nsamples = 5\nvalue = [1, 4]\nclass = Yes", fillcolor="#6ab6ec"] ;
23 -> 25 ;
26 [label="gini = 0.444\nsamples = 3\nvalue = [1, 2]\nclass = Yes", fillcolor="#9ccef2"] ;
25 -> 26 ;
27 [label="gini = 0.0\nsamples = 2\nvalue = [0, 2]\nclass = Yes", fillcolor="#399de5"] ;
25 -> 27 ;
28 [label="City <= 1.5\ngini = 0.444\nsamples = 3\nvalue = [2, 1]\nclass = No", fillcolor="#f2c09c"] ;
22 -> 28 ;
29 [label="gini = 0.0\nsamples = 1\nvalue = [0, 1]\nclass = Yes", fillcolor="#399de5"] ;
28 -> 29 ;
30 [label="gini = 0.0\nsamples = 2\nvalue = [2, 0]\nclass = No", fillcolor="#e58139"] ;
28 -> 30 ;
31 [label="Age <= 29.5\ngini = 0.208\nsamples = 17\nvalue = [15, 2]\nclass = No", fillcolor="#e89253"] ;
17 -> 31 ;
32 [label="gini = 0.0\nsamples = 7\nvalue = [7, 0]\nclass = No", fillcolor="#e58139"] ;
31 -> 32 ;
33 [label="Age <= 30.5\ngini = 0.32\nsamples = 10\nvalue = [8, 2]\nclass = No", fillcolor="#eca06a"] ;
31 -> 33 ;
34 [label="ExperienceInCurrentDomain <= 1.5\ngini = 0.5\nsamples = 2\nvalue = [1, 1]\nclass = No", fillcolor="#ffffff"] ;
33 -> 34 ;
35 [label="gini = 0.0\nsamples = 1\nvalue = [1, 0]\nclass = No", fillcolor="#e58139"] ;
34 -> 35 ;
36 [label="gini = 0.0\nsamples = 1\nvalue = [0, 1]\nclass = Yes", fillcolor="#399de5"] ;
34 -> 36 ;
37 [label="Age <= 33.5\ngini = 0.219\nsamples = 8\nvalue = [7, 1]\nclass = No", fillcolor="#e99355"] ;
33 -> 37 ;
38 [label="ExperienceInCurrentDomain <= 3.0\ngini = 0.32\nsamples = 5\nvalue = [4, 1]\nclass = No", fillcolor="#eca06a"] ;
37 -> 38 ;
39 [label="Age <= 32.0\ngini = 0.5\nsamples = 2\nvalue = [1, 1]\nclass = No", fillcolor="#ffffff"] ;
38 -> 39 ;
40 [label="gini = 0.0\nsamples = 1\nvalue = [1, 0]\nclass = No", fillcolor="#e58139"] ;
39 -> 40 ;
41 [label="gini = 0.0\nsamples = 1\nvalue = [0, 1]\nclass = Yes", fillcolor="#399de5"] ;
39 -> 41 ;
42 [label="gini = 0.0\nsamples = 3\nvalue = [3, 0]\nclass = No", fillcolor="#e58139"] ;
38 -> 42 ;
43 [label="gini = 0.0\nsamples = 3\nvalue = [3, 0]\nclass = No", fillcolor="#e58139"] ;
37 -> 43 ;
44 [label="Age <= 27.5\ngini = 0.454\nsamples = 396\nvalue = [258, 138]\nclass = No", fillcolor="#f3c4a3"] ;
2 -> 44 ;
45 [label="Education <= 0.5\ngini = 0.498\nsamples = 200\nvalue = [106, 94]\nclass = No", fillcolor="#fcf1e9"] ;
44 -> 45 ;
46 [label="City <= 1.5\ngini = 0.39\nsamples = 79\nvalue = [58, 21]\nclass = No", fillcolor="#eeaf81"] ;
45 -> 46 ;
47 [label="Gender <= 0.5\ngini = 0.14\nsamples = 53\nvalue = [49, 4]\nclass = No", fillcolor="#e78b49"] ;
46 -> 47 ;
48 [label="City <= 0.5\ngini = 0.252\nsamples = 27\nvalue = [23, 4]\nclass = No", fillcolor="#ea975b"] ;
47 -> 48 ;
49 [label="gini = 0.0\nsamples = 1\nvalue = [0, 1]\nclass = Yes", fillcolor="#399de5"] ;
48 -> 49 ;
50 [label="ExperienceInCurrentDomain <= 3.5\ngini = 0.204\nsamples = 26\nvalue = [23, 3]\nclass = No", fillcolor="#e89153"] ;
48 -> 50 ;
51 [label="ExperienceInCurrentDomain <= 1.0\ngini = 0.346\nsamples = 9\nvalue = [7, 2]\nclass = No", fillcolor="#eca572"] ;
50 -> 51 ;
52 [label="gini = 0.0\nsamples = 1\nvalue = [1, 0]\nclass = No", fillcolor="#e58139"] ;
51 -> 52 ;
53 [label="Age <= 24.5\ngini = 0.375\nsamples = 8\nvalue = [6, 2]\nclass = No", fillcolor="#eeab7b"] ;
51 -> 53 ;
54 [label="gini = 0.444\nsamples = 3\nvalue = [2, 1]\nclass = No", fillcolor="#f2c09c"] ;
53 -> 54 ;
55 [label="gini = 0.32\nsamples = 5\nvalue = [4, 1]\nclass = No", fillcolor="#eca06a"] ;
53 -> 55 ;
56 [label="ExperienceInCurrentDomain <= 4.5\ngini = 0.111\nsamples = 17\nvalue = [16, 1]\nclass = No", fillcolor="#e78945"] ;
50 -> 56 ;
57 [label="gini = 0.165\nsamples = 11\nvalue = [10, 1]\nclass = No", fillcolor="#e88e4d"] ;
56 -> 57 ;
58 [label="gini = 0.0\nsamples = 6\nvalue = [6, 0]\nclass = No", fillcolor="#e58139"] ;
56 -> 58 ;
59 [label="gini = 0.0\nsamples = 26\nvalue = [26, 0]\nclass = No", fillcolor="#e58139"] ;
47 -> 59 ;
60 [label="Gender <= 0.5\ngini = 0.453\nsamples = 26\nvalue = [9, 17]\nclass = Yes", fillcolor="#a2d1f3"] ;
46 -> 60 ;
61 [label="gini = 0.0\nsamples = 15\nvalue = [0, 15]\nclass = Yes", fillcolor="#399de5"] ;
60 -> 61 ;
62 [label="ExperienceInCurrentDomain <= 2.5\ngini = 0.298\nsamples = 11\nvalue = [9, 2]\nclass = No", fillcolor="#eb9d65"] ;
60 -> 62 ;
63 [label="ExperienceInCurrentDomain <= 1.0\ngini = 0.5\nsamples = 4\nvalue = [2, 2]\nclass = No", fillcolor="#ffffff"] ;
62 -> 63 ;
64 [label="gini = 0.0\nsamples = 1\nvalue = [1, 0]\nclass = No", fillcolor="#e58139"] ;
63 -> 64 ;
65 [label="gini = 0.444\nsamples = 3\nvalue = [1, 2]\nclass = Yes", fillcolor="#9ccef2"] ;
63 -> 65 ;
66 [label="gini = 0.0\nsamples = 7\nvalue = [7, 0]\nclass = No", fillcolor="#e58139"] ;
62 -> 66 ;
67 [label="Gender <= 0.5\ngini = 0.479\nsamples = 121\nvalue = [48, 73]\nclass = Yes", fillcolor="#bbddf6"] ;
45 -> 67 ;
68 [label="ExperienceInCurrentDomain <= 3.5\ngini = 0.5\nsamples = 55\nvalue = [27, 28]\nclass = Yes", fillcolor="#f8fcfe"] ;
67 -> 68 ;
69 [label="Age <= 23.5\ngini = 0.463\nsamples = 22\nvalue = [8, 14]\nclass = Yes", fillcolor="#aad5f4"] ;
68 -> 69 ;
70 [label="gini = 0.0\nsamples = 1\nvalue = [0, 1]\nclass = Yes", fillcolor="#399de5"] ;
69 -> 70 ;
71 [label="City <= 1.5\ngini = 0.472\nsamples = 21\nvalue = [8, 13]\nclass = Yes", fillcolor="#b3d9f5"] ;
69 -> 71 ;
72 [label="ExperienceInCurrentDomain <= 2.5\ngini = 0.484\nsamples = 17\nvalue = [7, 10]\nclass = Yes", fillcolor="#c4e2f7"] ;
71 -> 72 ;
73 [label="City <= 0.5\ngini = 0.49\nsamples = 7\nvalue = [4, 3]\nclass = No", fillcolor="#f8e0ce"] ;
72 -> 73 ;
74 [label="gini = 0.444\nsamples = 3\nvalue = [2, 1]\nclass = No", fillcolor="#f2c09c"] ;
73 -> 74 ;
75 [label="gini = 0.5\nsamples = 4\nvalue = [2, 2]\nclass = No", fillcolor="#ffffff"] ;
73 -> 75 ;
76 [label="City <= 0.5\ngini = 0.42\nsamples = 10\nvalue = [3, 7]\nclass = Yes", fillcolor="#8ec7f0"] ;
72 -> 76 ;
77 [label="gini = 0.0\nsamples = 1\nvalue = [0, 1]\nclass = Yes", fillcolor="#399de5"] ;
76 -> 77 ;
78 [label="gini = 0.444\nsamples = 9\nvalue = [3, 6]\nclass = Yes", fillcolor="#9ccef2"] ;
76 -> 78 ;
79 [label="Age <= 24.5\ngini = 0.375\nsamples = 4\nvalue = [1, 3]\nclass = Yes", fillcolor="#7bbeee"] ;
71 -> 79 ;
80 [label="gini = 0.0\nsamples = 2\nvalue = [0, 2]\nclass = Yes", fillcolor="#399de5"] ;
79 -> 80 ;
81 [label="gini = 0.5\nsamples = 2\nvalue = [1, 1]\nclass = No", fillcolor="#ffffff"] ;
79 -> 81 ;
82 [label="ExperienceInCurrentDomain <= 4.5\ngini = 0.489\nsamples = 33\nvalue = [19, 14]\nclass = No", fillcolor="#f8decb"] ;
68 -> 82 ;
83 [label="City <= 1.5\ngini = 0.499\nsamples = 19\nvalue = [10, 9]\nclass = No", fillcolor="#fcf2eb"] ;
82 -> 83 ;
84 [label="City <= 0.5\ngini = 0.49\nsamples = 14\nvalue = [8, 6]\nclass = No", fillcolor="#f8e0ce"] ;
83 -> 84 ;
85 [label="gini = 0.5\nsamples = 2\nvalue = [1, 1]\nclass = No", fillcolor="#ffffff"] ;
84 -> 85 ;
86 [label="gini = 0.486\nsamples = 12\nvalue = [7, 5]\nclass = No", fillcolor="#f8dbc6"] ;
84 -> 86 ;
87 [label="gini = 0.48\nsamples = 5\nvalue = [2, 3]\nclass = Yes", fillcolor="#bddef6"] ;
83 -> 87 ;
88 [label="City <= 1.5\ngini = 0.459\nsamples = 14\nvalue = [9, 5]\nclass = No", fillcolor="#f3c7a7"] ;
82 -> 88 ;
89 [label="gini = 0.494\nsamples = 9\nvalue = [5, 4]\nclass = No", fillcolor="#fae6d7"] ;
88 -> 89 ;
90 [label="gini = 0.32\nsamples = 5\nvalue = [4, 1]\nclass = No", fillcolor="#eca06a"] ;
88 -> 90 ;
91 [label="City <= 1.5\ngini = 0.434\nsamples = 66\nvalue = [21, 45]\nclass = Yes", fillcolor="#95cbf1"] ;
67 -> 91 ;
92 [label="Age <= 22.5\ngini = 0.351\nsamples = 44\nvalue = [10, 34]\nclass = Yes", fillcolor="#73baed"] ;
91 -> 92 ;
93 [label="gini = 0.0\nsamples = 2\nvalue = [0, 2]\nclass = Yes", fillcolor="#399de5"] ;
92 -> 93 ;
94 [label="Age <= 23.5\ngini = 0.363\nsamples = 42\nvalue = [10, 32]\nclass = Yes", fillcolor="#77bced"] ;
92 -> 94 ;
95 [label="gini = 0.5\nsamples = 2\nvalue = [1, 1]\nclass = No", fillcolor="#ffffff"] ;
94 -> 95 ;
96 [label="ExperienceInCurrentDomain <= 4.5\ngini = 0.349\nsamples = 40\nvalue = [9, 31]\nclass = Yes", fillcolor="#72b9ed"] ;
94 -> 96 ;
97 [label="City <= 0.5\ngini = 0.366\nsamples = 29\nvalue = [7, 22]\nclass = Yes", fillcolor="#78bced"] ;
96 -> 97 ;
98 [label="gini = 0.0\nsamples = 3\nvalue = [0, 3]\nclass = Yes", fillcolor="#399de5"] ;
97 -> 98 ;
99 [label="Age <= 24.5\ngini = 0.393\nsamples = 26\nvalue = [7, 19]\nclass = Yes", fillcolor="#82c1ef"] ;
97 -> 99 ;
100 [label="gini = 0.375\nsamples = 8\nvalue = [2, 6]\nclass = Yes", fillcolor="#7bbeee"] ;
99 -> 100 ;
101 [label="ExperienceInCurrentDomain <= 3.5\ngini = 0.401\nsamples = 18\nvalue = [5, 13]\nclass = Yes", fillcolor="#85c3ef"] ;
99 -> 101 ;
102 [label="gini = 0.408\nsamples = 7\nvalue = [2, 5]\nclass = Yes", fillcolor="#88c4ef"] ;
101 -> 102 ;
103 [label="gini = 0.397\nsamples = 11\nvalue = [3, 8]\nclass = Yes", fillcolor="#83c2ef"] ;
101 -> 103 ;
104 [label="City <= 0.5\ngini = 0.298\nsamples = 11\nvalue = [2, 9]\nclass = Yes", fillcolor="#65b3eb"] ;
96 -> 104 ;
105 [label="gini = 0.0\nsamples = 1\nvalue = [1, 0]\nclass = No", fillcolor="#e58139"] ;
104 -> 105 ;
106 [label="gini = 0.18\nsamples = 10\nvalue = [1, 9]\nclass = Yes", fillcolor="#4fa8e8"] ;
104 -> 106 ;
107 [label="ExperienceInCurrentDomain <= 2.5\ngini = 0.5\nsamples = 22\nvalue = [11, 11]\nclass = No", fillcolor="#ffffff"] ;
91 -> 107 ;
108 [label="gini = 0.0\nsamples = 2\nvalue = [0, 2]\nclass = Yes", fillcolor="#399de5"] ;
107 -> 108 ;
109 [label="Age <= 25.5\ngini = 0.495\nsamples = 20\nvalue = [11, 9]\nclass = No", fillcolor="#fae8db"] ;
107 -> 109 ;
110 [label="gini = 0.5\nsamples = 2\nvalue = [1, 1]\nclass = No", fillcolor="#ffffff"] ;
109 -> 110 ;
111 [label="ExperienceInCurrentDomain <= 4.5\ngini = 0.494\nsamples = 18\nvalue = [10, 8]\nclass = No", fillcolor="#fae6d7"] ;
109 -> 111 ;
112 [label="gini = 0.48\nsamples = 5\nvalue = [3, 2]\nclass = No", fillcolor="#f6d5bd"] ;
111 -> 112 ;
113 [label="gini = 0.497\nsamples = 13\nvalue = [7, 6]\nclass = No", fillcolor="#fbede3"] ;
111 -> 113 ;
114 [label="Gender <= 0.5\ngini = 0.348\nsamples = 196\nvalue = [152, 44]\nclass = No", fillcolor="#eda572"] ;
44 -> 114 ;
115 [label="City <= 1.5\ngini = 0.442\nsamples = 97\nvalue = [65, 32]\nclass = No", fillcolor="#f2bf9a"] ;
114 -> 115 ;
116 [label="ExperienceInCurrentDomain <= 2.5\ngini = 0.36\nsamples = 68\nvalue = [52, 16]\nclass = No", fillcolor="#eda876"] ;
115 -> 116 ;
117 [label="City <= 0.5\ngini = 0.42\nsamples = 50\nvalue = [35, 15]\nclass = No", fillcolor="#f0b78e"] ;
116 -> 117 ;
118 [label="Education <= 0.5\ngini = 0.48\nsamples = 5\nvalue = [2, 3]\nclass = Yes", fillcolor="#bddef6"] ;
117 -> 118 ;
119 [label="gini = 0.0\nsamples = 2\nvalue = [0, 2]\nclass = Yes", fillcolor="#399de5"] ;
118 -> 119 ;
120 [label="Age <= 37.0\ngini = 0.444\nsamples = 3\nvalue = [2, 1]\nclass = No", fillcolor="#f2c09c"] ;
118 -> 120 ;
121 [label="gini = 0.0\nsamples = 1\nvalue = [1, 0]\nclass = No", fillcolor="#e58139"] ;
120 -> 121 ;
122 [label="Age <= 39.5\ngini = 0.5\nsamples = 2\nvalue = [1, 1]\nclass = No", fillcolor="#ffffff"] ;
120 -> 122 ;
123 [label="gini = 0.0\nsamples = 1\nvalue = [0, 1]\nclass = Yes", fillcolor="#399de5"] ;
122 -> 123 ;
124 [label="gini = 0.0\nsamples = 1\nvalue = [1, 0]\nclass = No", fillcolor="#e58139"] ;
122 -> 124 ;
125 [label="Education <= 0.5\ngini = 0.391\nsamples = 45\nvalue = [33, 12]\nclass = No", fillcolor="#eeaf81"] ;
117 -> 125 ;
126 [label="Age <= 40.0\ngini = 0.142\nsamples = 13\nvalue = [12, 1]\nclass = No", fillcolor="#e78c49"] ;
125 -> 126 ;
127 [label="gini = 0.0\nsamples = 11\nvalue = [11, 0]\nclass = No", fillcolor="#e58139"] ;
126 -> 127 ;
128 [label="ExperienceInCurrentDomain <= 1.0\ngini = 0.5\nsamples = 2\nvalue = [1, 1]\nclass = No", fillcolor="#ffffff"] ;
126 -> 128 ;
129 [label="gini = 0.0\nsamples = 1\nvalue = [1, 0]\nclass = No", fillcolor="#e58139"] ;
128 -> 129 ;
130 [label="gini = 0.0\nsamples = 1\nvalue = [0, 1]\nclass = Yes", fillcolor="#399de5"] ;
128 -> 130 ;
131 [label="Age <= 30.5\ngini = 0.451\nsamples = 32\nvalue = [21, 11]\nclass = No", fillcolor="#f3c3a1"] ;
125 -> 131 ;
132 [label="ExperienceInCurrentDomain <= 1.5\ngini = 0.346\nsamples = 18\nvalue = [14, 4]\nclass = No", fillcolor="#eca572"] ;
131 -> 132 ;
133 [label="Age <= 29.0\ngini = 0.5\nsamples = 4\nvalue = [2, 2]\nclass = No", fillcolor="#ffffff"] ;
132 -> 133 ;
134 [label="gini = 0.444\nsamples = 3\nvalue = [1, 2]\nclass = Yes", fillcolor="#9ccef2"] ;
133 -> 134 ;
135 [label="gini = 0.0\nsamples = 1\nvalue = [1, 0]\nclass = No", fillcolor="#e58139"] ;
133 -> 135 ;
136 [label="Age <= 28.5\ngini = 0.245\nsamples = 14\nvalue = [12, 2]\nclass = No", fillcolor="#e9965a"] ;
132 -> 136 ;
137 [label="gini = 0.0\nsamples = 8\nvalue = [8, 0]\nclass = No", fillcolor="#e58139"] ;
136 -> 137 ;
138 [label="Age <= 29.5\ngini = 0.444\nsamples = 6\nvalue = [4, 2]\nclass = No", fillcolor="#f2c09c"] ;
136 -> 138 ;
139 [label="gini = 0.444\nsamples = 3\nvalue = [2, 1]\nclass = No", fillcolor="#f2c09c"] ;
138 -> 139 ;
140 [label="gini = 0.444\nsamples = 3\nvalue = [2, 1]\nclass = No", fillcolor="#f2c09c"] ;
138 -> 140 ;
141 [label="Age <= 34.5\ngini = 0.5\nsamples = 14\nvalue = [7, 7]\nclass = No", fillcolor="#ffffff"] ;
131 -> 141 ;
142 [label="Age <= 32.5\ngini = 0.32\nsamples = 5\nvalue = [1, 4]\nclass = Yes", fillcolor="#6ab6ec"] ;
141 -> 142 ;
143 [label="ExperienceInCurrentDomain <= 1.0\ngini = 0.444\nsamples = 3\nvalue = [1, 2]\nclass = Yes", fillcolor="#9ccef2"] ;
142 -> 143 ;
144 [label="gini = 0.0\nsamples = 1\nvalue = [0, 1]\nclass = Yes", fillcolor="#399de5"] ;
143 -> 144 ;
145 [label="gini = 0.5\nsamples = 2\nvalue = [1, 1]\nclass = No", fillcolor="#ffffff"] ;
143 -> 145 ;
146 [label="gini = 0.0\nsamples = 2\nvalue = [0, 2]\nclass = Yes", fillcolor="#399de5"] ;
142 -> 146 ;
147 [label="ExperienceInCurrentDomain <= 1.5\ngini = 0.444\nsamples = 9\nvalue = [6, 3]\nclass = No", fillcolor="#f2c09c"] ;
141 -> 147 ;
148 [label="gini = 0.0\nsamples = 2\nvalue = [2, 0]\nclass = No", fillcolor="#e58139"] ;
147 -> 148 ;
149 [label="Age <= 38.0\ngini = 0.49\nsamples = 7\nvalue = [4, 3]\nclass = No", fillcolor="#f8e0ce"] ;
147 -> 149 ;
150 [label="Age <= 36.0\ngini = 0.444\nsamples = 3\nvalue = [2, 1]\nclass = No", fillcolor="#f2c09c"] ;
149 -> 150 ;
151 [label="gini = 0.5\nsamples = 2\nvalue = [1, 1]\nclass = No", fillcolor="#ffffff"] ;
150 -> 151 ;
152 [label="gini = 0.0\nsamples = 1\nvalue = [1, 0]\nclass = No", fillcolor="#e58139"] ;
150 -> 152 ;
153 [label="Age <= 39.5\ngini = 0.5\nsamples = 4\nvalue = [2, 2]\nclass = No", fillcolor="#ffffff"] ;
149 -> 153 ;
154 [label="gini = 0.0\nsamples = 1\nvalue = [0, 1]\nclass = Yes", fillcolor="#399de5"] ;
153 -> 154 ;
155 [label="gini = 0.444\nsamples = 3\nvalue = [2, 1]\nclass = No", fillcolor="#f2c09c"] ;
153 -> 155 ;
156 [label="Age <= 33.0\ngini = 0.105\nsamples = 18\nvalue = [17, 1]\nclass = No", fillcolor="#e78845"] ;
116 -> 156 ;
157 [label="Age <= 30.0\ngini = 0.375\nsamples = 4\nvalue = [3, 1]\nclass = No", fillcolor="#eeab7b"] ;
156 -> 157 ;
158 [label="gini = 0.0\nsamples = 3\nvalue = [3, 0]\nclass = No", fillcolor="#e58139"] ;
157 -> 158 ;
159 [label="gini = 0.0\nsamples = 1\nvalue = [0, 1]\nclass = Yes", fillcolor="#399de5"] ;
157 -> 159 ;
160 [label="gini = 0.0\nsamples = 14\nvalue = [14, 0]\nclass = No", fillcolor="#e58139"] ;
156 -> 160 ;
161 [label="Education <= 0.5\ngini = 0.495\nsamples = 29\nvalue = [13, 16]\nclass = Yes", fillcolor="#daedfa"] ;
115 -> 161 ;
162 [label="gini = 0.0\nsamples = 15\nvalue = [0, 15]\nclass = Yes", fillcolor="#399de5"] ;
161 -> 162 ;
163 [label="Age <= 30.5\ngini = 0.133\nsamples = 14\nvalue = [13, 1]\nclass = No", fillcolor="#e78b48"] ;
161 -> 163 ;
164 [label="Age <= 29.5\ngini = 0.245\nsamples = 7\nvalue = [6, 1]\nclass = No", fillcolor="#e9965a"] ;
163 -> 164 ;
165 [label="gini = 0.0\nsamples = 5\nvalue = [5, 0]\nclass = No", fillcolor="#e58139"] ;
164 -> 165 ;
166 [label="gini = 0.5\nsamples = 2\nvalue = [1, 1]\nclass = No", fillcolor="#ffffff"] ;
164 -> 166 ;
167 [label="gini = 0.0\nsamples = 7\nvalue = [7, 0]\nclass = No", fillcolor="#e58139"] ;
163 -> 167 ;
168 [label="ExperienceInCurrentDomain <= 1.5\ngini = 0.213\nsamples = 99\nvalue = [87, 12]\nclass = No", fillcolor="#e99254"] ;
114 -> 168 ;
169 [label="City <= 1.5\ngini = 0.365\nsamples = 25\nvalue = [19, 6]\nclass = No", fillcolor="#eda978"] ;
168 -> 169 ;
170 [label="Age <= 30.5\ngini = 0.208\nsamples = 17\nvalue = [15, 2]\nclass = No", fillcolor="#e89253"] ;
169 -> 170 ;
171 [label="ExperienceInCurrentDomain <= 0.5\ngini = 0.375\nsamples = 8\nvalue = [6, 2]\nclass = No", fillcolor="#eeab7b"] ;
170 -> 171 ;
172 [label="gini = 0.0\nsamples = 2\nvalue = [2, 0]\nclass = No", fillcolor="#e58139"] ;
171 -> 172 ;
173 [label="Age <= 29.5\ngini = 0.444\nsamples = 6\nvalue = [4, 2]\nclass = No", fillcolor="#f2c09c"] ;
171 -> 173 ;
174 [label="Education <= 0.5\ngini = 0.375\nsamples = 4\nvalue = [3, 1]\nclass = No", fillcolor="#eeab7b"] ;
173 -> 174 ;
175 [label="gini = 0.0\nsamples = 2\nvalue = [2, 0]\nclass = No", fillcolor="#e58139"] ;
174 -> 175 ;
176 [label="Age <= 28.5\ngini = 0.5\nsamples = 2\nvalue = [1, 1]\nclass = No", fillcolor="#ffffff"] ;
174 -> 176 ;
177 [label="gini = 0.0\nsamples = 1\nvalue = [0, 1]\nclass = Yes", fillcolor="#399de5"] ;
176 -> 177 ;
178 [label="gini = 0.0\nsamples = 1\nvalue = [1, 0]\nclass = No", fillcolor="#e58139"] ;
176 -> 178 ;
179 [label="Education <= 0.5\ngini = 0.5\nsamples = 2\nvalue = [1, 1]\nclass = No", fillcolor="#ffffff"] ;
173 -> 179 ;
180 [label="gini = 0.0\nsamples = 1\nvalue = [0, 1]\nclass = Yes", fillcolor="#399de5"] ;
179 -> 180 ;
181 [label="gini = 0.0\nsamples = 1\nvalue = [1, 0]\nclass = No", fillcolor="#e58139"] ;
179 -> 181 ;
182 [label="gini = 0.0\nsamples = 9\nvalue = [9, 0]\nclass = No", fillcolor="#e58139"] ;
170 -> 182 ;
183 [label="Age <= 28.5\ngini = 0.5\nsamples = 8\nvalue = [4, 4]\nclass = No", fillcolor="#ffffff"] ;
169 -> 183 ;
184 [label="gini = 0.0\nsamples = 2\nvalue = [0, 2]\nclass = Yes", fillcolor="#399de5"] ;
183 -> 184 ;
185 [label="Education <= 0.5\ngini = 0.444\nsamples = 6\nvalue = [4, 2]\nclass = No", fillcolor="#f2c09c"] ;
183 -> 185 ;
186 [label="gini = 0.0\nsamples = 3\nvalue = [3, 0]\nclass = No", fillcolor="#e58139"] ;
185 -> 186 ;
187 [label="Age <= 32.5\ngini = 0.444\nsamples = 3\nvalue = [1, 2]\nclass = Yes", fillcolor="#9ccef2"] ;
185 -> 187 ;
188 [label="ExperienceInCurrentDomain <= 0.5\ngini = 0.5\nsamples = 2\nvalue = [1, 1]\nclass = No", fillcolor="#ffffff"] ;
187 -> 188 ;
189 [label="gini = 0.0\nsamples = 1\nvalue = [0, 1]\nclass = Yes", fillcolor="#399de5"] ;
188 -> 189 ;
190 [label="gini = 0.0\nsamples = 1\nvalue = [1, 0]\nclass = No", fillcolor="#e58139"] ;
188 -> 190 ;
191 [label="gini = 0.0\nsamples = 1\nvalue = [0, 1]\nclass = Yes", fillcolor="#399de5"] ;
187 -> 191 ;
192 [label="Age <= 40.5\ngini = 0.149\nsamples = 74\nvalue = [68, 6]\nclass = No", fillcolor="#e78c4a"] ;
168 -> 192 ;
193 [label="Age <= 29.5\ngini = 0.108\nsamples = 70\nvalue = [66, 4]\nclass = No", fillcolor="#e78945"] ;
192 -> 193 ;
194 [label="gini = 0.0\nsamples = 19\nvalue = [19, 0]\nclass = No", fillcolor="#e58139"] ;
193 -> 194 ;
195 [label="City <= 0.5\ngini = 0.145\nsamples = 51\nvalue = [47, 4]\nclass = No", fillcolor="#e78c4a"] ;
193 -> 195 ;
196 [label="Education <= 0.5\ngini = 0.375\nsamples = 4\nvalue = [3, 1]\nclass = No", fillcolor="#eeab7b"] ;
195 -> 196 ;
197 [label="gini = 0.0\nsamples = 1\nvalue = [0, 1]\nclass = Yes", fillcolor="#399de5"] ;
196 -> 197 ;
198 [label="gini = 0.0\nsamples = 3\nvalue = [3, 0]\nclass = No", fillcolor="#e58139"] ;
196 -> 198 ;
199 [label="Age <= 31.5\ngini = 0.12\nsamples = 47\nvalue = [44, 3]\nclass = No", fillcolor="#e78a46"] ;
195 -> 199 ;
200 [label="City <= 1.5\ngini = 0.245\nsamples = 14\nvalue = [12, 2]\nclass = No", fillcolor="#e9965a"] ;
199 -> 200 ;
201 [label="Age <= 30.5\ngini = 0.165\nsamples = 11\nvalue = [10, 1]\nclass = No", fillcolor="#e88e4d"] ;
200 -> 201 ;
202 [label="gini = 0.0\nsamples = 7\nvalue = [7, 0]\nclass = No", fillcolor="#e58139"] ;
201 -> 202 ;
203 [label="ExperienceInCurrentDomain <= 3.5\ngini = 0.375\nsamples = 4\nvalue = [3, 1]\nclass = No", fillcolor="#eeab7b"] ;
201 -> 203 ;
204 [label="gini = 0.0\nsamples = 2\nvalue = [2, 0]\nclass = No", fillcolor="#e58139"] ;
203 -> 204 ;
205 [label="gini = 0.5\nsamples = 2\nvalue = [1, 1]\nclass = No", fillcolor="#ffffff"] ;
203 -> 205 ;
206 [label="gini = 0.444\nsamples = 3\nvalue = [2, 1]\nclass = No", fillcolor="#f2c09c"] ;
200 -> 206 ;
207 [label="ExperienceInCurrentDomain <= 2.5\ngini = 0.059\nsamples = 33\nvalue = [32, 1]\nclass = No", fillcolor="#e6853f"] ;
199 -> 207 ;
208 [label="Age <= 35.5\ngini = 0.1\nsamples = 19\nvalue = [18, 1]\nclass = No", fillcolor="#e68844"] ;
207 -> 208 ;
209 [label="gini = 0.0\nsamples = 9\nvalue = [9, 0]\nclass = No", fillcolor="#e58139"] ;
208 -> 209 ;
210 [label="Age <= 36.5\ngini = 0.18\nsamples = 10\nvalue = [9, 1]\nclass = No", fillcolor="#e88f4f"] ;
208 -> 210 ;
211 [label="Education <= 0.5\ngini = 0.32\nsamples = 5\nvalue = [4, 1]\nclass = No", fillcolor="#eca06a"] ;
210 -> 211 ;
212 [label="gini = 0.0\nsamples = 2\nvalue = [2, 0]\nclass = No", fillcolor="#e58139"] ;
211 -> 212 ;
213 [label="City <= 1.5\ngini = 0.444\nsamples = 3\nvalue = [2, 1]\nclass = No", fillcolor="#f2c09c"] ;
211 -> 213 ;
214 [label="gini = 0.5\nsamples = 2\nvalue = [1, 1]\nclass = No", fillcolor="#ffffff"] ;
213 -> 214 ;
215 [label="gini = 0.0\nsamples = 1\nvalue = [1, 0]\nclass = No", fillcolor="#e58139"] ;
213 -> 215 ;
216 [label="gini = 0.0\nsamples = 5\nvalue = [5, 0]\nclass = No", fillcolor="#e58139"] ;
210 -> 216 ;
217 [label="gini = 0.0\nsamples = 14\nvalue = [14, 0]\nclass = No", fillcolor="#e58139"] ;
207 -> 217 ;
218 [label="City <= 1.5\ngini = 0.5\nsamples = 4\nvalue = [2, 2]\nclass = No", fillcolor="#ffffff"] ;
192 -> 218 ;
219 [label="ExperienceInCurrentDomain <= 3.5\ngini = 0.444\nsamples = 3\nvalue = [1, 2]\nclass = Yes", fillcolor="#9ccef2"] ;
218 -> 219 ;
220 [label="gini = 0.0\nsamples = 2\nvalue = [0, 2]\nclass = Yes", fillcolor="#399de5"] ;
219 -> 220 ;
221 [label="gini = 0.0\nsamples = 1\nvalue = [1, 0]\nclass = No", fillcolor="#e58139"] ;
219 -> 221 ;
222 [label="gini = 0.0\nsamples = 1\nvalue = [1, 0]\nclass = No", fillcolor="#e58139"] ;
218 -> 222 ;
223 [label="Education <= 0.5\ngini = 0.32\nsamples = 2423\nvalue = [1938, 485]\nclass = No", fillcolor="#eca16b"] ;
1 -> 223 ;
224 [label="Gender <= 0.5\ngini = 0.268\nsamples = 2099\nvalue = [1764, 335]\nclass = No", fillcolor="#ea995f"] ;
223 -> 224 ;
225 [label="City <= 1.5\ngini = 0.375\nsamples = 691\nvalue = [518, 173]\nclass = No", fillcolor="#eeab7b"] ;
224 -> 225 ;
226 [label="City <= 0.5\ngini = 0.273\nsamples = 594\nvalue = [497, 97]\nclass = No", fillcolor="#ea9a60"] ;
225 -> 226 ;
227 [label="ExperienceInCurrentDomain <= 3.5\ngini = 0.31\nsamples = 406\nvalue = [328, 78]\nclass = No", fillcolor="#eb9f68"] ;
226 -> 227 ;
228 [label="Age <= 36.5\ngini = 0.353\nsamples = 232\nvalue = [179, 53]\nclass = No", fillcolor="#eda674"] ;
227 -> 228 ;
229 [label="ExperienceInCurrentDomain <= 1.5\ngini = 0.372\nsamples = 194\nvalue = [146, 48]\nclass = No", fillcolor="#eeaa7a"] ;
228 -> 229 ;
230 [label="Age <= 28.5\ngini = 0.432\nsamples = 73\nvalue = [50, 23]\nclass = No", fillcolor="#f1bb94"] ;
229 -> 230 ;
231 [label="JoiningYear <= 2014.5\ngini = 0.367\nsamples = 33\nvalue = [25, 8]\nclass = No", fillcolor="#eda978"] ;
230 -> 231 ;
232 [label="Age <= 25.5\ngini = 0.413\nsamples = 24\nvalue = [17, 7]\nclass = No", fillcolor="#f0b58b"] ;
231 -> 232 ;
233 [label="JoiningYear <= 2012.5\ngini = 0.346\nsamples = 9\nvalue = [7, 2]\nclass = No", fillcolor="#eca572"] ;
232 -> 233 ;
234 [label="gini = 0.0\nsamples = 1\nvalue = [0, 1]\nclass = Yes", fillcolor="#399de5"] ;
233 -> 234 ;
235 [label="Age <= 22.5\ngini = 0.219\nsamples = 8\nvalue = [7, 1]\nclass = No", fillcolor="#e99355"] ;
233 -> 235 ;
236 [label="JoiningYear <= 2013.5\ngini = 0.32\nsamples = 5\nvalue = [4, 1]\nclass = No", fillcolor="#eca06a"] ;
235 -> 236 ;
237 [label="gini = 0.0\nsamples = 1\nvalue = [1, 0]\nclass = No", fillcolor="#e58139"] ;
236 -> 237 ;
238 [label="gini = 0.375\nsamples = 4\nvalue = [3, 1]\nclass = No", fillcolor="#eeab7b"] ;
236 -> 238 ;
239 [label="gini = 0.0\nsamples = 3\nvalue = [3, 0]\nclass = No", fillcolor="#e58139"] ;
235 -> 239 ;
240 [label="JoiningYear <= 2012.5\ngini = 0.444\nsamples = 15\nvalue = [10, 5]\nclass = No", fillcolor="#f2c09c"] ;
232 -> 240 ;
241 [label="ExperienceInCurrentDomain <= 0.5\ngini = 0.245\nsamples = 7\nvalue = [6, 1]\nclass = No", fillcolor="#e9965a"] ;
240 -> 241 ;
242 [label="gini = 0.0\nsamples = 3\nvalue = [3, 0]\nclass = No", fillcolor="#e58139"] ;
241 -> 242 ;
243 [label="gini = 0.375\nsamples = 4\nvalue = [3, 1]\nclass = No", fillcolor="#eeab7b"] ;
241 -> 243 ;
244 [label="ExperienceInCurrentDomain <= 0.5\ngini = 0.5\nsamples = 8\nvalue = [4, 4]\nclass = No", fillcolor="#ffffff"] ;
240 -> 244 ;
245 [label="gini = 0.0\nsamples = 1\nvalue = [0, 1]\nclass = Yes", fillcolor="#399de5"] ;
244 -> 245 ;
246 [label="JoiningYear <= 2013.5\ngini = 0.49\nsamples = 7\nvalue = [4, 3]\nclass = No", fillcolor="#f8e0ce"] ;
244 -> 246 ;
247 [label="gini = 0.5\nsamples = 4\nvalue = [2, 2]\nclass = No", fillcolor="#ffffff"] ;
246 -> 247 ;
248 [label="gini = 0.444\nsamples = 3\nvalue = [2, 1]\nclass = No", fillcolor="#f2c09c"] ;
246 -> 248 ;
249 [label="JoiningYear <= 2015.5\ngini = 0.198\nsamples = 9\nvalue = [8, 1]\nclass = No", fillcolor="#e89152"] ;
231 -> 249 ;
250 [label="gini = 0.0\nsamples = 4\nvalue = [4, 0]\nclass = No", fillcolor="#e58139"] ;
249 -> 250 ;
251 [label="JoiningYear <= 2016.5\ngini = 0.32\nsamples = 5\nvalue = [4, 1]\nclass = No", fillcolor="#eca06a"] ;
249 -> 251 ;
252 [label="gini = 0.444\nsamples = 3\nvalue = [2, 1]\nclass = No", fillcolor="#f2c09c"] ;
251 -> 252 ;
253 [label="gini = 0.0\nsamples = 2\nvalue = [2, 0]\nclass = No", fillcolor="#e58139"] ;
251 -> 253 ;
254 [label="JoiningYear <= 2016.5\ngini = 0.469\nsamples = 40\nvalue = [25, 15]\nclass = No", fillcolor="#f5cdb0"] ;
230 -> 254 ;
255 [label="JoiningYear <= 2012.5\ngini = 0.48\nsamples = 35\nvalue = [21, 14]\nclass = No", fillcolor="#f6d5bd"] ;
254 -> 255 ;
256 [label="Age <= 32.5\ngini = 0.375\nsamples = 8\nvalue = [6, 2]\nclass = No", fillcolor="#eeab7b"] ;
255 -> 256 ;
257 [label="Age <= 29.5\ngini = 0.5\nsamples = 4\nvalue = [2, 2]\nclass = No", fillcolor="#ffffff"] ;
256 -> 257 ;
258 [label="gini = 0.0\nsamples = 1\nvalue = [1, 0]\nclass = No", fillcolor="#e58139"] ;
257 -> 258 ;
259 [label="Age <= 31.0\ngini = 0.444\nsamples = 3\nvalue = [1, 2]\nclass = Yes", fillcolor="#9ccef2"] ;
257 -> 259 ;
260 [label="gini = 0.5\nsamples = 2\nvalue = [1, 1]\nclass = No", fillcolor="#ffffff"] ;
259 -> 260 ;
261 [label="gini = 0.0\nsamples = 1\nvalue = [0, 1]\nclass = Yes", fillcolor="#399de5"] ;
259 -> 261 ;
262 [label="gini = 0.0\nsamples = 4\nvalue = [4, 0]\nclass = No", fillcolor="#e58139"] ;
256 -> 262 ;
263 [label="Age <= 32.5\ngini = 0.494\nsamples = 27\nvalue = [15, 12]\nclass = No", fillcolor="#fae6d7"] ;
255 -> 263 ;
264 [label="Age <= 30.5\ngini = 0.469\nsamples = 16\nvalue = [10, 6]\nclass = No", fillcolor="#f5cdb0"] ;
263 -> 264 ;
265 [label="ExperienceInCurrentDomain <= 0.5\ngini = 0.497\nsamples = 13\nvalue = [7, 6]\nclass = No", fillcolor="#fbede3"] ;
264 -> 265 ;
266 [label="JoiningYear <= 2015.5\ngini = 0.444\nsamples = 3\nvalue = [2, 1]\nclass = No", fillcolor="#f2c09c"] ;
265 -> 266 ;
267 [label="gini = 0.0\nsamples = 2\nvalue = [2, 0]\nclass = No", fillcolor="#e58139"] ;
266 -> 267 ;
268 [label="gini = 0.0\nsamples = 1\nvalue = [0, 1]\nclass = Yes", fillcolor="#399de5"] ;
266 -> 268 ;
269 [label="JoiningYear <= 2015.5\ngini = 0.5\nsamples = 10\nvalue = [5, 5]\nclass = No", fillcolor="#ffffff"] ;
265 -> 269 ;
270 [label="JoiningYear <= 2013.5\ngini = 0.49\nsamples = 7\nvalue = [3, 4]\nclass = Yes", fillcolor="#cee6f8"] ;
269 -> 270 ;
271 [label="Age <= 29.5\ngini = 0.5\nsamples = 4\nvalue = [2, 2]\nclass = No", fillcolor="#ffffff"] ;
270 -> 271 ;
272 [label="gini = 0.0\nsamples = 1\nvalue = [0, 1]\nclass = Yes", fillcolor="#399de5"] ;
271 -> 272 ;
273 [label="gini = 0.444\nsamples = 3\nvalue = [2, 1]\nclass = No", fillcolor="#f2c09c"] ;
271 -> 273 ;
274 [label="JoiningYear <= 2014.5\ngini = 0.444\nsamples = 3\nvalue = [1, 2]\nclass = Yes", fillcolor="#9ccef2"] ;
270 -> 274 ;
275 [label="gini = 0.0\nsamples = 1\nvalue = [0, 1]\nclass = Yes", fillcolor="#399de5"] ;
274 -> 275 ;
276 [label="Age <= 29.5\ngini = 0.5\nsamples = 2\nvalue = [1, 1]\nclass = No", fillcolor="#ffffff"] ;
274 -> 276 ;
277 [label="gini = 0.0\nsamples = 1\nvalue = [1, 0]\nclass = No", fillcolor="#e58139"] ;
276 -> 277 ;
278 [label="gini = 0.0\nsamples = 1\nvalue = [0, 1]\nclass = Yes", fillcolor="#399de5"] ;
276 -> 278 ;
279 [label="Age <= 29.5\ngini = 0.444\nsamples = 3\nvalue = [2, 1]\nclass = No", fillcolor="#f2c09c"] ;
269 -> 279 ;
280 [label="gini = 0.5\nsamples = 2\nvalue = [1, 1]\nclass = No", fillcolor="#ffffff"] ;
279 -> 280 ;
281 [label="gini = 0.0\nsamples = 1\nvalue = [1, 0]\nclass = No", fillcolor="#e58139"] ;
279 -> 281 ;
282 [label="gini = 0.0\nsamples = 3\nvalue = [3, 0]\nclass = No", fillcolor="#e58139"] ;
264 -> 282 ;
283 [label="JoiningYear <= 2015.5\ngini = 0.496\nsamples = 11\nvalue = [5, 6]\nclass = Yes", fillcolor="#deeffb"] ;
263 -> 283 ;
284 [label="JoiningYear <= 2014.5\ngini = 0.469\nsamples = 8\nvalue = [3, 5]\nclass = Yes", fillcolor="#b0d8f5"] ;
283 -> 284 ;
285 [label="JoiningYear <= 2013.5\ngini = 0.5\nsamples = 6\nvalue = [3, 3]\nclass = No", fillcolor="#ffffff"] ;
284 -> 285 ;
286 [label="Age <= 34.0\ngini = 0.444\nsamples = 3\nvalue = [1, 2]\nclass = Yes", fillcolor="#9ccef2"] ;
285 -> 286 ;
287 [label="gini = 0.0\nsamples = 1\nvalue = [0, 1]\nclass = Yes", fillcolor="#399de5"] ;
286 -> 287 ;
288 [label="Age <= 35.5\ngini = 0.5\nsamples = 2\nvalue = [1, 1]\nclass = No", fillcolor="#ffffff"] ;
286 -> 288 ;
289 [label="gini = 0.0\nsamples = 1\nvalue = [1, 0]\nclass = No", fillcolor="#e58139"] ;
288 -> 289 ;
290 [label="gini = 0.0\nsamples = 1\nvalue = [0, 1]\nclass = Yes", fillcolor="#399de5"] ;
288 -> 290 ;
291 [label="Age <= 34.5\ngini = 0.444\nsamples = 3\nvalue = [2, 1]\nclass = No", fillcolor="#f2c09c"] ;
285 -> 291 ;
292 [label="gini = 0.0\nsamples = 1\nvalue = [1, 0]\nclass = No", fillcolor="#e58139"] ;
291 -> 292 ;
293 [label="ExperienceInCurrentDomain <= 0.5\ngini = 0.5\nsamples = 2\nvalue = [1, 1]\nclass = No", fillcolor="#ffffff"] ;
291 -> 293 ;
294 [label="gini = 0.0\nsamples = 1\nvalue = [1, 0]\nclass = No", fillcolor="#e58139"] ;
293 -> 294 ;
295 [label="gini = 0.0\nsamples = 1\nvalue = [0, 1]\nclass = Yes", fillcolor="#399de5"] ;
293 -> 295 ;
296 [label="gini = 0.0\nsamples = 2\nvalue = [0, 2]\nclass = Yes", fillcolor="#399de5"] ;
284 -> 296 ;
297 [label="Age <= 33.5\ngini = 0.444\nsamples = 3\nvalue = [2, 1]\nclass = No", fillcolor="#f2c09c"] ;
283 -> 297 ;
298 [label="gini = 0.0\nsamples = 1\nvalue = [0, 1]\nclass = Yes", fillcolor="#399de5"] ;
297 -> 298 ;
299 [label="gini = 0.0\nsamples = 2\nvalue = [2, 0]\nclass = No", fillcolor="#e58139"] ;
297 -> 299 ;
300 [label="Age <= 34.5\ngini = 0.32\nsamples = 5\nvalue = [4, 1]\nclass = No", fillcolor="#eca06a"] ;
254 -> 300 ;
301 [label="gini = 0.0\nsamples = 3\nvalue = [3, 0]\nclass = No", fillcolor="#e58139"] ;
300 -> 301 ;
302 [label="Age <= 35.5\ngini = 0.5\nsamples = 2\nvalue = [1, 1]\nclass = No", fillcolor="#ffffff"] ;
300 -> 302 ;
303 [label="gini = 0.0\nsamples = 1\nvalue = [0, 1]\nclass = Yes", fillcolor="#399de5"] ;
302 -> 303 ;
304 [label="gini = 0.0\nsamples = 1\nvalue = [1, 0]\nclass = No", fillcolor="#e58139"] ;
302 -> 304 ;
305 [label="ExperienceInCurrentDomain <= 2.5\ngini = 0.328\nsamples = 121\nvalue = [96, 25]\nclass = No", fillcolor="#eca26d"] ;
229 -> 305 ;
306 [label="JoiningYear <= 2015.5\ngini = 0.282\nsamples = 59\nvalue = [49, 10]\nclass = No", fillcolor="#ea9b61"] ;
305 -> 306 ;
307 [label="Age <= 34.5\ngini = 0.198\nsamples = 36\nvalue = [32, 4]\nclass = No", fillcolor="#e89152"] ;
306 -> 307 ;
308 [label="Age <= 28.5\ngini = 0.17\nsamples = 32\nvalue = [29, 3]\nclass = No", fillcolor="#e88e4d"] ;
307 -> 308 ;
309 [label="JoiningYear <= 2014.5\ngini = 0.255\nsamples = 20\nvalue = [17, 3]\nclass = No", fillcolor="#ea975c"] ;
308 -> 309 ;
310 [label="JoiningYear <= 2012.5\ngini = 0.142\nsamples = 13\nvalue = [12, 1]\nclass = No", fillcolor="#e78c49"] ;
309 -> 310 ;
311 [label="Age <= 26.0\ngini = 0.32\nsamples = 5\nvalue = [4, 1]\nclass = No", fillcolor="#eca06a"] ;
310 -> 311 ;
312 [label="gini = 0.0\nsamples = 1\nvalue = [1, 0]\nclass = No", fillcolor="#e58139"] ;
311 -> 312 ;
313 [label="gini = 0.375\nsamples = 4\nvalue = [3, 1]\nclass = No", fillcolor="#eeab7b"] ;
311 -> 313 ;
314 [label="gini = 0.0\nsamples = 8\nvalue = [8, 0]\nclass = No", fillcolor="#e58139"] ;
310 -> 314 ;
315 [label="Age <= 26.0\ngini = 0.408\nsamples = 7\nvalue = [5, 2]\nclass = No", fillcolor="#efb388"] ;
309 -> 315 ;
316 [label="gini = 0.444\nsamples = 6\nvalue = [4, 2]\nclass = No", fillcolor="#f2c09c"] ;
315 -> 316 ;
317 [label="gini = 0.0\nsamples = 1\nvalue = [1, 0]\nclass = No", fillcolor="#e58139"] ;
315 -> 317 ;
318 [label="gini = 0.0\nsamples = 12\nvalue = [12, 0]\nclass = No", fillcolor="#e58139"] ;
308 -> 318 ;
319 [label="JoiningYear <= 2013.0\ngini = 0.375\nsamples = 4\nvalue = [3, 1]\nclass = No", fillcolor="#eeab7b"] ;
307 -> 319 ;
320 [label="gini = 0.0\nsamples = 1\nvalue = [1, 0]\nclass = No", fillcolor="#e58139"] ;
319 -> 320 ;
321 [label="JoiningYear <= 2014.5\ngini = 0.444\nsamples = 3\nvalue = [2, 1]\nclass = No", fillcolor="#f2c09c"] ;
319 -> 321 ;
322 [label="gini = 0.5\nsamples = 2\nvalue = [1, 1]\nclass = No", fillcolor="#ffffff"] ;
321 -> 322 ;
323 [label="gini = 0.0\nsamples = 1\nvalue = [1, 0]\nclass = No", fillcolor="#e58139"] ;
321 -> 323 ;
324 [label="JoiningYear <= 2016.5\ngini = 0.386\nsamples = 23\nvalue = [17, 6]\nclass = No", fillcolor="#eead7f"] ;
306 -> 324 ;
325 [label="Age <= 35.0\ngini = 0.49\nsamples = 7\nvalue = [4, 3]\nclass = No", fillcolor="#f8e0ce"] ;
324 -> 325 ;
326 [label="Age <= 32.5\ngini = 0.5\nsamples = 6\nvalue = [3, 3]\nclass = No", fillcolor="#ffffff"] ;
325 -> 326 ;
327 [label="Age <= 30.5\ngini = 0.48\nsamples = 5\nvalue = [3, 2]\nclass = No", fillcolor="#f6d5bd"] ;
326 -> 327 ;
328 [label="Age <= 27.0\ngini = 0.5\nsamples = 4\nvalue = [2, 2]\nclass = No", fillcolor="#ffffff"] ;
327 -> 328 ;
329 [label="gini = 0.5\nsamples = 2\nvalue = [1, 1]\nclass = No", fillcolor="#ffffff"] ;
328 -> 329 ;
330 [label="gini = 0.5\nsamples = 2\nvalue = [1, 1]\nclass = No", fillcolor="#ffffff"] ;
328 -> 330 ;
331 [label="gini = 0.0\nsamples = 1\nvalue = [1, 0]\nclass = No", fillcolor="#e58139"] ;
327 -> 331 ;
332 [label="gini = 0.0\nsamples = 1\nvalue = [0, 1]\nclass = Yes", fillcolor="#399de5"] ;
326 -> 332 ;
333 [label="gini = 0.0\nsamples = 1\nvalue = [1, 0]\nclass = No", fillcolor="#e58139"] ;
325 -> 333 ;
334 [label="Age <= 29.5\ngini = 0.305\nsamples = 16\nvalue = [13, 3]\nclass = No", fillcolor="#eb9e67"] ;
324 -> 334 ;
335 [label="Age <= 26.0\ngini = 0.337\nsamples = 14\nvalue = [11, 3]\nclass = No", fillcolor="#eca36f"] ;
334 -> 335 ;
336 [label="gini = 0.278\nsamples = 12\nvalue = [10, 2]\nclass = No", fillcolor="#ea9a61"] ;
335 -> 336 ;
337 [label="gini = 0.5\nsamples = 2\nvalue = [1, 1]\nclass = No", fillcolor="#ffffff"] ;
335 -> 337 ;
338 [label="gini = 0.0\nsamples = 2\nvalue = [2, 0]\nclass = No", fillcolor="#e58139"] ;
334 -> 338 ;
339 [label="JoiningYear <= 2015.5\ngini = 0.367\nsamples = 62\nvalue = [47, 15]\nclass = No", fillcolor="#eda978"] ;
305 -> 339 ;
340 [label="JoiningYear <= 2014.5\ngini = 0.408\nsamples = 42\nvalue = [30, 12]\nclass = No", fillcolor="#efb388"] ;
339 -> 340 ;
341 [label="Age <= 26.5\ngini = 0.368\nsamples = 37\nvalue = [28, 9]\nclass = No", fillcolor="#edaa79"] ;
340 -> 341 ;
342 [label="JoiningYear <= 2013.5\ngini = 0.423\nsamples = 23\nvalue = [16, 7]\nclass = No", fillcolor="#f0b890"] ;
341 -> 342 ;
343 [label="JoiningYear <= 2012.5\ngini = 0.391\nsamples = 15\nvalue = [11, 4]\nclass = No", fillcolor="#eeaf81"] ;
342 -> 343 ;
344 [label="gini = 0.375\nsamples = 4\nvalue = [3, 1]\nclass = No", fillcolor="#eeab7b"] ;
343 -> 344 ;
345 [label="gini = 0.397\nsamples = 11\nvalue = [8, 3]\nclass = No", fillcolor="#efb083"] ;
343 -> 345 ;
346 [label="gini = 0.469\nsamples = 8\nvalue = [5, 3]\nclass = No", fillcolor="#f5cdb0"] ;
342 -> 346 ;
347 [label="Age <= 29.5\ngini = 0.245\nsamples = 14\nvalue = [12, 2]\nclass = No", fillcolor="#e9965a"] ;
341 -> 347 ;
348 [label="gini = 0.0\nsamples = 8\nvalue = [8, 0]\nclass = No", fillcolor="#e58139"] ;
347 -> 348 ;
349 [label="JoiningYear <= 2012.5\ngini = 0.444\nsamples = 6\nvalue = [4, 2]\nclass = No", fillcolor="#f2c09c"] ;
347 -> 349 ;
350 [label="gini = 0.0\nsamples = 2\nvalue = [2, 0]\nclass = No", fillcolor="#e58139"] ;
349 -> 350 ;
351 [label="Age <= 33.5\ngini = 0.5\nsamples = 4\nvalue = [2, 2]\nclass = No", fillcolor="#ffffff"] ;
349 -> 351 ;
352 [label="gini = 0.0\nsamples = 1\nvalue = [0, 1]\nclass = Yes", fillcolor="#399de5"] ;
351 -> 352 ;
353 [label="gini = 0.444\nsamples = 3\nvalue = [2, 1]\nclass = No", fillcolor="#f2c09c"] ;
351 -> 353 ;
354 [label="Age <= 29.0\ngini = 0.48\nsamples = 5\nvalue = [2, 3]\nclass = Yes", fillcolor="#bddef6"] ;
340 -> 354 ;
355 [label="Age <= 26.5\ngini = 0.5\nsamples = 4\nvalue = [2, 2]\nclass = No", fillcolor="#ffffff"] ;
354 -> 355 ;
356 [label="gini = 0.444\nsamples = 3\nvalue = [1, 2]\nclass = Yes", fillcolor="#9ccef2"] ;
355 -> 356 ;
357 [label="gini = 0.0\nsamples = 1\nvalue = [1, 0]\nclass = No", fillcolor="#e58139"] ;
355 -> 357 ;
358 [label="gini = 0.0\nsamples = 1\nvalue = [0, 1]\nclass = Yes", fillcolor="#399de5"] ;
354 -> 358 ;
359 [label="Age <= 35.5\ngini = 0.255\nsamples = 20\nvalue = [17, 3]\nclass = No", fillcolor="#ea975c"] ;
339 -> 359 ;
360 [label="JoiningYear <= 2016.5\ngini = 0.198\nsamples = 18\nvalue = [16, 2]\nclass = No", fillcolor="#e89152"] ;
359 -> 360 ;
361 [label="gini = 0.0\nsamples = 7\nvalue = [7, 0]\nclass = No", fillcolor="#e58139"] ;
360 -> 361 ;
362 [label="Age <= 30.0\ngini = 0.298\nsamples = 11\nvalue = [9, 2]\nclass = No", fillcolor="#eb9d65"] ;
360 -> 362 ;
363 [label="Age <= 26.5\ngini = 0.375\nsamples = 8\nvalue = [6, 2]\nclass = No", fillcolor="#eeab7b"] ;
362 -> 363 ;
364 [label="gini = 0.278\nsamples = 6\nvalue = [5, 1]\nclass = No", fillcolor="#ea9a61"] ;
363 -> 364 ;
365 [label="gini = 0.5\nsamples = 2\nvalue = [1, 1]\nclass = No", fillcolor="#ffffff"] ;
363 -> 365 ;
366 [label="gini = 0.0\nsamples = 3\nvalue = [3, 0]\nclass = No", fillcolor="#e58139"] ;
362 -> 366 ;
367 [label="gini = 0.5\nsamples = 2\nvalue = [1, 1]\nclass = No", fillcolor="#ffffff"] ;
359 -> 367 ;
368 [label="ExperienceInCurrentDomain <= 2.5\ngini = 0.229\nsamples = 38\nvalue = [33, 5]\nclass = No", fillcolor="#e99457"] ;
228 -> 368 ;
369 [label="Age <= 40.5\ngini = 0.133\nsamples = 28\nvalue = [26, 2]\nclass = No", fillcolor="#e78b48"] ;
368 -> 369 ;
370 [label="ExperienceInCurrentDomain <= 1.5\ngini = 0.074\nsamples = 26\nvalue = [25, 1]\nclass = No", fillcolor="#e68641"] ;
369 -> 370 ;
371 [label="gini = 0.0\nsamples = 18\nvalue = [18, 0]\nclass = No", fillcolor="#e58139"] ;
370 -> 371 ;
372 [label="JoiningYear <= 2014.5\ngini = 0.219\nsamples = 8\nvalue = [7, 1]\nclass = No", fillcolor="#e99355"] ;
370 -> 372 ;
373 [label="Age <= 38.5\ngini = 0.375\nsamples = 4\nvalue = [3, 1]\nclass = No", fillcolor="#eeab7b"] ;
372 -> 373 ;
374 [label="gini = 0.5\nsamples = 2\nvalue = [1, 1]\nclass = No", fillcolor="#ffffff"] ;
373 -> 374 ;
375 [label="gini = 0.0\nsamples = 2\nvalue = [2, 0]\nclass = No", fillcolor="#e58139"] ;
373 -> 375 ;
376 [label="gini = 0.0\nsamples = 4\nvalue = [4, 0]\nclass = No", fillcolor="#e58139"] ;
372 -> 376 ;
377 [label="JoiningYear <= 2016.5\ngini = 0.5\nsamples = 2\nvalue = [1, 1]\nclass = No", fillcolor="#ffffff"] ;
369 -> 377 ;
378 [label="gini = 0.0\nsamples = 1\nvalue = [0, 1]\nclass = Yes", fillcolor="#399de5"] ;
377 -> 378 ;
379 [label="gini = 0.0\nsamples = 1\nvalue = [1, 0]\nclass = No", fillcolor="#e58139"] ;
377 -> 379 ;
380 [label="Age <= 39.5\ngini = 0.42\nsamples = 10\nvalue = [7, 3]\nclass = No", fillcolor="#f0b78e"] ;
368 -> 380 ;
381 [label="Age <= 38.5\ngini = 0.5\nsamples = 6\nvalue = [3, 3]\nclass = No", fillcolor="#ffffff"] ;
380 -> 381 ;
382 [label="gini = 0.0\nsamples = 3\nvalue = [3, 0]\nclass = No", fillcolor="#e58139"] ;
381 -> 382 ;
383 [label="gini = 0.0\nsamples = 3\nvalue = [0, 3]\nclass = Yes", fillcolor="#399de5"] ;
381 -> 383 ;
384 [label="gini = 0.0\nsamples = 4\nvalue = [4, 0]\nclass = No", fillcolor="#e58139"] ;
380 -> 384 ;
385 [label="JoiningYear <= 2013.5\ngini = 0.246\nsamples = 174\nvalue = [149, 25]\nclass = No", fillcolor="#e9965a"] ;
227 -> 385 ;
386 [label="Age <= 36.5\ngini = 0.148\nsamples = 62\nvalue = [57, 5]\nclass = No", fillcolor="#e78c4a"] ;
385 -> 386 ;
387 [label="JoiningYear <= 2012.5\ngini = 0.107\nsamples = 53\nvalue = [50, 3]\nclass = No", fillcolor="#e78945"] ;
386 -> 387 ;
388 [label="Age <= 28.0\ngini = 0.159\nsamples = 23\nvalue = [21, 2]\nclass = No", fillcolor="#e78d4c"] ;
387 -> 388 ;
389 [label="Age <= 26.5\ngini = 0.219\nsamples = 16\nvalue = [14, 2]\nclass = No", fillcolor="#e99355"] ;
388 -> 389 ;
390 [label="gini = 0.219\nsamples = 8\nvalue = [7, 1]\nclass = No", fillcolor="#e99355"] ;
389 -> 390 ;
391 [label="gini = 0.219\nsamples = 8\nvalue = [7, 1]\nclass = No", fillcolor="#e99355"] ;
389 -> 391 ;
392 [label="gini = 0.0\nsamples = 7\nvalue = [7, 0]\nclass = No", fillcolor="#e58139"] ;
388 -> 392 ;
393 [label="Age <= 30.5\ngini = 0.064\nsamples = 30\nvalue = [29, 1]\nclass = No", fillcolor="#e68540"] ;
387 -> 393 ;
394 [label="gini = 0.0\nsamples = 25\nvalue = [25, 0]\nclass = No", fillcolor="#e58139"] ;
393 -> 394 ;
395 [label="Age <= 31.5\ngini = 0.32\nsamples = 5\nvalue = [4, 1]\nclass = No", fillcolor="#eca06a"] ;
393 -> 395 ;
396 [label="ExperienceInCurrentDomain <= 4.5\ngini = 0.5\nsamples = 2\nvalue = [1, 1]\nclass = No", fillcolor="#ffffff"] ;
395 -> 396 ;
397 [label="gini = 0.0\nsamples = 1\nvalue = [0, 1]\nclass = Yes", fillcolor="#399de5"] ;
396 -> 397 ;
398 [label="gini = 0.0\nsamples = 1\nvalue = [1, 0]\nclass = No", fillcolor="#e58139"] ;
396 -> 398 ;
399 [label="gini = 0.0\nsamples = 3\nvalue = [3, 0]\nclass = No", fillcolor="#e58139"] ;
395 -> 399 ;
400 [label="Age <= 37.5\ngini = 0.346\nsamples = 9\nvalue = [7, 2]\nclass = No", fillcolor="#eca572"] ;
386 -> 400 ;
401 [label="gini = 0.0\nsamples = 1\nvalue = [0, 1]\nclass = Yes", fillcolor="#399de5"] ;
400 -> 401 ;
402 [label="Age <= 38.5\ngini = 0.219\nsamples = 8\nvalue = [7, 1]\nclass = No", fillcolor="#e99355"] ;
400 -> 402 ;
403 [label="ExperienceInCurrentDomain <= 4.5\ngini = 0.444\nsamples = 3\nvalue = [2, 1]\nclass = No", fillcolor="#f2c09c"] ;
402 -> 403 ;
404 [label="JoiningYear <= 2012.5\ngini = 0.5\nsamples = 2\nvalue = [1, 1]\nclass = No", fillcolor="#ffffff"] ;
403 -> 404 ;
405 [label="gini = 0.0\nsamples = 1\nvalue = [0, 1]\nclass = Yes", fillcolor="#399de5"] ;
404 -> 405 ;
406 [label="gini = 0.0\nsamples = 1\nvalue = [1, 0]\nclass = No", fillcolor="#e58139"] ;
404 -> 406 ;
407 [label="gini = 0.0\nsamples = 1\nvalue = [1, 0]\nclass = No", fillcolor="#e58139"] ;
403 -> 407 ;
408 [label="gini = 0.0\nsamples = 5\nvalue = [5, 0]\nclass = No", fillcolor="#e58139"] ;
402 -> 408 ;
409 [label="Age <= 27.5\ngini = 0.293\nsamples = 112\nvalue = [92, 20]\nclass = No", fillcolor="#eb9c64"] ;
385 -> 409 ;
410 [label="JoiningYear <= 2015.5\ngini = 0.371\nsamples = 69\nvalue = [52, 17]\nclass = No", fillcolor="#eeaa7a"] ;
409 -> 410 ;
411 [label="JoiningYear <= 2014.5\ngini = 0.444\nsamples = 33\nvalue = [22, 11]\nclass = No", fillcolor="#f2c09c"] ;
410 -> 411 ;
412 [label="Age <= 26.5\ngini = 0.278\nsamples = 12\nvalue = [10, 2]\nclass = No", fillcolor="#ea9a61"] ;
411 -> 412 ;
413 [label="gini = 0.32\nsamples = 5\nvalue = [4, 1]\nclass = No", fillcolor="#eca06a"] ;
412 -> 413 ;
414 [label="gini = 0.245\nsamples = 7\nvalue = [6, 1]\nclass = No", fillcolor="#e9965a"] ;
412 -> 414 ;
415 [label="ExperienceInCurrentDomain <= 4.5\ngini = 0.49\nsamples = 21\nvalue = [12, 9]\nclass = No", fillcolor="#f8e0ce"] ;
411 -> 415 ;
416 [label="gini = 0.49\nsamples = 7\nvalue = [3, 4]\nclass = Yes", fillcolor="#cee6f8"] ;
415 -> 416 ;
417 [label="gini = 0.459\nsamples = 14\nvalue = [9, 5]\nclass = No", fillcolor="#f3c7a7"] ;
415 -> 417 ;
418 [label="ExperienceInCurrentDomain <= 4.5\ngini = 0.278\nsamples = 36\nvalue = [30, 6]\nclass = No", fillcolor="#ea9a61"] ;
410 -> 418 ;
419 [label="JoiningYear <= 2016.5\ngini = 0.208\nsamples = 17\nvalue = [15, 2]\nclass = No", fillcolor="#e89253"] ;
418 -> 419 ;
420 [label="gini = 0.245\nsamples = 7\nvalue = [6, 1]\nclass = No", fillcolor="#e9965a"] ;
419 -> 420 ;
421 [label="gini = 0.18\nsamples = 10\nvalue = [9, 1]\nclass = No", fillcolor="#e88f4f"] ;
419 -> 421 ;
422 [label="JoiningYear <= 2016.5\ngini = 0.332\nsamples = 19\nvalue = [15, 4]\nclass = No", fillcolor="#eca36e"] ;
418 -> 422 ;
423 [label="gini = 0.278\nsamples = 12\nvalue = [10, 2]\nclass = No", fillcolor="#ea9a61"] ;
422 -> 423 ;
424 [label="gini = 0.408\nsamples = 7\nvalue = [5, 2]\nclass = No", fillcolor="#efb388"] ;
422 -> 424 ;
425 [label="Age <= 32.5\ngini = 0.13\nsamples = 43\nvalue = [40, 3]\nclass = No", fillcolor="#e78a48"] ;
409 -> 425 ;
426 [label="gini = 0.0\nsamples = 15\nvalue = [15, 0]\nclass = No", fillcolor="#e58139"] ;
425 -> 426 ;
427 [label="Age <= 33.5\ngini = 0.191\nsamples = 28\nvalue = [25, 3]\nclass = No", fillcolor="#e89051"] ;
425 -> 427 ;
428 [label="JoiningYear <= 2016.5\ngini = 0.5\nsamples = 2\nvalue = [1, 1]\nclass = No", fillcolor="#ffffff"] ;
427 -> 428 ;
429 [label="gini = 0.0\nsamples = 1\nvalue = [1, 0]\nclass = No", fillcolor="#e58139"] ;
428 -> 429 ;
430 [label="gini = 0.0\nsamples = 1\nvalue = [0, 1]\nclass = Yes", fillcolor="#399de5"] ;
428 -> 430 ;
431 [label="ExperienceInCurrentDomain <= 4.5\ngini = 0.142\nsamples = 26\nvalue = [24, 2]\nclass = No", fillcolor="#e78c49"] ;
427 -> 431 ;
432 [label="gini = 0.0\nsamples = 16\nvalue = [16, 0]\nclass = No", fillcolor="#e58139"] ;
431 -> 432 ;
433 [label="JoiningYear <= 2014.5\ngini = 0.32\nsamples = 10\nvalue = [8, 2]\nclass = No", fillcolor="#eca06a"] ;
431 -> 433 ;
434 [label="gini = 0.0\nsamples = 1\nvalue = [0, 1]\nclass = Yes", fillcolor="#399de5"] ;
433 -> 434 ;
435 [label="Age <= 36.5\ngini = 0.198\nsamples = 9\nvalue = [8, 1]\nclass = No", fillcolor="#e89152"] ;
433 -> 435 ;
436 [label="Age <= 35.5\ngini = 0.375\nsamples = 4\nvalue = [3, 1]\nclass = No", fillcolor="#eeab7b"] ;
435 -> 436 ;
437 [label="gini = 0.0\nsamples = 2\nvalue = [2, 0]\nclass = No", fillcolor="#e58139"] ;
436 -> 437 ;
438 [label="JoiningYear <= 2015.5\ngini = 0.5\nsamples = 2\nvalue = [1, 1]\nclass = No", fillcolor="#ffffff"] ;
436 -> 438 ;
439 [label="gini = 0.0\nsamples = 1\nvalue = [1, 0]\nclass = No", fillcolor="#e58139"] ;
438 -> 439 ;
440 [label="gini = 0.0\nsamples = 1\nvalue = [0, 1]\nclass = Yes", fillcolor="#399de5"] ;
438 -> 440 ;
441 [label="gini = 0.0\nsamples = 5\nvalue = [5, 0]\nclass = No", fillcolor="#e58139"] ;
435 -> 441 ;
442 [label="Age <= 24.5\ngini = 0.182\nsamples = 188\nvalue = [169, 19]\nclass = No", fillcolor="#e88f4f"] ;
226 -> 442 ;
443 [label="JoiningYear <= 2016.5\ngini = 0.375\nsamples = 16\nvalue = [12, 4]\nclass = No", fillcolor="#eeab7b"] ;
442 -> 443 ;
444 [label="JoiningYear <= 2013.5\ngini = 0.26\nsamples = 13\nvalue = [11, 2]\nclass = No", fillcolor="#ea985d"] ;
443 -> 444 ;
445 [label="ExperienceInCurrentDomain <= 1.0\ngini = 0.48\nsamples = 5\nvalue = [3, 2]\nclass = No", fillcolor="#f6d5bd"] ;
444 -> 445 ;
446 [label="gini = 0.0\nsamples = 1\nvalue = [1, 0]\nclass = No", fillcolor="#e58139"] ;
445 -> 446 ;
447 [label="JoiningYear <= 2012.5\ngini = 0.5\nsamples = 4\nvalue = [2, 2]\nclass = No", fillcolor="#ffffff"] ;
445 -> 447 ;
448 [label="gini = 0.5\nsamples = 2\nvalue = [1, 1]\nclass = No", fillcolor="#ffffff"] ;
447 -> 448 ;
449 [label="gini = 0.5\nsamples = 2\nvalue = [1, 1]\nclass = No", fillcolor="#ffffff"] ;
447 -> 449 ;
450 [label="gini = 0.0\nsamples = 8\nvalue = [8, 0]\nclass = No", fillcolor="#e58139"] ;
444 -> 450 ;
451 [label="gini = 0.444\nsamples = 3\nvalue = [1, 2]\nclass = Yes", fillcolor="#9ccef2"] ;
443 -> 451 ;
452 [label="ExperienceInCurrentDomain <= 4.5\ngini = 0.159\nsamples = 172\nvalue = [157, 15]\nclass = No", fillcolor="#e78d4c"] ;
442 -> 452 ;
453 [label="Age <= 33.5\ngini = 0.123\nsamples = 137\nvalue = [128, 9]\nclass = No", fillcolor="#e78a47"] ;
452 -> 453 ;
454 [label="JoiningYear <= 2013.5\ngini = 0.085\nsamples = 112\nvalue = [107, 5]\nclass = No", fillcolor="#e68742"] ;
453 -> 454 ;
455 [label="JoiningYear <= 2012.5\ngini = 0.204\nsamples = 26\nvalue = [23, 3]\nclass = No", fillcolor="#e89153"] ;
454 -> 455 ;
456 [label="gini = 0.0\nsamples = 11\nvalue = [11, 0]\nclass = No", fillcolor="#e58139"] ;
455 -> 456 ;
457 [label="Age <= 28.5\ngini = 0.32\nsamples = 15\nvalue = [12, 3]\nclass = No", fillcolor="#eca06a"] ;
455 -> 457 ;
458 [label="Age <= 25.5\ngini = 0.26\nsamples = 13\nvalue = [11, 2]\nclass = No", fillcolor="#ea985d"] ;
457 -> 458 ;
459 [label="gini = 0.444\nsamples = 6\nvalue = [4, 2]\nclass = No", fillcolor="#f2c09c"] ;
458 -> 459 ;
460 [label="gini = 0.0\nsamples = 7\nvalue = [7, 0]\nclass = No", fillcolor="#e58139"] ;
458 -> 460 ;
461 [label="Age <= 29.5\ngini = 0.5\nsamples = 2\nvalue = [1, 1]\nclass = No", fillcolor="#ffffff"] ;
457 -> 461 ;
462 [label="gini = 0.0\nsamples = 1\nvalue = [0, 1]\nclass = Yes", fillcolor="#399de5"] ;
461 -> 462 ;
463 [label="gini = 0.0\nsamples = 1\nvalue = [1, 0]\nclass = No", fillcolor="#e58139"] ;
461 -> 463 ;
464 [label="ExperienceInCurrentDomain <= 2.5\ngini = 0.045\nsamples = 86\nvalue = [84, 2]\nclass = No", fillcolor="#e6843e"] ;
454 -> 464 ;
465 [label="JoiningYear <= 2016.5\ngini = 0.105\nsamples = 36\nvalue = [34, 2]\nclass = No", fillcolor="#e78845"] ;
464 -> 465 ;
466 [label="JoiningYear <= 2014.5\ngini = 0.071\nsamples = 27\nvalue = [26, 1]\nclass = No", fillcolor="#e68641"] ;
465 -> 466 ;
467 [label="Age <= 28.5\ngini = 0.165\nsamples = 11\nvalue = [10, 1]\nclass = No", fillcolor="#e88e4d"] ;
466 -> 467 ;
468 [label="gini = 0.0\nsamples = 8\nvalue = [8, 0]\nclass = No", fillcolor="#e58139"] ;
467 -> 468 ;
469 [label="ExperienceInCurrentDomain <= 1.5\ngini = 0.444\nsamples = 3\nvalue = [2, 1]\nclass = No", fillcolor="#f2c09c"] ;
467 -> 469 ;
470 [label="gini = 0.0\nsamples = 1\nvalue = [1, 0]\nclass = No", fillcolor="#e58139"] ;
469 -> 470 ;
471 [label="gini = 0.5\nsamples = 2\nvalue = [1, 1]\nclass = No", fillcolor="#ffffff"] ;
469 -> 471 ;
472 [label="gini = 0.0\nsamples = 16\nvalue = [16, 0]\nclass = No", fillcolor="#e58139"] ;
466 -> 472 ;
473 [label="ExperienceInCurrentDomain <= 1.5\ngini = 0.198\nsamples = 9\nvalue = [8, 1]\nclass = No", fillcolor="#e89152"] ;
465 -> 473 ;
474 [label="ExperienceInCurrentDomain <= 0.5\ngini = 0.32\nsamples = 5\nvalue = [4, 1]\nclass = No", fillcolor="#eca06a"] ;
473 -> 474 ;
475 [label="gini = 0.0\nsamples = 2\nvalue = [2, 0]\nclass = No", fillcolor="#e58139"] ;
474 -> 475 ;
476 [label="gini = 0.444\nsamples = 3\nvalue = [2, 1]\nclass = No", fillcolor="#f2c09c"] ;
474 -> 476 ;
477 [label="gini = 0.0\nsamples = 4\nvalue = [4, 0]\nclass = No", fillcolor="#e58139"] ;
473 -> 477 ;
478 [label="gini = 0.0\nsamples = 50\nvalue = [50, 0]\nclass = No", fillcolor="#e58139"] ;
464 -> 478 ;
479 [label="JoiningYear <= 2016.5\ngini = 0.269\nsamples = 25\nvalue = [21, 4]\nclass = No", fillcolor="#ea995f"] ;
453 -> 479 ;
480 [label="ExperienceInCurrentDomain <= 2.5\ngini = 0.18\nsamples = 20\nvalue = [18, 2]\nclass = No", fillcolor="#e88f4f"] ;
479 -> 480 ;
481 [label="gini = 0.0\nsamples = 14\nvalue = [14, 0]\nclass = No", fillcolor="#e58139"] ;
480 -> 481 ;
482 [label="JoiningYear <= 2013.5\ngini = 0.444\nsamples = 6\nvalue = [4, 2]\nclass = No", fillcolor="#f2c09c"] ;
480 -> 482 ;
483 [label="Age <= 37.0\ngini = 0.32\nsamples = 5\nvalue = [4, 1]\nclass = No", fillcolor="#eca06a"] ;
482 -> 483 ;
484 [label="gini = 0.0\nsamples = 2\nvalue = [2, 0]\nclass = No", fillcolor="#e58139"] ;
483 -> 484 ;
485 [label="Age <= 39.5\ngini = 0.444\nsamples = 3\nvalue = [2, 1]\nclass = No", fillcolor="#f2c09c"] ;
483 -> 485 ;
486 [label="gini = 0.5\nsamples = 2\nvalue = [1, 1]\nclass = No", fillcolor="#ffffff"] ;
485 -> 486 ;
487 [label="gini = 0.0\nsamples = 1\nvalue = [1, 0]\nclass = No", fillcolor="#e58139"] ;
485 -> 487 ;
488 [label="gini = 0.0\nsamples = 1\nvalue = [0, 1]\nclass = Yes", fillcolor="#399de5"] ;
482 -> 488 ;
489 [label="Age <= 37.5\ngini = 0.48\nsamples = 5\nvalue = [3, 2]\nclass = No", fillcolor="#f6d5bd"] ;
479 -> 489 ;
490 [label="ExperienceInCurrentDomain <= 0.5\ngini = 0.444\nsamples = 3\nvalue = [1, 2]\nclass = Yes", fillcolor="#9ccef2"] ;
489 -> 490 ;
491 [label="gini = 0.0\nsamples = 1\nvalue = [1, 0]\nclass = No", fillcolor="#e58139"] ;
490 -> 491 ;
492 [label="gini = 0.0\nsamples = 2\nvalue = [0, 2]\nclass = Yes", fillcolor="#399de5"] ;
490 -> 492 ;
493 [label="gini = 0.0\nsamples = 2\nvalue = [2, 0]\nclass = No", fillcolor="#e58139"] ;
489 -> 493 ;
494 [label="JoiningYear <= 2016.5\ngini = 0.284\nsamples = 35\nvalue = [29, 6]\nclass = No", fillcolor="#ea9b62"] ;
452 -> 494 ;
495 [label="Age <= 33.5\ngini = 0.328\nsamples = 29\nvalue = [23, 6]\nclass = No", fillcolor="#eca26d"] ;
494 -> 495 ;
496 [label="Age <= 31.0\ngini = 0.365\nsamples = 25\nvalue = [19, 6]\nclass = No", fillcolor="#eda978"] ;
495 -> 496 ;
497 [label="Age <= 28.0\ngini = 0.33\nsamples = 24\nvalue = [19, 5]\nclass = No", fillcolor="#eca26d"] ;
496 -> 497 ;
498 [label="JoiningYear <= 2013.5\ngini = 0.34\nsamples = 23\nvalue = [18, 5]\nclass = No", fillcolor="#eca470"] ;
497 -> 498 ;
499 [label="JoiningYear <= 2012.5\ngini = 0.298\nsamples = 11\nvalue = [9, 2]\nclass = No", fillcolor="#eb9d65"] ;
498 -> 499 ;
500 [label="gini = 0.375\nsamples = 4\nvalue = [3, 1]\nclass = No", fillcolor="#eeab7b"] ;
499 -> 500 ;
501 [label="gini = 0.245\nsamples = 7\nvalue = [6, 1]\nclass = No", fillcolor="#e9965a"] ;
499 -> 501 ;
502 [label="JoiningYear <= 2014.5\ngini = 0.375\nsamples = 12\nvalue = [9, 3]\nclass = No", fillcolor="#eeab7b"] ;
498 -> 502 ;
503 [label="gini = 0.444\nsamples = 6\nvalue = [4, 2]\nclass = No", fillcolor="#f2c09c"] ;
502 -> 503 ;
504 [label="JoiningYear <= 2015.5\ngini = 0.278\nsamples = 6\nvalue = [5, 1]\nclass = No", fillcolor="#ea9a61"] ;
502 -> 504 ;
505 [label="gini = 0.0\nsamples = 1\nvalue = [1, 0]\nclass = No", fillcolor="#e58139"] ;
504 -> 505 ;
506 [label="gini = 0.32\nsamples = 5\nvalue = [4, 1]\nclass = No", fillcolor="#eca06a"] ;
504 -> 506 ;
507 [label="gini = 0.0\nsamples = 1\nvalue = [1, 0]\nclass = No", fillcolor="#e58139"] ;
497 -> 507 ;
508 [label="gini = 0.0\nsamples = 1\nvalue = [0, 1]\nclass = Yes", fillcolor="#399de5"] ;
496 -> 508 ;
509 [label="gini = 0.0\nsamples = 4\nvalue = [4, 0]\nclass = No", fillcolor="#e58139"] ;
495 -> 509 ;
510 [label="gini = 0.0\nsamples = 6\nvalue = [6, 0]\nclass = No", fillcolor="#e58139"] ;
494 -> 510 ;
511 [label="JoiningYear <= 2015.5\ngini = 0.339\nsamples = 97\nvalue = [21, 76]\nclass = Yes", fillcolor="#70b8ec"] ;
225 -> 511 ;
512 [label="JoiningYear <= 2014.5\ngini = 0.284\nsamples = 76\nvalue = [13, 63]\nclass = Yes", fillcolor="#62b1ea"] ;
511 -> 512 ;
513 [label="ExperienceInCurrentDomain <= 1.5\ngini = 0.444\nsamples = 33\nvalue = [11, 22]\nclass = Yes", fillcolor="#9ccef2"] ;
512 -> 513 ;
514 [label="gini = 0.0\nsamples = 2\nvalue = [0, 2]\nclass = Yes", fillcolor="#399de5"] ;
513 -> 514 ;
515 [label="Age <= 38.0\ngini = 0.458\nsamples = 31\nvalue = [11, 20]\nclass = Yes", fillcolor="#a6d3f3"] ;
513 -> 515 ;
516 [label="Age <= 36.5\ngini = 0.444\nsamples = 30\nvalue = [10, 20]\nclass = Yes", fillcolor="#9ccef2"] ;
515 -> 516 ;
517 [label="Age <= 30.0\ngini = 0.459\nsamples = 28\nvalue = [10, 18]\nclass = Yes", fillcolor="#a7d3f3"] ;
516 -> 517 ;
518 [label="JoiningYear <= 2012.5\ngini = 0.423\nsamples = 23\nvalue = [7, 16]\nclass = Yes", fillcolor="#90c8f0"] ;
517 -> 518 ;
519 [label="gini = 0.0\nsamples = 5\nvalue = [0, 5]\nclass = Yes", fillcolor="#399de5"] ;
518 -> 519 ;
520 [label="Age <= 27.5\ngini = 0.475\nsamples = 18\nvalue = [7, 11]\nclass = Yes", fillcolor="#b7dbf6"] ;
518 -> 520 ;
521 [label="JoiningYear <= 2013.5\ngini = 0.5\nsamples = 14\nvalue = [7, 7]\nclass = No", fillcolor="#ffffff"] ;
520 -> 521 ;
522 [label="Age <= 26.5\ngini = 0.469\nsamples = 8\nvalue = [5, 3]\nclass = No", fillcolor="#f5cdb0"] ;
521 -> 522 ;
523 [label="ExperienceInCurrentDomain <= 2.5\ngini = 0.32\nsamples = 5\nvalue = [4, 1]\nclass = No", fillcolor="#eca06a"] ;
522 -> 523 ;
524 [label="gini = 0.0\nsamples = 2\nvalue = [2, 0]\nclass = No", fillcolor="#e58139"] ;
523 -> 524 ;
525 [label="ExperienceInCurrentDomain <= 3.5\ngini = 0.444\nsamples = 3\nvalue = [2, 1]\nclass = No", fillcolor="#f2c09c"] ;
523 -> 525 ;
526 [label="gini = 0.5\nsamples = 2\nvalue = [1, 1]\nclass = No", fillcolor="#ffffff"] ;
525 -> 526 ;
527 [label="gini = 0.0\nsamples = 1\nvalue = [1, 0]\nclass = No", fillcolor="#e58139"] ;
525 -> 527 ;
528 [label="gini = 0.444\nsamples = 3\nvalue = [1, 2]\nclass = Yes", fillcolor="#9ccef2"] ;
522 -> 528 ;
529 [label="Age <= 24.5\ngini = 0.444\nsamples = 6\nvalue = [2, 4]\nclass = Yes", fillcolor="#9ccef2"] ;
521 -> 529 ;
530 [label="gini = 0.0\nsamples = 1\nvalue = [0, 1]\nclass = Yes", fillcolor="#399de5"] ;
529 -> 530 ;
531 [label="Age <= 25.5\ngini = 0.48\nsamples = 5\nvalue = [2, 3]\nclass = Yes", fillcolor="#bddef6"] ;
529 -> 531 ;
532 [label="gini = 0.5\nsamples = 4\nvalue = [2, 2]\nclass = No", fillcolor="#ffffff"] ;
531 -> 532 ;
533 [label="gini = 0.0\nsamples = 1\nvalue = [0, 1]\nclass = Yes", fillcolor="#399de5"] ;
531 -> 533 ;
534 [label="gini = 0.0\nsamples = 4\nvalue = [0, 4]\nclass = Yes", fillcolor="#399de5"] ;
520 -> 534 ;
535 [label="Age <= 33.0\ngini = 0.48\nsamples = 5\nvalue = [3, 2]\nclass = No", fillcolor="#f6d5bd"] ;
517 -> 535 ;
536 [label="gini = 0.0\nsamples = 2\nvalue = [2, 0]\nclass = No", fillcolor="#e58139"] ;
535 -> 536 ;
537 [label="ExperienceInCurrentDomain <= 3.5\ngini = 0.444\nsamples = 3\nvalue = [1, 2]\nclass = Yes", fillcolor="#9ccef2"] ;
535 -> 537 ;
538 [label="gini = 0.0\nsamples = 1\nvalue = [0, 1]\nclass = Yes", fillcolor="#399de5"] ;
537 -> 538 ;
539 [label="gini = 0.5\nsamples = 2\nvalue = [1, 1]\nclass = No", fillcolor="#ffffff"] ;
537 -> 539 ;
540 [label="gini = 0.0\nsamples = 2\nvalue = [0, 2]\nclass = Yes", fillcolor="#399de5"] ;
516 -> 540 ;
541 [label="gini = 0.0\nsamples = 1\nvalue = [1, 0]\nclass = No", fillcolor="#e58139"] ;
515 -> 541 ;
542 [label="ExperienceInCurrentDomain <= 4.5\ngini = 0.089\nsamples = 43\nvalue = [2, 41]\nclass = Yes", fillcolor="#43a2e6"] ;
512 -> 542 ;
543 [label="ExperienceInCurrentDomain <= 1.5\ngini = 0.056\nsamples = 35\nvalue = [1, 34]\nclass = Yes", fillcolor="#3fa0e6"] ;
542 -> 543 ;
544 [label="Age <= 31.0\ngini = 0.165\nsamples = 11\nvalue = [1, 10]\nclass = Yes", fillcolor="#4da7e8"] ;
543 -> 544 ;
545 [label="gini = 0.0\nsamples = 5\nvalue = [0, 5]\nclass = Yes", fillcolor="#399de5"] ;
544 -> 545 ;
546 [label="Age <= 33.5\ngini = 0.278\nsamples = 6\nvalue = [1, 5]\nclass = Yes", fillcolor="#61b1ea"] ;
544 -> 546 ;
547 [label="ExperienceInCurrentDomain <= 0.5\ngini = 0.444\nsamples = 3\nvalue = [1, 2]\nclass = Yes", fillcolor="#9ccef2"] ;
546 -> 547 ;
548 [label="gini = 0.0\nsamples = 1\nvalue = [0, 1]\nclass = Yes", fillcolor="#399de5"] ;
547 -> 548 ;
549 [label="gini = 0.5\nsamples = 2\nvalue = [1, 1]\nclass = No", fillcolor="#ffffff"] ;
547 -> 549 ;
550 [label="gini = 0.0\nsamples = 3\nvalue = [0, 3]\nclass = Yes", fillcolor="#399de5"] ;
546 -> 550 ;
551 [label="gini = 0.0\nsamples = 24\nvalue = [0, 24]\nclass = Yes", fillcolor="#399de5"] ;
543 -> 551 ;
552 [label="Age <= 27.5\ngini = 0.219\nsamples = 8\nvalue = [1, 7]\nclass = Yes", fillcolor="#55abe9"] ;
542 -> 552 ;
553 [label="gini = 0.32\nsamples = 5\nvalue = [1, 4]\nclass = Yes", fillcolor="#6ab6ec"] ;
552 -> 553 ;
554 [label="gini = 0.0\nsamples = 3\nvalue = [0, 3]\nclass = Yes", fillcolor="#399de5"] ;
552 -> 554 ;
555 [label="Age <= 33.0\ngini = 0.472\nsamples = 21\nvalue = [8, 13]\nclass = Yes", fillcolor="#b3d9f5"] ;
511 -> 555 ;
556 [label="Age <= 24.5\ngini = 0.337\nsamples = 14\nvalue = [3, 11]\nclass = Yes", fillcolor="#6fb8ec"] ;
555 -> 556 ;
557 [label="gini = 0.0\nsamples = 1\nvalue = [1, 0]\nclass = No", fillcolor="#e58139"] ;
556 -> 557 ;
558 [label="ExperienceInCurrentDomain <= 1.5\ngini = 0.26\nsamples = 13\nvalue = [2, 11]\nclass = Yes", fillcolor="#5dafea"] ;
556 -> 558 ;
559 [label="Age <= 29.5\ngini = 0.5\nsamples = 2\nvalue = [1, 1]\nclass = No", fillcolor="#ffffff"] ;
558 -> 559 ;
560 [label="gini = 0.0\nsamples = 1\nvalue = [1, 0]\nclass = No", fillcolor="#e58139"] ;
559 -> 560 ;
561 [label="gini = 0.0\nsamples = 1\nvalue = [0, 1]\nclass = Yes", fillcolor="#399de5"] ;
559 -> 561 ;
562 [label="ExperienceInCurrentDomain <= 4.5\ngini = 0.165\nsamples = 11\nvalue = [1, 10]\nclass = Yes", fillcolor="#4da7e8"] ;
558 -> 562 ;
563 [label="gini = 0.0\nsamples = 7\nvalue = [0, 7]\nclass = Yes", fillcolor="#399de5"] ;
562 -> 563 ;
564 [label="JoiningYear <= 2016.5\ngini = 0.375\nsamples = 4\nvalue = [1, 3]\nclass = Yes", fillcolor="#7bbeee"] ;
562 -> 564 ;
565 [label="gini = 0.5\nsamples = 2\nvalue = [1, 1]\nclass = No", fillcolor="#ffffff"] ;
564 -> 565 ;
566 [label="gini = 0.0\nsamples = 2\nvalue = [0, 2]\nclass = Yes", fillcolor="#399de5"] ;
564 -> 566 ;
567 [label="Age <= 39.5\ngini = 0.408\nsamples = 7\nvalue = [5, 2]\nclass = No", fillcolor="#efb388"] ;
555 -> 567 ;
568 [label="ExperienceInCurrentDomain <= 0.5\ngini = 0.278\nsamples = 6\nvalue = [5, 1]\nclass = No", fillcolor="#ea9a61"] ;
567 -> 568 ;
569 [label="Age <= 36.5\ngini = 0.5\nsamples = 2\nvalue = [1, 1]\nclass = No", fillcolor="#ffffff"] ;
568 -> 569 ;
570 [label="gini = 0.0\nsamples = 1\nvalue = [0, 1]\nclass = Yes", fillcolor="#399de5"] ;
569 -> 570 ;
571 [label="gini = 0.0\nsamples = 1\nvalue = [1, 0]\nclass = No", fillcolor="#e58139"] ;
569 -> 571 ;
572 [label="gini = 0.0\nsamples = 4\nvalue = [4, 0]\nclass = No", fillcolor="#e58139"] ;
568 -> 572 ;
573 [label="gini = 0.0\nsamples = 1\nvalue = [0, 1]\nclass = Yes", fillcolor="#399de5"] ;
567 -> 573 ;
574 [label="City <= 0.5\ngini = 0.204\nsamples = 1408\nvalue = [1246, 162]\nclass = No", fillcolor="#e89153"] ;
224 -> 574 ;
575 [label="ExperienceInCurrentDomain <= 3.5\ngini = 0.254\nsamples = 996\nvalue = [847, 149]\nclass = No", fillcolor="#ea975c"] ;
574 -> 575 ;
576 [label="Age <= 38.5\ngini = 0.295\nsamples = 590\nvalue = [484, 106]\nclass = No", fillcolor="#eb9d64"] ;
575 -> 576 ;
577 [label="ExperienceInCurrentDomain <= 2.5\ngini = 0.305\nsamples = 537\nvalue = [436, 101]\nclass = No", fillcolor="#eb9e67"] ;
576 -> 577 ;
578 [label="Age <= 29.5\ngini = 0.288\nsamples = 378\nvalue = [312, 66]\nclass = No", fillcolor="#ea9c63"] ;
577 -> 578 ;
579 [label="JoiningYear <= 2014.5\ngini = 0.266\nsamples = 222\nvalue = [187, 35]\nclass = No", fillcolor="#ea995e"] ;
578 -> 579 ;
580 [label="JoiningYear <= 2013.5\ngini = 0.236\nsamples = 117\nvalue = [101, 16]\nclass = No", fillcolor="#e99558"] ;
579 -> 580 ;
581 [label="JoiningYear <= 2012.5\ngini = 0.293\nsamples = 73\nvalue = [60, 13]\nclass = No", fillcolor="#eb9c64"] ;
580 -> 581 ;
582 [label="Age <= 28.5\ngini = 0.219\nsamples = 32\nvalue = [28, 4]\nclass = No", fillcolor="#e99355"] ;
581 -> 582 ;
583 [label="ExperienceInCurrentDomain <= 0.5\ngini = 0.142\nsamples = 26\nvalue = [24, 2]\nclass = No", fillcolor="#e78c49"] ;
582 -> 583 ;
584 [label="Age <= 25.0\ngini = 0.5\nsamples = 2\nvalue = [1, 1]\nclass = No", fillcolor="#ffffff"] ;
583 -> 584 ;
585 [label="gini = 0.0\nsamples = 1\nvalue = [1, 0]\nclass = No", fillcolor="#e58139"] ;
584 -> 585 ;
586 [label="gini = 0.0\nsamples = 1\nvalue = [0, 1]\nclass = Yes", fillcolor="#399de5"] ;
584 -> 586 ;
587 [label="Age <= 26.0\ngini = 0.08\nsamples = 24\nvalue = [23, 1]\nclass = No", fillcolor="#e68642"] ;
583 -> 587 ;
588 [label="ExperienceInCurrentDomain <= 1.5\ngini = 0.142\nsamples = 13\nvalue = [12, 1]\nclass = No", fillcolor="#e78c49"] ;
587 -> 588 ;
589 [label="gini = 0.0\nsamples = 2\nvalue = [2, 0]\nclass = No", fillcolor="#e58139"] ;
588 -> 589 ;
590 [label="gini = 0.165\nsamples = 11\nvalue = [10, 1]\nclass = No", fillcolor="#e88e4d"] ;
588 -> 590 ;
591 [label="gini = 0.0\nsamples = 11\nvalue = [11, 0]\nclass = No", fillcolor="#e58139"] ;
587 -> 591 ;
592 [label="ExperienceInCurrentDomain <= 1.5\ngini = 0.444\nsamples = 6\nvalue = [4, 2]\nclass = No", fillcolor="#f2c09c"] ;
582 -> 592 ;
593 [label="gini = 0.444\nsamples = 3\nvalue = [2, 1]\nclass = No", fillcolor="#f2c09c"] ;
592 -> 593 ;
594 [label="gini = 0.444\nsamples = 3\nvalue = [2, 1]\nclass = No", fillcolor="#f2c09c"] ;
592 -> 594 ;
595 [label="ExperienceInCurrentDomain <= 1.5\ngini = 0.343\nsamples = 41\nvalue = [32, 9]\nclass = No", fillcolor="#eca471"] ;
581 -> 595 ;
596 [label="Age <= 22.5\ngini = 0.255\nsamples = 20\nvalue = [17, 3]\nclass = No", fillcolor="#ea975c"] ;
595 -> 596 ;
597 [label="gini = 0.5\nsamples = 2\nvalue = [1, 1]\nclass = No", fillcolor="#ffffff"] ;
596 -> 597 ;
598 [label="ExperienceInCurrentDomain <= 0.5\ngini = 0.198\nsamples = 18\nvalue = [16, 2]\nclass = No", fillcolor="#e89152"] ;
596 -> 598 ;
599 [label="gini = 0.0\nsamples = 4\nvalue = [4, 0]\nclass = No", fillcolor="#e58139"] ;
598 -> 599 ;
600 [label="Age <= 28.5\ngini = 0.245\nsamples = 14\nvalue = [12, 2]\nclass = No", fillcolor="#e9965a"] ;
598 -> 600 ;
601 [label="Age <= 25.5\ngini = 0.278\nsamples = 12\nvalue = [10, 2]\nclass = No", fillcolor="#ea9a61"] ;
600 -> 601 ;
602 [label="gini = 0.0\nsamples = 1\nvalue = [1, 0]\nclass = No", fillcolor="#e58139"] ;
601 -> 602 ;
603 [label="gini = 0.298\nsamples = 11\nvalue = [9, 2]\nclass = No", fillcolor="#eb9d65"] ;
601 -> 603 ;
604 [label="gini = 0.0\nsamples = 2\nvalue = [2, 0]\nclass = No", fillcolor="#e58139"] ;
600 -> 604 ;
605 [label="Age <= 26.0\ngini = 0.408\nsamples = 21\nvalue = [15, 6]\nclass = No", fillcolor="#efb388"] ;
595 -> 605 ;
606 [label="gini = 0.32\nsamples = 15\nvalue = [12, 3]\nclass = No", fillcolor="#eca06a"] ;
605 -> 606 ;
607 [label="Age <= 28.5\ngini = 0.5\nsamples = 6\nvalue = [3, 3]\nclass = No", fillcolor="#ffffff"] ;
605 -> 607 ;
608 [label="gini = 0.48\nsamples = 5\nvalue = [2, 3]\nclass = Yes", fillcolor="#bddef6"] ;
607 -> 608 ;
609 [label="gini = 0.0\nsamples = 1\nvalue = [1, 0]\nclass = No", fillcolor="#e58139"] ;
607 -> 609 ;
610 [label="ExperienceInCurrentDomain <= 1.5\ngini = 0.127\nsamples = 44\nvalue = [41, 3]\nclass = No", fillcolor="#e78a47"] ;
580 -> 610 ;
611 [label="Age <= 25.0\ngini = 0.266\nsamples = 19\nvalue = [16, 3]\nclass = No", fillcolor="#ea995e"] ;
610 -> 611 ;
612 [label="gini = 0.375\nsamples = 4\nvalue = [3, 1]\nclass = No", fillcolor="#eeab7b"] ;
611 -> 612 ;
613 [label="ExperienceInCurrentDomain <= 0.5\ngini = 0.231\nsamples = 15\nvalue = [13, 2]\nclass = No", fillcolor="#e99457"] ;
611 -> 613 ;
614 [label="gini = 0.0\nsamples = 4\nvalue = [4, 0]\nclass = No", fillcolor="#e58139"] ;
613 -> 614 ;
615 [label="Age <= 28.5\ngini = 0.298\nsamples = 11\nvalue = [9, 2]\nclass = No", fillcolor="#eb9d65"] ;
613 -> 615 ;
616 [label="gini = 0.278\nsamples = 6\nvalue = [5, 1]\nclass = No", fillcolor="#ea9a61"] ;
615 -> 616 ;
617 [label="gini = 0.32\nsamples = 5\nvalue = [4, 1]\nclass = No", fillcolor="#eca06a"] ;
615 -> 617 ;
618 [label="gini = 0.0\nsamples = 25\nvalue = [25, 0]\nclass = No", fillcolor="#e58139"] ;
610 -> 618 ;
619 [label="ExperienceInCurrentDomain <= 1.5\ngini = 0.296\nsamples = 105\nvalue = [86, 19]\nclass = No", fillcolor="#eb9d65"] ;
579 -> 619 ;
620 [label="Age <= 28.5\ngini = 0.219\nsamples = 40\nvalue = [35, 5]\nclass = No", fillcolor="#e99355"] ;
619 -> 620 ;
621 [label="ExperienceInCurrentDomain <= 0.5\ngini = 0.271\nsamples = 31\nvalue = [26, 5]\nclass = No", fillcolor="#ea995f"] ;
620 -> 621 ;
622 [label="Age <= 25.0\ngini = 0.397\nsamples = 11\nvalue = [8, 3]\nclass = No", fillcolor="#efb083"] ;
621 -> 622 ;
623 [label="JoiningYear <= 2015.5\ngini = 0.245\nsamples = 7\nvalue = [6, 1]\nclass = No", fillcolor="#e9965a"] ;
622 -> 623 ;
624 [label="gini = 0.375\nsamples = 4\nvalue = [3, 1]\nclass = No", fillcolor="#eeab7b"] ;
623 -> 624 ;
625 [label="gini = 0.0\nsamples = 3\nvalue = [3, 0]\nclass = No", fillcolor="#e58139"] ;
623 -> 625 ;
626 [label="JoiningYear <= 2016.0\ngini = 0.5\nsamples = 4\nvalue = [2, 2]\nclass = No", fillcolor="#ffffff"] ;
622 -> 626 ;
627 [label="gini = 0.5\nsamples = 2\nvalue = [1, 1]\nclass = No", fillcolor="#ffffff"] ;
626 -> 627 ;
628 [label="gini = 0.5\nsamples = 2\nvalue = [1, 1]\nclass = No", fillcolor="#ffffff"] ;
626 -> 628 ;
629 [label="Age <= 25.5\ngini = 0.18\nsamples = 20\nvalue = [18, 2]\nclass = No", fillcolor="#e88f4f"] ;
621 -> 629 ;
630 [label="gini = 0.0\nsamples = 6\nvalue = [6, 0]\nclass = No", fillcolor="#e58139"] ;
629 -> 630 ;
631 [label="JoiningYear <= 2015.5\ngini = 0.245\nsamples = 14\nvalue = [12, 2]\nclass = No", fillcolor="#e9965a"] ;
629 -> 631 ;
632 [label="gini = 0.32\nsamples = 5\nvalue = [4, 1]\nclass = No", fillcolor="#eca06a"] ;
631 -> 632 ;
633 [label="JoiningYear <= 2016.5\ngini = 0.198\nsamples = 9\nvalue = [8, 1]\nclass = No", fillcolor="#e89152"] ;
631 -> 633 ;
634 [label="gini = 0.0\nsamples = 1\nvalue = [1, 0]\nclass = No", fillcolor="#e58139"] ;
633 -> 634 ;
635 [label="gini = 0.219\nsamples = 8\nvalue = [7, 1]\nclass = No", fillcolor="#e99355"] ;
633 -> 635 ;
636 [label="gini = 0.0\nsamples = 9\nvalue = [9, 0]\nclass = No", fillcolor="#e58139"] ;
620 -> 636 ;
637 [label="JoiningYear <= 2015.5\ngini = 0.338\nsamples = 65\nvalue = [51, 14]\nclass = No", fillcolor="#eca46f"] ;
619 -> 637 ;
638 [label="Age <= 26.0\ngini = 0.401\nsamples = 18\nvalue = [13, 5]\nclass = No", fillcolor="#efb185"] ;
637 -> 638 ;
639 [label="gini = 0.49\nsamples = 7\nvalue = [4, 3]\nclass = No", fillcolor="#f8e0ce"] ;
638 -> 639 ;
640 [label="Age <= 28.5\ngini = 0.298\nsamples = 11\nvalue = [9, 2]\nclass = No", fillcolor="#eb9d65"] ;
638 -> 640 ;
641 [label="gini = 0.219\nsamples = 8\nvalue = [7, 1]\nclass = No", fillcolor="#e99355"] ;
640 -> 641 ;
642 [label="gini = 0.444\nsamples = 3\nvalue = [2, 1]\nclass = No", fillcolor="#f2c09c"] ;
640 -> 642 ;
643 [label="Age <= 28.5\ngini = 0.31\nsamples = 47\nvalue = [38, 9]\nclass = No", fillcolor="#eb9f68"] ;
637 -> 643 ;
644 [label="Age <= 26.0\ngini = 0.303\nsamples = 43\nvalue = [35, 8]\nclass = No", fillcolor="#eb9e66"] ;
643 -> 644 ;
645 [label="JoiningYear <= 2016.5\ngini = 0.312\nsamples = 31\nvalue = [25, 6]\nclass = No", fillcolor="#eb9f69"] ;
644 -> 645 ;
646 [label="gini = 0.298\nsamples = 11\nvalue = [9, 2]\nclass = No", fillcolor="#eb9d65"] ;
645 -> 646 ;
647 [label="gini = 0.32\nsamples = 20\nvalue = [16, 4]\nclass = No", fillcolor="#eca06a"] ;
645 -> 647 ;
648 [label="JoiningYear <= 2016.5\ngini = 0.278\nsamples = 12\nvalue = [10, 2]\nclass = No", fillcolor="#ea9a61"] ;
644 -> 648 ;
649 [label="gini = 0.32\nsamples = 5\nvalue = [4, 1]\nclass = No", fillcolor="#eca06a"] ;
648 -> 649 ;
650 [label="gini = 0.245\nsamples = 7\nvalue = [6, 1]\nclass = No", fillcolor="#e9965a"] ;
648 -> 650 ;
651 [label="gini = 0.375\nsamples = 4\nvalue = [3, 1]\nclass = No", fillcolor="#eeab7b"] ;
643 -> 651 ;
652 [label="Age <= 31.5\ngini = 0.318\nsamples = 156\nvalue = [125, 31]\nclass = No", fillcolor="#eba06a"] ;
578 -> 652 ;
653 [label="ExperienceInCurrentDomain <= 0.5\ngini = 0.413\nsamples = 55\nvalue = [39, 16]\nclass = No", fillcolor="#f0b58a"] ;
652 -> 653 ;
654 [label="JoiningYear <= 2012.5\ngini = 0.32\nsamples = 15\nvalue = [12, 3]\nclass = No", fillcolor="#eca06a"] ;
653 -> 654 ;
655 [label="gini = 0.5\nsamples = 2\nvalue = [1, 1]\nclass = No", fillcolor="#ffffff"] ;
654 -> 655 ;
656 [label="JoiningYear <= 2013.5\ngini = 0.26\nsamples = 13\nvalue = [11, 2]\nclass = No", fillcolor="#ea985d"] ;
654 -> 656 ;
657 [label="gini = 0.0\nsamples = 2\nvalue = [2, 0]\nclass = No", fillcolor="#e58139"] ;
656 -> 657 ;
658 [label="JoiningYear <= 2014.5\ngini = 0.298\nsamples = 11\nvalue = [9, 2]\nclass = No", fillcolor="#eb9d65"] ;
656 -> 658 ;
659 [label="gini = 0.444\nsamples = 3\nvalue = [2, 1]\nclass = No", fillcolor="#f2c09c"] ;
658 -> 659 ;
660 [label="JoiningYear <= 2016.5\ngini = 0.219\nsamples = 8\nvalue = [7, 1]\nclass = No", fillcolor="#e99355"] ;
658 -> 660 ;
661 [label="gini = 0.0\nsamples = 4\nvalue = [4, 0]\nclass = No", fillcolor="#e58139"] ;
660 -> 661 ;
662 [label="Age <= 30.5\ngini = 0.375\nsamples = 4\nvalue = [3, 1]\nclass = No", fillcolor="#eeab7b"] ;
660 -> 662 ;
663 [label="gini = 0.5\nsamples = 2\nvalue = [1, 1]\nclass = No", fillcolor="#ffffff"] ;
662 -> 663 ;
664 [label="gini = 0.0\nsamples = 2\nvalue = [2, 0]\nclass = No", fillcolor="#e58139"] ;
662 -> 664 ;
665 [label="JoiningYear <= 2012.5\ngini = 0.439\nsamples = 40\nvalue = [27, 13]\nclass = No", fillcolor="#f2be98"] ;
653 -> 665 ;
666 [label="gini = 0.0\nsamples = 3\nvalue = [3, 0]\nclass = No", fillcolor="#e58139"] ;
665 -> 666 ;
667 [label="JoiningYear <= 2016.5\ngini = 0.456\nsamples = 37\nvalue = [24, 13]\nclass = No", fillcolor="#f3c5a4"] ;
665 -> 667 ;
668 [label="JoiningYear <= 2015.5\ngini = 0.48\nsamples = 30\nvalue = [18, 12]\nclass = No", fillcolor="#f6d5bd"] ;
667 -> 668 ;
669 [label="ExperienceInCurrentDomain <= 1.5\ngini = 0.461\nsamples = 25\nvalue = [16, 9]\nclass = No", fillcolor="#f4c8a8"] ;
668 -> 669 ;
670 [label="JoiningYear <= 2014.5\ngini = 0.397\nsamples = 11\nvalue = [8, 3]\nclass = No", fillcolor="#efb083"] ;
669 -> 670 ;
671 [label="Age <= 30.5\ngini = 0.375\nsamples = 8\nvalue = [6, 2]\nclass = No", fillcolor="#eeab7b"] ;
670 -> 671 ;
672 [label="JoiningYear <= 2013.5\ngini = 0.444\nsamples = 6\nvalue = [4, 2]\nclass = No", fillcolor="#f2c09c"] ;
671 -> 672 ;
673 [label="gini = 0.444\nsamples = 3\nvalue = [2, 1]\nclass = No", fillcolor="#f2c09c"] ;
672 -> 673 ;
674 [label="gini = 0.444\nsamples = 3\nvalue = [2, 1]\nclass = No", fillcolor="#f2c09c"] ;
672 -> 674 ;
675 [label="gini = 0.0\nsamples = 2\nvalue = [2, 0]\nclass = No", fillcolor="#e58139"] ;
671 -> 675 ;
676 [label="Age <= 30.5\ngini = 0.444\nsamples = 3\nvalue = [2, 1]\nclass = No", fillcolor="#f2c09c"] ;
670 -> 676 ;
677 [label="gini = 0.0\nsamples = 1\nvalue = [1, 0]\nclass = No", fillcolor="#e58139"] ;
676 -> 677 ;
678 [label="gini = 0.5\nsamples = 2\nvalue = [1, 1]\nclass = No", fillcolor="#ffffff"] ;
676 -> 678 ;
679 [label="JoiningYear <= 2014.5\ngini = 0.49\nsamples = 14\nvalue = [8, 6]\nclass = No", fillcolor="#f8e0ce"] ;
669 -> 679 ;
680 [label="JoiningYear <= 2013.5\ngini = 0.5\nsamples = 8\nvalue = [4, 4]\nclass = No", fillcolor="#ffffff"] ;
679 -> 680 ;
681 [label="Age <= 30.5\ngini = 0.48\nsamples = 5\nvalue = [3, 2]\nclass = No", fillcolor="#f6d5bd"] ;
680 -> 681 ;
682 [label="gini = 0.0\nsamples = 1\nvalue = [1, 0]\nclass = No", fillcolor="#e58139"] ;
681 -> 682 ;
683 [label="gini = 0.5\nsamples = 4\nvalue = [2, 2]\nclass = No", fillcolor="#ffffff"] ;
681 -> 683 ;
684 [label="gini = 0.444\nsamples = 3\nvalue = [1, 2]\nclass = Yes", fillcolor="#9ccef2"] ;
680 -> 684 ;
685 [label="Age <= 30.5\ngini = 0.444\nsamples = 6\nvalue = [4, 2]\nclass = No", fillcolor="#f2c09c"] ;
679 -> 685 ;
686 [label="gini = 0.375\nsamples = 4\nvalue = [3, 1]\nclass = No", fillcolor="#eeab7b"] ;
685 -> 686 ;
687 [label="gini = 0.5\nsamples = 2\nvalue = [1, 1]\nclass = No", fillcolor="#ffffff"] ;
685 -> 687 ;
688 [label="ExperienceInCurrentDomain <= 1.5\ngini = 0.48\nsamples = 5\nvalue = [2, 3]\nclass = Yes", fillcolor="#bddef6"] ;
668 -> 688 ;
689 [label="Age <= 30.5\ngini = 0.375\nsamples = 4\nvalue = [1, 3]\nclass = Yes", fillcolor="#7bbeee"] ;
688 -> 689 ;
690 [label="gini = 0.444\nsamples = 3\nvalue = [1, 2]\nclass = Yes", fillcolor="#9ccef2"] ;
689 -> 690 ;
691 [label="gini = 0.0\nsamples = 1\nvalue = [0, 1]\nclass = Yes", fillcolor="#399de5"] ;
689 -> 691 ;
692 [label="gini = 0.0\nsamples = 1\nvalue = [1, 0]\nclass = No", fillcolor="#e58139"] ;
688 -> 692 ;
693 [label="ExperienceInCurrentDomain <= 1.5\ngini = 0.245\nsamples = 7\nvalue = [6, 1]\nclass = No", fillcolor="#e9965a"] ;
667 -> 693 ;
694 [label="gini = 0.0\nsamples = 3\nvalue = [3, 0]\nclass = No", fillcolor="#e58139"] ;
693 -> 694 ;
695 [label="Age <= 30.5\ngini = 0.375\nsamples = 4\nvalue = [3, 1]\nclass = No", fillcolor="#eeab7b"] ;
693 -> 695 ;
696 [label="gini = 0.444\nsamples = 3\nvalue = [2, 1]\nclass = No", fillcolor="#f2c09c"] ;
695 -> 696 ;
697 [label="gini = 0.0\nsamples = 1\nvalue = [1, 0]\nclass = No", fillcolor="#e58139"] ;
695 -> 697 ;
698 [label="Age <= 37.5\ngini = 0.253\nsamples = 101\nvalue = [86, 15]\nclass = No", fillcolor="#ea975c"] ;
652 -> 698 ;
699 [label="JoiningYear <= 2014.5\ngini = 0.228\nsamples = 84\nvalue = [73, 11]\nclass = No", fillcolor="#e99457"] ;
698 -> 699 ;
700 [label="Age <= 36.5\ngini = 0.307\nsamples = 37\nvalue = [30, 7]\nclass = No", fillcolor="#eb9e67"] ;
699 -> 700 ;
701 [label="Age <= 34.5\ngini = 0.327\nsamples = 34\nvalue = [27, 7]\nclass = No", fillcolor="#eca26c"] ;
700 -> 701 ;
702 [label="JoiningYear <= 2013.5\ngini = 0.219\nsamples = 16\nvalue = [14, 2]\nclass = No", fillcolor="#e99355"] ;
701 -> 702 ;
703 [label="gini = 0.0\nsamples = 10\nvalue = [10, 0]\nclass = No", fillcolor="#e58139"] ;
702 -> 703 ;
704 [label="Age <= 33.5\ngini = 0.444\nsamples = 6\nvalue = [4, 2]\nclass = No", fillcolor="#f2c09c"] ;
702 -> 704 ;
705 [label="Age <= 32.5\ngini = 0.48\nsamples = 5\nvalue = [3, 2]\nclass = No", fillcolor="#f6d5bd"] ;
704 -> 705 ;
706 [label="ExperienceInCurrentDomain <= 1.5\ngini = 0.375\nsamples = 4\nvalue = [3, 1]\nclass = No", fillcolor="#eeab7b"] ;
705 -> 706 ;
707 [label="gini = 0.0\nsamples = 2\nvalue = [2, 0]\nclass = No", fillcolor="#e58139"] ;
706 -> 707 ;
708 [label="gini = 0.5\nsamples = 2\nvalue = [1, 1]\nclass = No", fillcolor="#ffffff"] ;
706 -> 708 ;
709 [label="gini = 0.0\nsamples = 1\nvalue = [0, 1]\nclass = Yes", fillcolor="#399de5"] ;
705 -> 709 ;
710 [label="gini = 0.0\nsamples = 1\nvalue = [1, 0]\nclass = No", fillcolor="#e58139"] ;
704 -> 710 ;
711 [label="JoiningYear <= 2013.5\ngini = 0.401\nsamples = 18\nvalue = [13, 5]\nclass = No", fillcolor="#efb185"] ;
701 -> 711 ;
712 [label="Age <= 35.5\ngini = 0.486\nsamples = 12\nvalue = [7, 5]\nclass = No", fillcolor="#f8dbc6"] ;
711 -> 712 ;
713 [label="ExperienceInCurrentDomain <= 1.5\ngini = 0.49\nsamples = 7\nvalue = [3, 4]\nclass = Yes", fillcolor="#cee6f8"] ;
712 -> 713 ;
714 [label="JoiningYear <= 2012.5\ngini = 0.5\nsamples = 6\nvalue = [3, 3]\nclass = No", fillcolor="#ffffff"] ;
713 -> 714 ;
715 [label="gini = 0.444\nsamples = 3\nvalue = [1, 2]\nclass = Yes", fillcolor="#9ccef2"] ;
714 -> 715 ;
716 [label="ExperienceInCurrentDomain <= 0.5\ngini = 0.444\nsamples = 3\nvalue = [2, 1]\nclass = No", fillcolor="#f2c09c"] ;
714 -> 716 ;
717 [label="gini = 0.5\nsamples = 2\nvalue = [1, 1]\nclass = No", fillcolor="#ffffff"] ;
716 -> 717 ;
718 [label="gini = 0.0\nsamples = 1\nvalue = [1, 0]\nclass = No", fillcolor="#e58139"] ;
716 -> 718 ;
719 [label="gini = 0.0\nsamples = 1\nvalue = [0, 1]\nclass = Yes", fillcolor="#399de5"] ;
713 -> 719 ;
720 [label="ExperienceInCurrentDomain <= 0.5\ngini = 0.32\nsamples = 5\nvalue = [4, 1]\nclass = No", fillcolor="#eca06a"] ;
712 -> 720 ;
721 [label="gini = 0.0\nsamples = 1\nvalue = [1, 0]\nclass = No", fillcolor="#e58139"] ;
720 -> 721 ;
722 [label="ExperienceInCurrentDomain <= 1.5\ngini = 0.375\nsamples = 4\nvalue = [3, 1]\nclass = No", fillcolor="#eeab7b"] ;
720 -> 722 ;
723 [label="gini = 0.444\nsamples = 3\nvalue = [2, 1]\nclass = No", fillcolor="#f2c09c"] ;
722 -> 723 ;
724 [label="gini = 0.0\nsamples = 1\nvalue = [1, 0]\nclass = No", fillcolor="#e58139"] ;
722 -> 724 ;
725 [label="gini = 0.0\nsamples = 6\nvalue = [6, 0]\nclass = No", fillcolor="#e58139"] ;
711 -> 725 ;
726 [label="gini = 0.0\nsamples = 3\nvalue = [3, 0]\nclass = No", fillcolor="#e58139"] ;
700 -> 726 ;
727 [label="Age <= 34.5\ngini = 0.156\nsamples = 47\nvalue = [43, 4]\nclass = No", fillcolor="#e78d4b"] ;
699 -> 727 ;
728 [label="Age <= 32.5\ngini = 0.219\nsamples = 24\nvalue = [21, 3]\nclass = No", fillcolor="#e99355"] ;
727 -> 728 ;
729 [label="gini = 0.0\nsamples = 7\nvalue = [7, 0]\nclass = No", fillcolor="#e58139"] ;
728 -> 729 ;
730 [label="Age <= 33.5\ngini = 0.291\nsamples = 17\nvalue = [14, 3]\nclass = No", fillcolor="#eb9c63"] ;
728 -> 730 ;
731 [label="ExperienceInCurrentDomain <= 1.5\ngini = 0.375\nsamples = 8\nvalue = [6, 2]\nclass = No", fillcolor="#eeab7b"] ;
730 -> 731 ;
732 [label="JoiningYear <= 2016.5\ngini = 0.444\nsamples = 6\nvalue = [4, 2]\nclass = No", fillcolor="#f2c09c"] ;
731 -> 732 ;
733 [label="ExperienceInCurrentDomain <= 0.5\ngini = 0.375\nsamples = 4\nvalue = [3, 1]\nclass = No", fillcolor="#eeab7b"] ;
732 -> 733 ;
734 [label="gini = 0.0\nsamples = 1\nvalue = [1, 0]\nclass = No", fillcolor="#e58139"] ;
733 -> 734 ;
735 [label="gini = 0.444\nsamples = 3\nvalue = [2, 1]\nclass = No", fillcolor="#f2c09c"] ;
733 -> 735 ;
736 [label="ExperienceInCurrentDomain <= 0.5\ngini = 0.5\nsamples = 2\nvalue = [1, 1]\nclass = No", fillcolor="#ffffff"] ;
732 -> 736 ;
737 [label="gini = 0.0\nsamples = 1\nvalue = [0, 1]\nclass = Yes", fillcolor="#399de5"] ;
736 -> 737 ;
738 [label="gini = 0.0\nsamples = 1\nvalue = [1, 0]\nclass = No", fillcolor="#e58139"] ;
736 -> 738 ;
739 [label="gini = 0.0\nsamples = 2\nvalue = [2, 0]\nclass = No", fillcolor="#e58139"] ;
731 -> 739 ;
740 [label="ExperienceInCurrentDomain <= 1.5\ngini = 0.198\nsamples = 9\nvalue = [8, 1]\nclass = No", fillcolor="#e89152"] ;
730 -> 740 ;
741 [label="gini = 0.0\nsamples = 7\nvalue = [7, 0]\nclass = No", fillcolor="#e58139"] ;
740 -> 741 ;
742 [label="JoiningYear <= 2015.5\ngini = 0.5\nsamples = 2\nvalue = [1, 1]\nclass = No", fillcolor="#ffffff"] ;
740 -> 742 ;
743 [label="gini = 0.0\nsamples = 1\nvalue = [0, 1]\nclass = Yes", fillcolor="#399de5"] ;
742 -> 743 ;
744 [label="gini = 0.0\nsamples = 1\nvalue = [1, 0]\nclass = No", fillcolor="#e58139"] ;
742 -> 744 ;
745 [label="JoiningYear <= 2016.5\ngini = 0.083\nsamples = 23\nvalue = [22, 1]\nclass = No", fillcolor="#e68742"] ;
727 -> 745 ;
746 [label="gini = 0.0\nsamples = 15\nvalue = [15, 0]\nclass = No", fillcolor="#e58139"] ;
745 -> 746 ;
747 [label="Age <= 36.5\ngini = 0.219\nsamples = 8\nvalue = [7, 1]\nclass = No", fillcolor="#e99355"] ;
745 -> 747 ;
748 [label="gini = 0.0\nsamples = 6\nvalue = [6, 0]\nclass = No", fillcolor="#e58139"] ;
747 -> 748 ;
749 [label="gini = 0.5\nsamples = 2\nvalue = [1, 1]\nclass = No", fillcolor="#ffffff"] ;
747 -> 749 ;
750 [label="JoiningYear <= 2016.5\ngini = 0.36\nsamples = 17\nvalue = [13, 4]\nclass = No", fillcolor="#eda876"] ;
698 -> 750 ;
751 [label="JoiningYear <= 2012.5\ngini = 0.305\nsamples = 16\nvalue = [13, 3]\nclass = No", fillcolor="#eb9e67"] ;
750 -> 751 ;
752 [label="ExperienceInCurrentDomain <= 1.0\ngini = 0.5\nsamples = 2\nvalue = [1, 1]\nclass = No", fillcolor="#ffffff"] ;
751 -> 752 ;
753 [label="gini = 0.0\nsamples = 1\nvalue = [1, 0]\nclass = No", fillcolor="#e58139"] ;
752 -> 753 ;
754 [label="gini = 0.0\nsamples = 1\nvalue = [0, 1]\nclass = Yes", fillcolor="#399de5"] ;
752 -> 754 ;
755 [label="JoiningYear <= 2014.5\ngini = 0.245\nsamples = 14\nvalue = [12, 2]\nclass = No", fillcolor="#e9965a"] ;
751 -> 755 ;
756 [label="gini = 0.0\nsamples = 6\nvalue = [6, 0]\nclass = No", fillcolor="#e58139"] ;
755 -> 756 ;
757 [label="ExperienceInCurrentDomain <= 1.5\ngini = 0.375\nsamples = 8\nvalue = [6, 2]\nclass = No", fillcolor="#eeab7b"] ;
755 -> 757 ;
758 [label="JoiningYear <= 2015.5\ngini = 0.32\nsamples = 5\nvalue = [4, 1]\nclass = No", fillcolor="#eca06a"] ;
757 -> 758 ;
759 [label="gini = 0.5\nsamples = 2\nvalue = [1, 1]\nclass = No", fillcolor="#ffffff"] ;
758 -> 759 ;
760 [label="gini = 0.0\nsamples = 3\nvalue = [3, 0]\nclass = No", fillcolor="#e58139"] ;
758 -> 760 ;
761 [label="JoiningYear <= 2015.5\ngini = 0.444\nsamples = 3\nvalue = [2, 1]\nclass = No", fillcolor="#f2c09c"] ;
757 -> 761 ;
762 [label="gini = 0.0\nsamples = 1\nvalue = [1, 0]\nclass = No", fillcolor="#e58139"] ;
761 -> 762 ;
763 [label="gini = 0.5\nsamples = 2\nvalue = [1, 1]\nclass = No", fillcolor="#ffffff"] ;
761 -> 763 ;
764 [label="gini = 0.0\nsamples = 1\nvalue = [0, 1]\nclass = Yes", fillcolor="#399de5"] ;
750 -> 764 ;
765 [label="JoiningYear <= 2016.5\ngini = 0.343\nsamples = 159\nvalue = [124, 35]\nclass = No", fillcolor="#eca571"] ;
577 -> 765 ;
766 [label="JoiningYear <= 2012.5\ngini = 0.365\nsamples = 125\nvalue = [95, 30]\nclass = No", fillcolor="#eda978"] ;
765 -> 766 ;
767 [label="Age <= 34.5\ngini = 0.26\nsamples = 26\nvalue = [22, 4]\nclass = No", fillcolor="#ea985d"] ;
766 -> 767 ;
768 [label="Age <= 29.5\ngini = 0.236\nsamples = 22\nvalue = [19, 3]\nclass = No", fillcolor="#e99558"] ;
767 -> 768 ;
769 [label="Age <= 26.5\ngini = 0.255\nsamples = 20\nvalue = [17, 3]\nclass = No", fillcolor="#ea975c"] ;
768 -> 769 ;
770 [label="gini = 0.219\nsamples = 16\nvalue = [14, 2]\nclass = No", fillcolor="#e99355"] ;
769 -> 770 ;
771 [label="gini = 0.375\nsamples = 4\nvalue = [3, 1]\nclass = No", fillcolor="#eeab7b"] ;
769 -> 771 ;
772 [label="gini = 0.0\nsamples = 2\nvalue = [2, 0]\nclass = No", fillcolor="#e58139"] ;
768 -> 772 ;
773 [label="Age <= 37.5\ngini = 0.375\nsamples = 4\nvalue = [3, 1]\nclass = No", fillcolor="#eeab7b"] ;
767 -> 773 ;
774 [label="gini = 0.444\nsamples = 3\nvalue = [2, 1]\nclass = No", fillcolor="#f2c09c"] ;
773 -> 774 ;
775 [label="gini = 0.0\nsamples = 1\nvalue = [1, 0]\nclass = No", fillcolor="#e58139"] ;
773 -> 775 ;
776 [label="JoiningYear <= 2013.5\ngini = 0.387\nsamples = 99\nvalue = [73, 26]\nclass = No", fillcolor="#eeae80"] ;
766 -> 776 ;
777 [label="Age <= 30.5\ngini = 0.459\nsamples = 14\nvalue = [9, 5]\nclass = No", fillcolor="#f3c7a7"] ;
776 -> 777 ;
778 [label="Age <= 29.0\ngini = 0.486\nsamples = 12\nvalue = [7, 5]\nclass = No", fillcolor="#f8dbc6"] ;
777 -> 778 ;
779 [label="Age <= 26.5\ngini = 0.463\nsamples = 11\nvalue = [7, 4]\nclass = No", fillcolor="#f4c9aa"] ;
778 -> 779 ;
780 [label="gini = 0.444\nsamples = 9\nvalue = [6, 3]\nclass = No", fillcolor="#f2c09c"] ;
779 -> 780 ;
781 [label="gini = 0.5\nsamples = 2\nvalue = [1, 1]\nclass = No", fillcolor="#ffffff"] ;
779 -> 781 ;
782 [label="gini = 0.0\nsamples = 1\nvalue = [0, 1]\nclass = Yes", fillcolor="#399de5"] ;
778 -> 782 ;
783 [label="gini = 0.0\nsamples = 2\nvalue = [2, 0]\nclass = No", fillcolor="#e58139"] ;
777 -> 783 ;
784 [label="JoiningYear <= 2015.5\ngini = 0.372\nsamples = 85\nvalue = [64, 21]\nclass = No", fillcolor="#eeaa7a"] ;
776 -> 784 ;
785 [label="Age <= 26.5\ngini = 0.339\nsamples = 60\nvalue = [47, 13]\nclass = No", fillcolor="#eca470"] ;
784 -> 785 ;
786 [label="JoiningYear <= 2014.5\ngini = 0.257\nsamples = 33\nvalue = [28, 5]\nclass = No", fillcolor="#ea985c"] ;
785 -> 786 ;
787 [label="gini = 0.236\nsamples = 22\nvalue = [19, 3]\nclass = No", fillcolor="#e99558"] ;
786 -> 787 ;
788 [label="gini = 0.298\nsamples = 11\nvalue = [9, 2]\nclass = No", fillcolor="#eb9d65"] ;
786 -> 788 ;
789 [label="Age <= 37.0\ngini = 0.417\nsamples = 27\nvalue = [19, 8]\nclass = No", fillcolor="#f0b68c"] ;
785 -> 789 ;
790 [label="Age <= 34.5\ngini = 0.397\nsamples = 22\nvalue = [16, 6]\nclass = No", fillcolor="#efb083"] ;
789 -> 790 ;
791 [label="JoiningYear <= 2014.5\ngini = 0.432\nsamples = 19\nvalue = [13, 6]\nclass = No", fillcolor="#f1bb94"] ;
790 -> 791 ;
792 [label="Age <= 31.5\ngini = 0.473\nsamples = 13\nvalue = [8, 5]\nclass = No", fillcolor="#f5d0b5"] ;
791 -> 792 ;
793 [label="Age <= 29.5\ngini = 0.5\nsamples = 8\nvalue = [4, 4]\nclass = No", fillcolor="#ffffff"] ;
792 -> 793 ;
794 [label="gini = 0.49\nsamples = 7\nvalue = [4, 3]\nclass = No", fillcolor="#f8e0ce"] ;
793 -> 794 ;
795 [label="gini = 0.0\nsamples = 1\nvalue = [0, 1]\nclass = Yes", fillcolor="#399de5"] ;
793 -> 795 ;
796 [label="Age <= 33.5\ngini = 0.32\nsamples = 5\nvalue = [4, 1]\nclass = No", fillcolor="#eca06a"] ;
792 -> 796 ;
797 [label="gini = 0.0\nsamples = 2\nvalue = [2, 0]\nclass = No", fillcolor="#e58139"] ;
796 -> 797 ;
798 [label="gini = 0.444\nsamples = 3\nvalue = [2, 1]\nclass = No", fillcolor="#f2c09c"] ;
796 -> 798 ;
799 [label="Age <= 31.5\ngini = 0.278\nsamples = 6\nvalue = [5, 1]\nclass = No", fillcolor="#ea9a61"] ;
791 -> 799 ;
800 [label="gini = 0.0\nsamples = 5\nvalue = [5, 0]\nclass = No", fillcolor="#e58139"] ;
799 -> 800 ;
801 [label="gini = 0.0\nsamples = 1\nvalue = [0, 1]\nclass = Yes", fillcolor="#399de5"] ;
799 -> 801 ;
802 [label="gini = 0.0\nsamples = 3\nvalue = [3, 0]\nclass = No", fillcolor="#e58139"] ;
790 -> 802 ;
803 [label="JoiningYear <= 2014.5\ngini = 0.48\nsamples = 5\nvalue = [3, 2]\nclass = No", fillcolor="#f6d5bd"] ;
789 -> 803 ;
804 [label="gini = 0.0\nsamples = 2\nvalue = [2, 0]\nclass = No", fillcolor="#e58139"] ;
803 -> 804 ;
805 [label="gini = 0.444\nsamples = 3\nvalue = [1, 2]\nclass = Yes", fillcolor="#9ccef2"] ;
803 -> 805 ;
806 [label="Age <= 28.5\ngini = 0.435\nsamples = 25\nvalue = [17, 8]\nclass = No", fillcolor="#f1bc96"] ;
784 -> 806 ;
807 [label="Age <= 26.5\ngini = 0.48\nsamples = 20\nvalue = [12, 8]\nclass = No", fillcolor="#f6d5bd"] ;
806 -> 807 ;
808 [label="gini = 0.49\nsamples = 14\nvalue = [8, 6]\nclass = No", fillcolor="#f8e0ce"] ;
807 -> 808 ;
809 [label="gini = 0.444\nsamples = 6\nvalue = [4, 2]\nclass = No", fillcolor="#f2c09c"] ;
807 -> 809 ;
810 [label="gini = 0.0\nsamples = 5\nvalue = [5, 0]\nclass = No", fillcolor="#e58139"] ;
806 -> 810 ;
811 [label="Age <= 33.5\ngini = 0.251\nsamples = 34\nvalue = [29, 5]\nclass = No", fillcolor="#e9975b"] ;
765 -> 811 ;
812 [label="Age <= 28.5\ngini = 0.198\nsamples = 27\nvalue = [24, 3]\nclass = No", fillcolor="#e89152"] ;
811 -> 812 ;
813 [label="Age <= 26.5\ngini = 0.211\nsamples = 25\nvalue = [22, 3]\nclass = No", fillcolor="#e99254"] ;
812 -> 813 ;
814 [label="gini = 0.219\nsamples = 16\nvalue = [14, 2]\nclass = No", fillcolor="#e99355"] ;
813 -> 814 ;
815 [label="gini = 0.198\nsamples = 9\nvalue = [8, 1]\nclass = No", fillcolor="#e89152"] ;
813 -> 815 ;
816 [label="gini = 0.0\nsamples = 2\nvalue = [2, 0]\nclass = No", fillcolor="#e58139"] ;
812 -> 816 ;
817 [label="Age <= 34.5\ngini = 0.408\nsamples = 7\nvalue = [5, 2]\nclass = No", fillcolor="#efb388"] ;
811 -> 817 ;
818 [label="gini = 0.5\nsamples = 2\nvalue = [1, 1]\nclass = No", fillcolor="#ffffff"] ;
817 -> 818 ;
819 [label="Age <= 36.5\ngini = 0.32\nsamples = 5\nvalue = [4, 1]\nclass = No", fillcolor="#eca06a"] ;
817 -> 819 ;
820 [label="gini = 0.0\nsamples = 2\nvalue = [2, 0]\nclass = No", fillcolor="#e58139"] ;
819 -> 820 ;
821 [label="Age <= 37.5\ngini = 0.444\nsamples = 3\nvalue = [2, 1]\nclass = No", fillcolor="#f2c09c"] ;
819 -> 821 ;
822 [label="gini = 0.5\nsamples = 2\nvalue = [1, 1]\nclass = No", fillcolor="#ffffff"] ;
821 -> 822 ;
823 [label="gini = 0.0\nsamples = 1\nvalue = [1, 0]\nclass = No", fillcolor="#e58139"] ;
821 -> 823 ;
824 [label="ExperienceInCurrentDomain <= 0.5\ngini = 0.171\nsamples = 53\nvalue = [48, 5]\nclass = No", fillcolor="#e88e4e"] ;
576 -> 824 ;
825 [label="JoiningYear <= 2014.5\ngini = 0.32\nsamples = 15\nvalue = [12, 3]\nclass = No", fillcolor="#eca06a"] ;
824 -> 825 ;
826 [label="gini = 0.0\nsamples = 6\nvalue = [6, 0]\nclass = No", fillcolor="#e58139"] ;
825 -> 826 ;
827 [label="Age <= 39.5\ngini = 0.444\nsamples = 9\nvalue = [6, 3]\nclass = No", fillcolor="#f2c09c"] ;
825 -> 827 ;
828 [label="gini = 0.0\nsamples = 1\nvalue = [0, 1]\nclass = Yes", fillcolor="#399de5"] ;
827 -> 828 ;
829 [label="JoiningYear <= 2016.5\ngini = 0.375\nsamples = 8\nvalue = [6, 2]\nclass = No", fillcolor="#eeab7b"] ;
827 -> 829 ;
830 [label="Age <= 40.5\ngini = 0.444\nsamples = 6\nvalue = [4, 2]\nclass = No", fillcolor="#f2c09c"] ;
829 -> 830 ;
831 [label="JoiningYear <= 2015.5\ngini = 0.48\nsamples = 5\nvalue = [3, 2]\nclass = No", fillcolor="#f6d5bd"] ;
830 -> 831 ;
832 [label="gini = 0.5\nsamples = 2\nvalue = [1, 1]\nclass = No", fillcolor="#ffffff"] ;
831 -> 832 ;
833 [label="gini = 0.444\nsamples = 3\nvalue = [2, 1]\nclass = No", fillcolor="#f2c09c"] ;
831 -> 833 ;
834 [label="gini = 0.0\nsamples = 1\nvalue = [1, 0]\nclass = No", fillcolor="#e58139"] ;
830 -> 834 ;
835 [label="gini = 0.0\nsamples = 2\nvalue = [2, 0]\nclass = No", fillcolor="#e58139"] ;
829 -> 835 ;
836 [label="JoiningYear <= 2013.5\ngini = 0.1\nsamples = 38\nvalue = [36, 2]\nclass = No", fillcolor="#e68844"] ;
824 -> 836 ;
837 [label="gini = 0.0\nsamples = 10\nvalue = [10, 0]\nclass = No", fillcolor="#e58139"] ;
836 -> 837 ;
838 [label="JoiningYear <= 2014.5\ngini = 0.133\nsamples = 28\nvalue = [26, 2]\nclass = No", fillcolor="#e78b48"] ;
836 -> 838 ;
839 [label="ExperienceInCurrentDomain <= 2.0\ngini = 0.444\nsamples = 3\nvalue = [2, 1]\nclass = No", fillcolor="#f2c09c"] ;
838 -> 839 ;
840 [label="gini = 0.0\nsamples = 1\nvalue = [1, 0]\nclass = No", fillcolor="#e58139"] ;
839 -> 840 ;
841 [label="gini = 0.5\nsamples = 2\nvalue = [1, 1]\nclass = No", fillcolor="#ffffff"] ;
839 -> 841 ;
842 [label="Age <= 40.5\ngini = 0.077\nsamples = 25\nvalue = [24, 1]\nclass = No", fillcolor="#e68641"] ;
838 -> 842 ;
843 [label="gini = 0.0\nsamples = 16\nvalue = [16, 0]\nclass = No", fillcolor="#e58139"] ;
842 -> 843 ;
844 [label="ExperienceInCurrentDomain <= 1.5\ngini = 0.198\nsamples = 9\nvalue = [8, 1]\nclass = No", fillcolor="#e89152"] ;
842 -> 844 ;
845 [label="JoiningYear <= 2016.5\ngini = 0.32\nsamples = 5\nvalue = [4, 1]\nclass = No", fillcolor="#eca06a"] ;
844 -> 845 ;
846 [label="JoiningYear <= 2015.5\ngini = 0.444\nsamples = 3\nvalue = [2, 1]\nclass = No", fillcolor="#f2c09c"] ;
845 -> 846 ;
847 [label="gini = 0.0\nsamples = 1\nvalue = [1, 0]\nclass = No", fillcolor="#e58139"] ;
846 -> 847 ;
848 [label="gini = 0.5\nsamples = 2\nvalue = [1, 1]\nclass = No", fillcolor="#ffffff"] ;
846 -> 848 ;
849 [label="gini = 0.0\nsamples = 2\nvalue = [2, 0]\nclass = No", fillcolor="#e58139"] ;
845 -> 849 ;
850 [label="gini = 0.0\nsamples = 4\nvalue = [4, 0]\nclass = No", fillcolor="#e58139"] ;
844 -> 850 ;
851 [label="Age <= 27.5\ngini = 0.189\nsamples = 406\nvalue = [363, 43]\nclass = No", fillcolor="#e89050"] ;
575 -> 851 ;
852 [label="JoiningYear <= 2014.5\ngini = 0.235\nsamples = 257\nvalue = [222, 35]\nclass = No", fillcolor="#e99558"] ;
851 -> 852 ;
853 [label="Age <= 26.5\ngini = 0.267\nsamples = 145\nvalue = [122, 23]\nclass = No", fillcolor="#ea995e"] ;
852 -> 853 ;
854 [label="JoiningYear <= 2013.5\ngini = 0.211\nsamples = 75\nvalue = [66, 9]\nclass = No", fillcolor="#e99254"] ;
853 -> 854 ;
855 [label="JoiningYear <= 2012.5\ngini = 0.153\nsamples = 48\nvalue = [44, 4]\nclass = No", fillcolor="#e78c4b"] ;
854 -> 855 ;
856 [label="gini = 0.245\nsamples = 21\nvalue = [18, 3]\nclass = No", fillcolor="#e9965a"] ;
855 -> 856 ;
857 [label="gini = 0.071\nsamples = 27\nvalue = [26, 1]\nclass = No", fillcolor="#e68641"] ;
855 -> 857 ;
858 [label="gini = 0.302\nsamples = 27\nvalue = [22, 5]\nclass = No", fillcolor="#eb9e66"] ;
854 -> 858 ;
859 [label="JoiningYear <= 2012.5\ngini = 0.32\nsamples = 70\nvalue = [56, 14]\nclass = No", fillcolor="#eca06a"] ;
853 -> 859 ;
860 [label="gini = 0.236\nsamples = 22\nvalue = [19, 3]\nclass = No", fillcolor="#e99558"] ;
859 -> 860 ;
861 [label="JoiningYear <= 2013.5\ngini = 0.353\nsamples = 48\nvalue = [37, 11]\nclass = No", fillcolor="#eda674"] ;
859 -> 861 ;
862 [label="gini = 0.401\nsamples = 18\nvalue = [13, 5]\nclass = No", fillcolor="#efb185"] ;
861 -> 862 ;
863 [label="gini = 0.32\nsamples = 30\nvalue = [24, 6]\nclass = No", fillcolor="#eca06a"] ;
861 -> 863 ;
864 [label="JoiningYear <= 2015.5\ngini = 0.191\nsamples = 112\nvalue = [100, 12]\nclass = No", fillcolor="#e89051"] ;
852 -> 864 ;
865 [label="ExperienceInCurrentDomain <= 4.5\ngini = 0.142\nsamples = 26\nvalue = [24, 2]\nclass = No", fillcolor="#e78c49"] ;
864 -> 865 ;
866 [label="gini = 0.133\nsamples = 14\nvalue = [13, 1]\nclass = No", fillcolor="#e78b48"] ;
865 -> 866 ;
867 [label="gini = 0.153\nsamples = 12\nvalue = [11, 1]\nclass = No", fillcolor="#e78c4b"] ;
865 -> 867 ;
868 [label="JoiningYear <= 2016.5\ngini = 0.206\nsamples = 86\nvalue = [76, 10]\nclass = No", fillcolor="#e89253"] ;
864 -> 868 ;
869 [label="Age <= 26.5\ngini = 0.237\nsamples = 51\nvalue = [44, 7]\nclass = No", fillcolor="#e99558"] ;
868 -> 869 ;
870 [label="gini = 0.219\nsamples = 32\nvalue = [28, 4]\nclass = No", fillcolor="#e99355"] ;
869 -> 870 ;
871 [label="gini = 0.266\nsamples = 19\nvalue = [16, 3]\nclass = No", fillcolor="#ea995e"] ;
869 -> 871 ;
872 [label="ExperienceInCurrentDomain <= 4.5\ngini = 0.157\nsamples = 35\nvalue = [32, 3]\nclass = No", fillcolor="#e78d4c"] ;
868 -> 872 ;
873 [label="gini = 0.198\nsamples = 9\nvalue = [8, 1]\nclass = No", fillcolor="#e89152"] ;
872 -> 873 ;
874 [label="gini = 0.142\nsamples = 26\nvalue = [24, 2]\nclass = No", fillcolor="#e78c49"] ;
872 -> 874 ;
875 [label="ExperienceInCurrentDomain <= 6.5\ngini = 0.102\nsamples = 149\nvalue = [141, 8]\nclass = No", fillcolor="#e68844"] ;
851 -> 875 ;
