digraph Tree {
node [shape=box, style="filled", color="black", fontname="helvetica"] ;
edge [fontname="helvetica"] ;
0 [label="popularity <= 47.5\ngini = 0.9\nsamples = 32447\nvalue = [3260, 3231, 3273, 3211, 3215, 3215, 3274, 3217, 3251\n3300]\nclass = 9", fillcolor="#ffffff"] ;
1 [label="loudness <= -16.991\ngini = 0.852\nsamples = 17792\nvalue = [1278, 3177, 2948, 3017, 1972, 2683, 127, 2516, 32\n42]\nclass = 1", fillcolor="#fffffd"] ;
0 -> 1 [labeldistance=2.5, labelangle=45, headlabel="True"] ;
2 [label="danceability <= 0.522\ngini = 0.406\nsamples = 3039\nvalue = [7, 318, 95, 2305, 19, 40, 1, 254, 0, 0]\nclass = 3", fillcolor="#6eec89"] ;
1 -> 2 ;
3 [label="acousticness <= 0.754\ngini = 0.308\nsamples = 2685\nvalue = [5, 248, 42, 2214, 10, 15, 0, 151, 0, 0]\nclass = 3", fillcolor="#5fea7d"] ;
2 -> 3 ;
4 [label="popularity <= 22.5\ngini = 0.729\nsamples = 157\nvalue = [1, 39, 14, 66, 5, 10, 0, 22, 0, 0]\nclass = 3", fillcolor="#d2f9da"] ;
3 -> 4 ;
5 [label="valence <= 0.345\ngini = 0.25\nsamples = 36\nvalue = [0, 31, 1, 3, 0, 1, 0, 0, 0, 0]\nclass = 1", fillcolor="#e6e957"] ;
4 -> 5 ;
6 [label="instrumentalness <= 0.001\ngini = 0.119\nsamples = 32\nvalue = [0, 30, 0, 1, 0, 1, 0, 0, 0, 0]\nclass = 1", fillcolor="#e4e746"] ;
5 -> 6 ;
7 [label="gini = 0.0\nsamples = 1\nvalue = [0, 0, 0, 1, 0, 0, 0, 0, 0, 0]\nclass = 3", fillcolor="#39e55e"] ;
6 -> 7 ;
8 [label="valence <= 0.027\ngini = 0.062\nsamples = 31\nvalue = [0, 30, 0, 0, 0, 1, 0, 0, 0, 0]\nclass = 1", fillcolor="#e3e640"] ;
6 -> 8 ;
9 [label="gini = 0.0\nsamples = 1\nvalue = [0, 0, 0, 0, 0, 1, 0, 0, 0, 0]\nclass = 5", fillcolor="#399de5"] ;
8 -> 9 ;
10 [label="gini = 0.0\nsamples = 30\nvalue = [0, 30, 0, 0, 0, 0, 0, 0, 0, 0]\nclass = 1", fillcolor="#e2e539"] ;
8 -> 10 ;
11 [label="danceability <= 0.363\ngini = 0.625\nsamples = 4\nvalue = [0, 1, 1, 2, 0, 0, 0, 0, 0, 0]\nclass = 3", fillcolor="#bdf6c9"] ;
5 -> 11 ;
12 [label="gini = 0.0\nsamples = 2\nvalue = [0, 0, 0, 2, 0, 0, 0, 0, 0, 0]\nclass = 3", fillcolor="#39e55e"] ;
11 -> 12 ;
13 [label="liveness <= 0.157\ngini = 0.5\nsamples = 2\nvalue = [0, 1, 1, 0, 0, 0, 0, 0, 0, 0]\nclass = 1", fillcolor="#ffffff"] ;
11 -> 13 ;
14 [label="gini = 0.0\nsamples = 1\nvalue = [0, 0, 1, 0, 0, 0, 0, 0, 0, 0]\nclass = 2", fillcolor="#7be539"] ;
13 -> 14 ;
15 [label="gini = 0.0\nsamples = 1\nvalue = [0, 1, 0, 0, 0, 0, 0, 0, 0, 0]\nclass = 1", fillcolor="#e2e539"] ;
13 -> 15 ;
16 [label="danceability <= 0.233\ngini = 0.673\nsamples = 121\nvalue = [1, 8, 13, 63, 5, 9, 0, 22, 0, 0]\nclass = 3", fillcolor="#adf4bc"] ;
4 -> 16 ;
17 [label="speechiness <= 0.034\ngini = 0.22\nsamples = 50\nvalue = [0, 3, 0, 44, 0, 2, 0, 1, 0, 0]\nclass = 3", fillcolor="#52e873"] ;
16 -> 17 ;
18 [label="duration_ms <= 191173.5\ngini = 0.444\nsamples = 3\nvalue = [0, 2, 0, 0, 0, 1, 0, 0, 0, 0]\nclass = 1", fillcolor="#f0f29c"] ;
17 -> 18 ;
19 [label="gini = 0.0\nsamples = 1\nvalue = [0, 0, 0, 0, 0, 1, 0, 0, 0, 0]\nclass = 5", fillcolor="#399de5"] ;
18 -> 19 ;
20 [label="gini = 0.0\nsamples = 2\nvalue = [0, 2, 0, 0, 0, 0, 0, 0, 0, 0]\nclass = 1", fillcolor="#e2e539"] ;
18 -> 20 ;
21 [label="speechiness <= 0.186\ngini = 0.122\nsamples = 47\nvalue = [0, 1, 0, 44, 0, 1, 0, 1, 0, 0]\nclass = 3", fillcolor="#46e768"] ;
17 -> 21 ;
22 [label="duration_ms <= 64405.0\ngini = 0.084\nsamples = 46\nvalue = [0, 1, 0, 44, 0, 0, 0, 1, 0, 0]\nclass = 3", fillcolor="#42e665"] ;
21 -> 22 ;
23 [label="gini = 0.0\nsamples = 1\nvalue = [0, 0, 0, 0, 0, 0, 0, 1, 0, 0]\nclass = 7", fillcolor="#a339e5"] ;
22 -> 23 ;
24 [label="valence <= 0.027\ngini = 0.043\nsamples = 45\nvalue = [0, 1, 0, 44, 0, 0, 0, 0, 0, 0]\nclass = 3", fillcolor="#3de662"] ;
22 -> 24 ;
25 [label="popularity <= 26.5\ngini = 0.5\nsamples = 2\nvalue = [0, 1, 0, 1, 0, 0, 0, 0, 0, 0]\nclass = 1", fillcolor="#ffffff"] ;
24 -> 25 ;
26 [label="gini = 0.0\nsamples = 1\nvalue = [0, 1, 0, 0, 0, 0, 0, 0, 0, 0]\nclass = 1", fillcolor="#e2e539"] ;
25 -> 26 ;
27 [label="gini = 0.0\nsamples = 1\nvalue = [0, 0, 0, 1, 0, 0, 0, 0, 0, 0]\nclass = 3", fillcolor="#39e55e"] ;
25 -> 27 ;
28 [label="gini = 0.0\nsamples = 43\nvalue = [0, 0, 0, 43, 0, 0, 0, 0, 0, 0]\nclass = 3", fillcolor="#39e55e"] ;
24 -> 28 ;
29 [label="gini = 0.0\nsamples = 1\nvalue = [0, 0, 0, 0, 0, 1, 0, 0, 0, 0]\nclass = 5", fillcolor="#399de5"] ;
21 -> 29 ;
30 [label="popularity <= 34.5\ngini = 0.788\nsamples = 71\nvalue = [1, 5, 13, 19, 5, 7, 0, 21, 0, 0]\nclass = 7", fillcolor="#fbf7fe"] ;
16 -> 30 ;
31 [label="instrumentalness <= 0.197\ngini = 0.687\nsamples = 33\nvalue = [0, 4, 7, 16, 0, 2, 0, 4, 0, 0]\nclass = 3", fillcolor="#baf6c7"] ;
30 -> 31 ;
32 [label="speechiness <= 0.038\ngini = 0.56\nsamples = 10\nvalue = [0, 0, 6, 2, 0, 0, 0, 2, 0, 0]\nclass = 2", fillcolor="#bdf29c"] ;
31 -> 32 ;
33 [label="key <= 3.5\ngini = 0.444\nsamples = 3\nvalue = [0, 0, 0, 2, 0, 0, 0, 1, 0, 0]\nclass = 3", fillcolor="#9cf2ae"] ;
32 -> 33 ;
34 [label="gini = 0.0\nsamples = 1\nvalue = [0, 0, 0, 0, 0, 0, 0, 1, 0, 0]\nclass = 7", fillcolor="#a339e5"] ;
33 -> 34 ;
35 [label="gini = 0.0\nsamples = 2\nvalue = [0, 0, 0, 2, 0, 0, 0, 0, 0, 0]\nclass = 3", fillcolor="#39e55e"] ;
33 -> 35 ;
36 [label="duration_ms <= 506140.0\ngini = 0.245\nsamples = 7\nvalue = [0, 0, 6, 0, 0, 0, 0, 1, 0, 0]\nclass = 2", fillcolor="#91e95a"] ;
32 -> 36 ;
37 [label="gini = 0.0\nsamples = 6\nvalue = [0, 0, 6, 0, 0, 0, 0, 0, 0, 0]\nclass = 2", fillcolor="#7be539"] ;
36 -> 37 ;
38 [label="gini = 0.0\nsamples = 1\nvalue = [0, 0, 0, 0, 0, 0, 0, 1, 0, 0]\nclass = 7", fillcolor="#a339e5"] ;
36 -> 38 ;
39 [label="acousticness <= 0.468\ngini = 0.582\nsamples = 23\nvalue = [0, 4, 1, 14, 0, 2, 0, 2, 0, 0]\nclass = 3", fillcolor="#97f1aa"] ;
31 -> 39 ;
40 [label="popularity <= 31.5\ngini = 0.375\nsamples = 4\nvalue = [0, 3, 0, 0, 0, 1, 0, 0, 0, 0]\nclass = 1", fillcolor="#ecee7b"] ;
39 -> 40 ;
41 [label="gini = 0.0\nsamples = 3\nvalue = [0, 3, 0, 0, 0, 0, 0, 0, 0, 0]\nclass = 1", fillcolor="#e2e539"] ;
40 -> 41 ;
42 [label="gini = 0.0\nsamples = 1\nvalue = [0, 0, 0, 0, 0, 1, 0, 0, 0, 0]\nclass = 5", fillcolor="#399de5"] ;
40 -> 42 ;
43 [label="key <= 1.5\ngini = 0.438\nsamples = 19\nvalue = [0, 1, 1, 14, 0, 1, 0, 2, 0, 0]\nclass = 3", fillcolor="#73ed8d"] ;
39 -> 43 ;
44 [label="loudness <= -21.363\ngini = 0.667\nsamples = 3\nvalue = [0, 1, 1, 0, 0, 0, 0, 1, 0, 0]\nclass = 1", fillcolor="#ffffff"] ;
43 -> 44 ;
45 [label="gini = 0.0\nsamples = 1\nvalue = [0, 1, 0, 0, 0, 0, 0, 0, 0, 0]\nclass = 1", fillcolor="#e2e539"] ;
44 -> 45 ;
46 [label="popularity <= 31.5\ngini = 0.5\nsamples = 2\nvalue = [0, 0, 1, 0, 0, 0, 0, 1, 0, 0]\nclass = 2", fillcolor="#ffffff"] ;
44 -> 46 ;
47 [label="gini = 0.0\nsamples = 1\nvalue = [0, 0, 1, 0, 0, 0, 0, 0, 0, 0]\nclass = 2", fillcolor="#7be539"] ;
46 -> 47 ;
48 [label="gini = 0.0\nsamples = 1\nvalue = [0, 0, 0, 0, 0, 0, 0, 1, 0, 0]\nclass = 7", fillcolor="#a339e5"] ;
46 -> 48 ;
49 [label="energy <= 0.023\ngini = 0.227\nsamples = 16\nvalue = [0, 0, 0, 14, 0, 1, 0, 1, 0, 0]\nclass = 3", fillcolor="#53e873"] ;
43 -> 49 ;
50 [label="gini = 0.0\nsamples = 1\nvalue = [0, 0, 0, 0, 0, 1, 0, 0, 0, 0]\nclass = 5", fillcolor="#399de5"] ;
49 -> 50 ;
51 [label="liveness <= 0.593\ngini = 0.124\nsamples = 15\nvalue = [0, 0, 0, 14, 0, 0, 0, 1, 0, 0]\nclass = 3", fillcolor="#47e76a"] ;
49 -> 51 ;
52 [label="gini = 0.0\nsamples = 14\nvalue = [0, 0, 0, 14, 0, 0, 0, 0, 0, 0]\nclass = 3", fillcolor="#39e55e"] ;
51 -> 52 ;
53 [label="gini = 0.0\nsamples = 1\nvalue = [0, 0, 0, 0, 0, 0, 0, 1, 0, 0]\nclass = 7", fillcolor="#a339e5"] ;
51 -> 53 ;
54 [label="energy <= 0.435\ngini = 0.733\nsamples = 38\nvalue = [1, 1, 6, 3, 5, 5, 0, 17, 0, 0]\nclass = 7", fillcolor="#dfbbf6"] ;
30 -> 54 ;
55 [label="speechiness <= 0.051\ngini = 0.707\nsamples = 35\nvalue = [1, 1, 3, 3, 5, 5, 0, 17, 0, 0]\nclass = 7", fillcolor="#dab0f5"] ;
54 -> 55 ;
56 [label="mode <= 0.5\ngini = 0.594\nsamples = 28\nvalue = [1, 1, 1, 1, 4, 3, 0, 17, 0, 0]\nclass = 7", fillcolor="#cd94f1"] ;
55 -> 56 ;
57 [label="acousticness <= 0.185\ngini = 0.775\nsamples = 17\nvalue = [1, 1, 1, 1, 4, 3, 0, 6, 0, 0]\nclass = 7", fillcolor="#f1e1fb"] ;
56 -> 57 ;
58 [label="gini = 0.0\nsamples = 3\nvalue = [0, 0, 0, 0, 0, 3, 0, 0, 0, 0]\nclass = 5", fillcolor="#399de5"] ;
57 -> 58 ;
59 [label="duration_ms <= 335773.5\ngini = 0.714\nsamples = 14\nvalue = [1, 1, 1, 1, 4, 0, 0, 6, 0, 0]\nclass = 7", fillcolor="#edd7fa"] ;
57 -> 59 ;
60 [label="duration_ms <= 183333.0\ngini = 0.688\nsamples = 8\nvalue = [1, 1, 1, 0, 4, 0, 0, 1, 0, 0]\nclass = 4", fillcolor="#aaf4e6"] ;
59 -> 60 ;
61 [label="energy <= 0.21\ngini = 0.5\nsamples = 2\nvalue = [1, 0, 1, 0, 0, 0, 0, 0, 0, 0]\nclass = 0", fillcolor="#ffffff"] ;
60 -> 61 ;
62 [label="gini = 0.0\nsamples = 1\nvalue = [0, 0, 1, 0, 0, 0, 0, 0, 0, 0]\nclass = 2", fillcolor="#7be539"] ;
61 -> 62 ;
63 [label="gini = 0.0\nsamples = 1\nvalue = [1, 0, 0, 0, 0, 0, 0, 0, 0, 0]\nclass = 0", fillcolor="#e58139"] ;
61 -> 63 ;
64 [label="liveness <= 0.159\ngini = 0.5\nsamples = 6\nvalue = [0, 1, 0, 0, 4, 0, 0, 1, 0, 0]\nclass = 4", fillcolor="#88efdc"] ;
60 -> 64 ;
65 [label="loudness <= -17.901\ngini = 0.32\nsamples = 5\nvalue = [0, 0, 0, 0, 4, 0, 0, 1, 0, 0]\nclass = 4", fillcolor="#6aecd4"] ;
64 -> 65 ;
66 [label="gini = 0.0\nsamples = 3\nvalue = [0, 0, 0, 0, 3, 0, 0, 0, 0, 0]\nclass = 4", fillcolor="#39e5c5"] ;
65 -> 66 ;
67 [label="key <= 5.5\ngini = 0.5\nsamples = 2\nvalue = [0, 0, 0, 0, 1, 0, 0, 1, 0, 0]\nclass = 4", fillcolor="#ffffff"] ;
65 -> 67 ;
68 [label="gini = 0.0\nsamples = 1\nvalue = [0, 0, 0, 0, 0, 0, 0, 1, 0, 0]\nclass = 7", fillcolor="#a339e5"] ;
67 -> 68 ;
69 [label="gini = 0.0\nsamples = 1\nvalue = [0, 0, 0, 0, 1, 0, 0, 0, 0, 0]\nclass = 4", fillcolor="#39e5c5"] ;
67 -> 69 ;
70 [label="gini = 0.0\nsamples = 1\nvalue = [0, 1, 0, 0, 0, 0, 0, 0, 0, 0]\nclass = 1", fillcolor="#e2e539"] ;
64 -> 70 ;
71 [label="speechiness <= 0.037\ngini = 0.278\nsamples = 6\nvalue = [0, 0, 0, 1, 0, 0, 0, 5, 0, 0]\nclass = 7", fillcolor="#b561ea"] ;
59 -> 71 ;
72 [label="gini = 0.0\nsamples = 1\nvalue = [0, 0, 0, 1, 0, 0, 0, 0, 0, 0]\nclass = 3", fillcolor="#39e55e"] ;
71 -> 72 ;
73 [label="gini = 0.0\nsamples = 5\nvalue = [0, 0, 0, 0, 0, 0, 0, 5, 0, 0]\nclass = 7", fillcolor="#a339e5"] ;
71 -> 73 ;
74 [label="gini = 0.0\nsamples = 11\nvalue = [0, 0, 0, 0, 0, 0, 0, 11, 0, 0]\nclass = 7", fillcolor="#a339e5"] ;
56 -> 74 ;
75 [label="loudness <= -21.87\ngini = 0.735\nsamples = 7\nvalue = [0, 0, 2, 2, 1, 2, 0, 0, 0, 0]\nclass = 2", fillcolor="#ffffff"] ;
55 -> 75 ;
76 [label="gini = 0.0\nsamples = 2\nvalue = [0, 0, 0, 2, 0, 0, 0, 0, 0, 0]\nclass = 3", fillcolor="#39e55e"] ;
75 -> 76 ;
77 [label="valence <= 0.082\ngini = 0.64\nsamples = 5\nvalue = [0, 0, 2, 0, 1, 2, 0, 0, 0, 0]\nclass = 2", fillcolor="#ffffff"] ;
75 -> 77 ;
78 [label="gini = 0.0\nsamples = 2\nvalue = [0, 0, 0, 0, 0, 2, 0, 0, 0, 0]\nclass = 5", fillcolor="#399de5"] ;
77 -> 78 ;
79 [label="key <= 8.5\ngini = 0.444\nsamples = 3\nvalue = [0, 0, 2, 0, 1, 0, 0, 0, 0, 0]\nclass = 2", fillcolor="#bdf29c"] ;
77 -> 79 ;
80 [label="gini = 0.0\nsamples = 2\nvalue = [0, 0, 2, 0, 0, 0, 0, 0, 0, 0]\nclass = 2", fillcolor="#7be539"] ;
79 -> 80 ;
81 [label="gini = 0.0\nsamples = 1\nvalue = [0, 0, 0, 0, 1, 0, 0, 0, 0, 0]\nclass = 4", fillcolor="#39e5c5"] ;
79 -> 81 ;
82 [label="gini = 0.0\nsamples = 3\nvalue = [0, 0, 3, 0, 0, 0, 0, 0, 0, 0]\nclass = 2", fillcolor="#7be539"] ;
54 -> 82 ;
83 [label="danceability <= 0.374\ngini = 0.268\nsamples = 2528\nvalue = [4, 209, 28, 2148, 5, 5, 0, 129, 0, 0]\nclass = 3", fillcolor="#59e978"] ;
3 -> 83 ;
84 [label="popularity <= 26.5\ngini = 0.188\nsamples = 1814\nvalue = [0, 135, 7, 1628, 0, 2, 0, 42, 0, 0]\nclass = 3", fillcolor="#4fe870"] ;
83 -> 84 ;
85 [label="popularity <= 8.5\ngini = 0.282\nsamples = 647\nvalue = [0, 105, 4, 538, 0, 0, 0, 0, 0, 0]\nclass = 3", fillcolor="#61ea7e"] ;
84 -> 85 ;
86 [label="liveness <= 0.961\ngini = 0.022\nsamples = 275\nvalue = [0, 2, 1, 272, 0, 0, 0, 0, 0, 0]\nclass = 3", fillcolor="#3be560"] ;
85 -> 86 ;
87 [label="speechiness <= 0.034\ngini = 0.014\nsamples = 274\nvalue = [0, 2, 0, 272, 0, 0, 0, 0, 0, 0]\nclass = 3", fillcolor="#3ae55f"] ;
86 -> 87 ;
88 [label="tempo <= 75.569\ngini = 0.32\nsamples = 10\nvalue = [0, 2, 0, 8, 0, 0, 0, 0, 0, 0]\nclass = 3", fillcolor="#6aec86"] ;
87 -> 88 ;
89 [label="gini = 0.0\nsamples = 2\nvalue = [0, 2, 0, 0, 0, 0, 0, 0, 0, 0]\nclass = 1", fillcolor="#e2e539"] ;
88 -> 89 ;
90 [label="gini = 0.0\nsamples = 8\nvalue = [0, 0, 0, 8, 0, 0, 0, 0, 0, 0]\nclass = 3", fillcolor="#39e55e"] ;
88 -> 90 ;
91 [label="gini = 0.0\nsamples = 264\nvalue = [0, 0, 0, 264, 0, 0, 0, 0, 0, 0]\nclass = 3", fillcolor="#39e55e"] ;
87 -> 91 ;
92 [label="gini = 0.0\nsamples = 1\nvalue = [0, 0, 1, 0, 0, 0, 0, 0, 0, 0]\nclass = 2", fillcolor="#7be539"] ;
86 -> 92 ;
93 [label="popularity <= 21.5\ngini = 0.412\nsamples = 372\nvalue = [0, 103, 3, 266, 0, 0, 0, 0, 0, 0]\nclass = 3", fillcolor="#87ef9d"] ;
85 -> 93 ;
94 [label="duration_ms <= 393856.0\ngini = 0.5\nsamples = 152\nvalue = [0, 76, 0, 76, 0, 0, 0, 0, 0, 0]\nclass = 1", fillcolor="#ffffff"] ;
93 -> 94 ;
95 [label="instrumentalness <= 0.025\ngini = 0.484\nsamples = 127\nvalue = [0, 75, 0, 52, 0, 0, 0, 0, 0, 0]\nclass = 1", fillcolor="#f6f7c2"] ;
94 -> 95 ;
96 [label="acousticness <= 0.99\ngini = 0.278\nsamples = 18\nvalue = [0, 3, 0, 15, 0, 0, 0, 0, 0, 0]\nclass = 3", fillcolor="#61ea7e"] ;
95 -> 96 ;
97 [label="energy <= 0.006\ngini = 0.117\nsamples = 16\nvalue = [0, 1, 0, 15, 0, 0, 0, 0, 0, 0]\nclass = 3", fillcolor="#46e769"] ;
96 -> 97 ;
98 [label="gini = 0.0\nsamples = 1\nvalue = [0, 1, 0, 0, 0, 0, 0, 0, 0, 0]\nclass = 1", fillcolor="#e2e539"] ;
97 -> 98 ;
99 [label="gini = 0.0\nsamples = 15\nvalue = [0, 0, 0, 15, 0, 0, 0, 0, 0, 0]\nclass = 3", fillcolor="#39e55e"] ;
97 -> 99 ;
100 [label="gini = 0.0\nsamples = 2\nvalue = [0, 2, 0, 0, 0, 0, 0, 0, 0, 0]\nclass = 1", fillcolor="#e2e539"] ;
96 -> 100 ;
101 [label="acousticness <= 0.958\ngini = 0.448\nsamples = 109\nvalue = [0, 72, 0, 37, 0, 0, 0, 0, 0, 0]\nclass = 1", fillcolor="#f1f29f"] ;
95 -> 101 ;
102 [label="danceability <= 0.082\ngini = 0.172\nsamples = 42\nvalue = [0, 38, 0, 4, 0, 0, 0, 0, 0, 0]\nclass = 1", fillcolor="#e5e84e"] ;
101 -> 102 ;
103 [label="tempo <= 69.447\ngini = 0.444\nsamples = 3\nvalue = [0, 1, 0, 2, 0, 0, 0, 0, 0, 0]\nclass = 3", fillcolor="#9cf2ae"] ;
102 -> 103 ;
104 [label="gini = 0.0\nsamples = 1\nvalue = [0, 1, 0, 0, 0, 0, 0, 0, 0, 0]\nclass = 1", fillcolor="#e2e539"] ;
103 -> 104 ;
105 [label="gini = 0.0\nsamples = 2\nvalue = [0, 0, 0, 2, 0, 0, 0, 0, 0, 0]\nclass = 3", fillcolor="#39e55e"] ;
103 -> 105 ;
106 [label="duration_ms <= 260828.5\ngini = 0.097\nsamples = 39\nvalue = [0, 37, 0, 2, 0, 0, 0, 0, 0, 0]\nclass = 1", fillcolor="#e4e644"] ;
102 -> 106 ;
107 [label="gini = 0.0\nsamples = 32\nvalue = [0, 32, 0, 0, 0, 0, 0, 0, 0, 0]\nclass = 1", fillcolor="#e2e539"] ;
106 -> 107 ;
108 [label="speechiness <= 0.039\ngini = 0.408\nsamples = 7\nvalue = [0, 5, 0, 2, 0, 0, 0, 0, 0, 0]\nclass = 1", fillcolor="#eeef88"] ;
106 -> 108 ;
109 [label="gini = 0.0\nsamples = 5\nvalue = [0, 5, 0, 0, 0, 0, 0, 0, 0, 0]\nclass = 1", fillcolor="#e2e539"] ;
108 -> 109 ;
110 [label="gini = 0.0\nsamples = 2\nvalue = [0, 0, 0, 2, 0, 0, 0, 0, 0, 0]\nclass = 3", fillcolor="#39e55e"] ;
108 -> 110 ;
111 [label="instrumentalness <= 0.7\ngini = 0.5\nsamples = 67\nvalue = [0, 34, 0, 33, 0, 0, 0, 0, 0, 0]\nclass = 1", fillcolor="#fefef9"] ;
101 -> 111 ;
112 [label="instrumentalness <= 0.034\ngini = 0.397\nsamples = 22\nvalue = [0, 6, 0, 16, 0, 0, 0, 0, 0, 0]\nclass = 3", fillcolor="#83ef9a"] ;
111 -> 112 ;
113 [label="gini = 0.0\nsamples = 2\nvalue = [0, 2, 0, 0, 0, 0, 0, 0, 0, 0]\nclass = 1", fillcolor="#e2e539"] ;
112 -> 113 ;
114 [label="acousticness <= 0.982\ngini = 0.32\nsamples = 20\nvalue = [0, 4, 0, 16, 0, 0, 0, 0, 0, 0]\nclass = 3", fillcolor="#6aec86"] ;
112 -> 114 ;
115 [label="mode <= 0.5\ngini = 0.5\nsamples = 6\nvalue = [0, 3, 0, 3, 0, 0, 0, 0, 0, 0]\nclass = 1", fillcolor="#ffffff"] ;
114 -> 115 ;
116 [label="gini = 0.0\nsamples = 2\nvalue = [0, 2, 0, 0, 0, 0, 0, 0, 0, 0]\nclass = 1", fillcolor="#e2e539"] ;
115 -> 116 ;
117 [label="energy <= 0.025\ngini = 0.375\nsamples = 4\nvalue = [0, 1, 0, 3, 0, 0, 0, 0, 0, 0]\nclass = 3", fillcolor="#7bee94"] ;
115 -> 117 ;
118 [label="gini = 0.0\nsamples = 1\nvalue = [0, 1, 0, 0, 0, 0, 0, 0, 0, 0]\nclass = 1", fillcolor="#e2e539"] ;
117 -> 118 ;
119 [label="gini = 0.0\nsamples = 3\nvalue = [0, 0, 0, 3, 0, 0, 0, 0, 0, 0]\nclass = 3", fillcolor="#39e55e"] ;
117 -> 119 ;
120 [label="key <= 1.5\ngini = 0.133\nsamples = 14\nvalue = [0, 1, 0, 13, 0, 0, 0, 0, 0, 0]\nclass = 3", fillcolor="#48e76a"] ;
114 -> 120 ;
121 [label="gini = 0.0\nsamples = 1\nvalue = [0, 1, 0, 0, 0, 0, 0, 0, 0, 0]\nclass = 1", fillcolor="#e2e539"] ;
120 -> 121 ;
122 [label="gini = 0.0\nsamples = 13\nvalue = [0, 0, 0, 13, 0, 0, 0, 0, 0, 0]\nclass = 3", fillcolor="#39e55e"] ;
120 -> 122 ;
123 [label="loudness <= -31.076\ngini = 0.47\nsamples = 45\nvalue = [0, 28, 0, 17, 0, 0, 0, 0, 0, 0]\nclass = 1", fillcolor="#f4f5b1"] ;
111 -> 123 ;
124 [label="gini = 0.0\nsamples = 4\nvalue = [0, 0, 0, 4, 0, 0, 0, 0, 0, 0]\nclass = 3", fillcolor="#39e55e"] ;
123 -> 124 ;
125 [label="key <= 8.5\ngini = 0.433\nsamples = 41\nvalue = [0, 28, 0, 13, 0, 0, 0, 0, 0, 0]\nclass = 1", fillcolor="#eff195"] ;
123 -> 125 ;
126 [label="energy <= 0.114\ngini = 0.312\nsamples = 31\nvalue = [0, 25, 0, 6, 0, 0, 0, 0, 0, 0]\nclass = 1", fillcolor="#e9eb69"] ;
125 -> 126 ;
127 [label="liveness <= 0.059\ngini = 0.095\nsamples = 20\nvalue = [0, 19, 0, 1, 0, 0, 0, 0, 0, 0]\nclass = 1", fillcolor="#e4e643"] ;
126 -> 127 ;
128 [label="gini = 0.0\nsamples = 1\nvalue = [0, 0, 0, 1, 0, 0, 0, 0, 0, 0]\nclass = 3", fillcolor="#39e55e"] ;
127 -> 128 ;
129 [label="gini = 0.0\nsamples = 19\nvalue = [0, 19, 0, 0, 0, 0, 0, 0, 0, 0]\nclass = 1", fillcolor="#e2e539"] ;
127 -> 129 ;
130 [label="tempo <= 86.145\ngini = 0.496\nsamples = 11\nvalue = [0, 6, 0, 5, 0, 0, 0, 0, 0, 0]\nclass = 1", fillcolor="#fafbde"] ;
126 -> 130 ;
131 [label="gini = 0.0\nsamples = 4\nvalue = [0, 0, 0, 4, 0, 0, 0, 0, 0, 0]\nclass = 3", fillcolor="#39e55e"] ;
130 -> 131 ;
132 [label="popularity <= 19.5\ngini = 0.245\nsamples = 7\nvalue = [0, 6, 0, 1, 0, 0, 0, 0, 0, 0]\nclass = 1", fillcolor="#e7e95a"] ;
130 -> 132 ;
133 [label="gini = 0.0\nsamples = 6\nvalue = [0, 6, 0, 0, 0, 0, 0, 0, 0, 0]\nclass = 1", fillcolor="#e2e539"] ;
132 -> 133 ;
134 [label="gini = 0.0\nsamples = 1\nvalue = [0, 0, 0, 1, 0, 0, 0, 0, 0, 0]\nclass = 3", fillcolor="#39e55e"] ;
132 -> 134 ;
135 [label="liveness <= 0.104\ngini = 0.42\nsamples = 10\nvalue = [0, 3, 0, 7, 0, 0, 0, 0, 0, 0]\nclass = 3", fillcolor="#8ef0a3"] ;
125 -> 135 ;
136 [label="loudness <= -26.47\ngini = 0.375\nsamples = 4\nvalue = [0, 3, 0, 1, 0, 0, 0, 0, 0, 0]\nclass = 1", fillcolor="#ecee7b"] ;
135 -> 136 ;
137 [label="gini = 0.0\nsamples = 1\nvalue = [0, 0, 0, 1, 0, 0, 0, 0, 0, 0]\nclass = 3", fillcolor="#39e55e"] ;
136 -> 137 ;
138 [label="gini = 0.0\nsamples = 3\nvalue = [0, 3, 0, 0, 0, 0, 0, 0, 0, 0]\nclass = 1", fillcolor="#e2e539"] ;
136 -> 138 ;
139 [label="gini = 0.0\nsamples = 6\nvalue = [0, 0, 0, 6, 0, 0, 0, 0, 0, 0]\nclass = 3", fillcolor="#39e55e"] ;
135 -> 139 ;
140 [label="acousticness <= 0.988\ngini = 0.077\nsamples = 25\nvalue = [0, 1, 0, 24, 0, 0, 0, 0, 0, 0]\nclass = 3", fillcolor="#41e665"] ;
94 -> 140 ;
141 [label="gini = 0.0\nsamples = 22\nvalue = [0, 0, 0, 22, 0, 0, 0, 0, 0, 0]\nclass = 3", fillcolor="#39e55e"] ;
140 -> 141 ;
142 [label="instrumentalness <= 0.894\ngini = 0.444\nsamples = 3\nvalue = [0, 1, 0, 2, 0, 0, 0, 0, 0, 0]\nclass = 3", fillcolor="#9cf2ae"] ;
140 -> 142 ;
143 [label="gini = 0.0\nsamples = 2\nvalue = [0, 0, 0, 2, 0, 0, 0, 0, 0, 0]\nclass = 3", fillcolor="#39e55e"] ;
142 -> 143 ;
144 [label="gini = 0.0\nsamples = 1\nvalue = [0, 1, 0, 0, 0, 0, 0, 0, 0, 0]\nclass = 1", fillcolor="#e2e539"] ;
142 -> 144 ;
145 [label="instrumentalness <= 0.954\ngini = 0.239\nsamples = 220\nvalue = [0, 27, 3, 190, 0, 0, 0, 0, 0, 0]\nclass = 3", fillcolor="#58e977"] ;
93 -> 145 ;
146 [label="duration_ms <= 170473.0\ngini = 0.204\nsamples = 212\nvalue = [0, 21, 3, 188, 0, 0, 0, 0, 0, 0]\nclass = 3", fillcolor="#52e872"] ;
145 -> 146 ;
147 [label="loudness <= -22.667\ngini = 0.467\nsamples = 38\nvalue = [0, 12, 1, 25, 0, 0, 0, 0, 0, 0]\nclass = 3", fillcolor="#9cf2ae"] ;
146 -> 147 ;
148 [label="duration_ms <= 47293.5\ngini = 0.1\nsamples = 19\nvalue = [0, 1, 0, 18, 0, 0, 0, 0, 0, 0]\nclass = 3", fillcolor="#44e667"] ;
147 -> 148 ;
149 [label="gini = 0.0\nsamples = 1\nvalue = [0, 1, 0, 0, 0, 0, 0, 0, 0, 0]\nclass = 1", fillcolor="#e2e539"] ;
148 -> 149 ;
150 [label="gini = 0.0\nsamples = 18\nvalue = [0, 0, 0, 18, 0, 0, 0, 0, 0, 0]\nclass = 3", fillcolor="#39e55e"] ;
148 -> 150 ;
151 [label="speechiness <= 0.037\ngini = 0.526\nsamples = 19\nvalue = [0, 11, 1, 7, 0, 0, 0, 0, 0, 0]\nclass = 1", fillcolor="#f5f6bd"] ;
147 -> 151 ;
152 [label="acousticness <= 0.938\ngini = 0.494\nsamples = 9\nvalue = [0, 2, 1, 6, 0, 0, 0, 0, 0, 0]\nclass = 3", fillcolor="#8ef0a3"] ;
151 -> 152 ;
153 [label="valence <= 0.24\ngini = 0.444\nsamples = 3\nvalue = [0, 2, 1, 0, 0, 0, 0, 0, 0, 0]\nclass = 1", fillcolor="#f0f29c"] ;
152 -> 153 ;
154 [label="gini = 0.0\nsamples = 2\nvalue = [0, 2, 0, 0, 0, 0, 0, 0, 0, 0]\nclass = 1", fillcolor="#e2e539"] ;
153 -> 154 ;
155 [label="gini = 0.0\nsamples = 1\nvalue = [0, 0, 1, 0, 0, 0, 0, 0, 0, 0]\nclass = 2", fillcolor="#7be539"] ;
153 -> 155 ;
156 [label="gini = 0.0\nsamples = 6\nvalue = [0, 0, 0, 6, 0, 0, 0, 0, 0, 0]\nclass = 3", fillcolor="#39e55e"] ;
152 -> 156 ;
157 [label="duration_ms <= 76853.0\ngini = 0.18\nsamples = 10\nvalue = [0, 9, 0, 1, 0, 0, 0, 0, 0, 0]\nclass = 1", fillcolor="#e5e84f"] ;
151 -> 157 ;
158 [label="gini = 0.0\nsamples = 1\nvalue = [0, 0, 0, 1, 0, 0, 0, 0, 0, 0]\nclass = 3", fillcolor="#39e55e"] ;
157 -> 158 ;
159 [label="gini = 0.0\nsamples = 9\nvalue = [0, 9, 0, 0, 0, 0, 0, 0, 0, 0]\nclass = 1", fillcolor="#e2e539"] ;
157 -> 159 ;
160 [label="tempo <= 180.042\ngini = 0.12\nsamples = 174\nvalue = [0, 9, 2, 163, 0, 0, 0, 0, 0, 0]\nclass = 3", fillcolor="#46e769"] ;
146 -> 160 ;
161 [label="energy <= 0.17\ngini = 0.11\nsamples = 173\nvalue = [0, 9, 1, 163, 0, 0, 0, 0, 0, 0]\nclass = 3", fillcolor="#45e768"] ;
160 -> 161 ;
162 [label="liveness <= 0.087\ngini = 0.077\nsamples = 151\nvalue = [0, 5, 1, 145, 0, 0, 0, 0, 0, 0]\nclass = 3", fillcolor="#41e665"] ;
161 -> 162 ;
163 [label="liveness <= 0.086\ngini = 0.194\nsamples = 47\nvalue = [0, 4, 1, 42, 0, 0, 0, 0, 0, 0]\nclass = 3", fillcolor="#50e871"] ;
162 -> 163 ;
164 [label="instrumentalness <= 0.001\ngini = 0.162\nsamples = 46\nvalue = [0, 3, 1, 42, 0, 0, 0, 0, 0, 0]\nclass = 3", fillcolor="#4be76d"] ;
163 -> 164 ;
165 [label="mode <= 0.5\ngini = 0.5\nsamples = 2\nvalue = [0, 0, 1, 1, 0, 0, 0, 0, 0, 0]\nclass = 2", fillcolor="#ffffff"] ;
164 -> 165 ;
166 [label="gini = 0.0\nsamples = 1\nvalue = [0, 0, 0, 1, 0, 0, 0, 0, 0, 0]\nclass = 3", fillcolor="#39e55e"] ;
165 -> 166 ;
167 [label="gini = 0.0\nsamples = 1\nvalue = [0, 0, 1, 0, 0, 0, 0, 0, 0, 0]\nclass = 2", fillcolor="#7be539"] ;
165 -> 167 ;
168 [label="danceability <= 0.218\ngini = 0.127\nsamples = 44\nvalue = [0, 3, 0, 41, 0, 0, 0, 0, 0, 0]\nclass = 3", fillcolor="#47e76a"] ;
164 -> 168 ;
169 [label="popularity <= 22.5\ngini = 0.291\nsamples = 17\nvalue = [0, 3, 0, 14, 0, 0, 0, 0, 0, 0]\nclass = 3", fillcolor="#63eb80"] ;
168 -> 169 ;
170 [label="gini = 0.0\nsamples = 1\nvalue = [0, 1, 0, 0, 0, 0, 0, 0, 0, 0]\nclass = 1", fillcolor="#e2e539"] ;
169 -> 170 ;
171 [label="danceability <= 0.209\ngini = 0.219\nsamples = 16\nvalue = [0, 2, 0, 14, 0, 0, 0, 0, 0, 0]\nclass = 3", fillcolor="#55e975"] ;
169 -> 171 ;
172 [label="loudness <= -29.445\ngini = 0.124\nsamples = 15\nvalue = [0, 1, 0, 14, 0, 0, 0, 0, 0, 0]\nclass = 3", fillcolor="#47e76a"] ;
171 -> 172 ;
173 [label="valence <= 0.034\ngini = 0.444\nsamples = 3\nvalue = [0, 1, 0, 2, 0, 0, 0, 0, 0, 0]\nclass = 3", fillcolor="#9cf2ae"] ;
172 -> 173 ;
174 [label="gini = 0.0\nsamples = 1\nvalue = [0, 1, 0, 0, 0, 0, 0, 0, 0, 0]\nclass = 1", fillcolor="#e2e539"] ;
173 -> 174 ;
175 [label="gini = 0.0\nsamples = 2\nvalue = [0, 0, 0, 2, 0, 0, 0, 0, 0, 0]\nclass = 3", fillcolor="#39e55e"] ;
173 -> 175 ;
176 [label="gini = 0.0\nsamples = 12\nvalue = [0, 0, 0, 12, 0, 0, 0, 0, 0, 0]\nclass = 3", fillcolor="#39e55e"] ;
172 -> 176 ;
177 [label="gini = 0.0\nsamples = 1\nvalue = [0, 1, 0, 0, 0, 0, 0, 0, 0, 0]\nclass = 1", fillcolor="#e2e539"] ;
171 -> 177 ;
178 [label="gini = 0.0\nsamples = 27\nvalue = [0, 0, 0, 27, 0, 0, 0, 0, 0, 0]\nclass = 3", fillcolor="#39e55e"] ;
168 -> 178 ;
179 [label="gini = 0.0\nsamples = 1\nvalue = [0, 1, 0, 0, 0, 0, 0, 0, 0, 0]\nclass = 1", fillcolor="#e2e539"] ;
163 -> 179 ;
180 [label="loudness <= -18.466\ngini = 0.019\nsamples = 104\nvalue = [0, 1, 0, 103, 0, 0, 0, 0, 0, 0]\nclass = 3", fillcolor="#3be560"] ;
162 -> 180 ;
181 [label="gini = 0.0\nsamples = 98\nvalue = [0, 0, 0, 98, 0, 0, 0, 0, 0, 0]\nclass = 3", fillcolor="#39e55e"] ;
180 -> 181 ;
182 [label="instrumentalness <= 0.848\ngini = 0.278\nsamples = 6\nvalue = [0, 1, 0, 5, 0, 0, 0, 0, 0, 0]\nclass = 3", fillcolor="#61ea7e"] ;
180 -> 182 ;
183 [label="gini = 0.0\nsamples = 5\nvalue = [0, 0, 0, 5, 0, 0, 0, 0, 0, 0]\nclass = 3", fillcolor="#39e55e"] ;
182 -> 183 ;
184 [label="gini = 0.0\nsamples = 1\nvalue = [0, 1, 0, 0, 0, 0, 0, 0, 0, 0]\nclass = 1", fillcolor="#e2e539"] ;
182 -> 184 ;
185 [label="instrumentalness <= 0.923\ngini = 0.298\nsamples = 22\nvalue = [0, 4, 0, 18, 0, 0, 0, 0, 0, 0]\nclass = 3", fillcolor="#65eb82"] ;
161 -> 185 ;
186 [label="valence <= 0.267\ngini = 0.188\nsamples = 19\nvalue = [0, 2, 0, 17, 0, 0, 0, 0, 0, 0]\nclass = 3", fillcolor="#50e871"] ;
185 -> 186 ;
187 [label="gini = 0.0\nsamples = 13\nvalue = [0, 0, 0, 13, 0, 0, 0, 0, 0, 0]\nclass = 3", fillcolor="#39e55e"] ;
186 -> 187 ;
188 [label="valence <= 0.346\ngini = 0.444\nsamples = 6\nvalue = [0, 2, 0, 4, 0, 0, 0, 0, 0, 0]\nclass = 3", fillcolor="#9cf2ae"] ;
186 -> 188 ;
189 [label="gini = 0.0\nsamples = 2\nvalue = [0, 2, 0, 0, 0, 0, 0, 0, 0, 0]\nclass = 1", fillcolor="#e2e539"] ;
188 -> 189 ;
190 [label="gini = 0.0\nsamples = 4\nvalue = [0, 0, 0, 4, 0, 0, 0, 0, 0, 0]\nclass = 3", fillcolor="#39e55e"] ;
188 -> 190 ;
191 [label="danceability <= 0.284\ngini = 0.444\nsamples = 3\nvalue = [0, 2, 0, 1, 0, 0, 0, 0, 0, 0]\nclass = 1", fillcolor="#f0f29c"] ;
185 -> 191 ;
192 [label="gini = 0.0\nsamples = 2\nvalue = [0, 2, 0, 0, 0, 0, 0, 0, 0, 0]\nclass = 1", fillcolor="#e2e539"] ;
191 -> 192 ;
193 [label="gini = 0.0\nsamples = 1\nvalue = [0, 0, 0, 1, 0, 0, 0, 0, 0, 0]\nclass = 3", fillcolor="#39e55e"] ;
191 -> 193 ;
194 [label="gini = 0.0\nsamples = 1\nvalue = [0, 0, 1, 0, 0, 0, 0, 0, 0, 0]\nclass = 2", fillcolor="#7be539"] ;
160 -> 194 ;
195 [label="mode <= 0.5\ngini = 0.375\nsamples = 8\nvalue = [0, 6, 0, 2, 0, 0, 0, 0, 0, 0]\nclass = 1", fillcolor="#ecee7b"] ;
145 -> 195 ;
196 [label="gini = 0.0\nsamples = 5\nvalue = [0, 5, 0, 0, 0, 0, 0, 0, 0, 0]\nclass = 1", fillcolor="#e2e539"] ;
195 -> 196 ;
197 [label="energy <= 0.04\ngini = 0.444\nsamples = 3\nvalue = [0, 1, 0, 2, 0, 0, 0, 0, 0, 0]\nclass = 3", fillcolor="#9cf2ae"] ;
195 -> 197 ;
198 [label="gini = 0.0\nsamples = 1\nvalue = [0, 1, 0, 0, 0, 0, 0, 0, 0, 0]\nclass = 1", fillcolor="#e2e539"] ;
197 -> 198 ;
199 [label="gini = 0.0\nsamples = 2\nvalue = [0, 0, 0, 2, 0, 0, 0, 0, 0, 0]\nclass = 3", fillcolor="#39e55e"] ;
197 -> 199 ;
200 [label="energy <= 0.329\ngini = 0.126\nsamples = 1167\nvalue = [0, 30, 3, 1090, 0, 2, 0, 42, 0, 0]\nclass = 3", fillcolor="#47e769"] ;
84 -> 200 ;
201 [label="liveness <= 0.933\ngini = 0.118\nsamples = 1162\nvalue = [0, 29, 3, 1090, 0, 1, 0, 39, 0, 0]\nclass = 3", fillcolor="#46e768"] ;
200 -> 201 ;
202 [label="loudness <= -22.314\ngini = 0.115\nsamples = 1160\nvalue = [0, 27, 3, 1090, 0, 1, 0, 39, 0, 0]\nclass = 3", fillcolor="#45e768"] ;
201 -> 202 ;
203 [label="liveness <= 0.365\ngini = 0.054\nsamples = 765\nvalue = [0, 8, 1, 744, 0, 1, 0, 11, 0, 0]\nclass = 3", fillcolor="#3fe662"] ;
202 -> 203 ;
204 [label="speechiness <= 0.036\ngini = 0.045\nsamples = 747\nvalue = [0, 7, 0, 730, 0, 1, 0, 9, 0, 0]\nclass = 3", fillcolor="#3ee662"] ;
203 -> 204 ;
205 [label="danceability <= 0.115\ngini = 0.195\nsamples = 56\nvalue = [0, 1, 0, 50, 0, 0, 0, 5, 0, 0]\nclass = 3", fillcolor="#50e871"] ;
204 -> 205 ;
206 [label="gini = 0.0\nsamples = 1\nvalue = [0, 1, 0, 0, 0, 0, 0, 0, 0, 0]\nclass = 1", fillcolor="#e2e539"] ;
205 -> 206 ;
207 [label="liveness <= 0.083\ngini = 0.165\nsamples = 55\nvalue = [0, 0, 0, 50, 0, 0, 0, 5, 0, 0]\nclass = 3", fillcolor="#4de86e"] ;
205 -> 207 ;
208 [label="danceability <= 0.309\ngini = 0.469\nsamples = 8\nvalue = [0, 0, 0, 5, 0, 0, 0, 3, 0, 0]\nclass = 3", fillcolor="#b0f5bf"] ;
207 -> 208 ;
209 [label="gini = 0.0\nsamples = 5\nvalue = [0, 0, 0, 5, 0, 0, 0, 0, 0, 0]\nclass = 3", fillcolor="#39e55e"] ;
208 -> 209 ;
210 [label="gini = 0.0\nsamples = 3\nvalue = [0, 0, 0, 0, 0, 0, 0, 3, 0, 0]\nclass = 7", fillcolor="#a339e5"] ;
208 -> 210 ;
211 [label="speechiness <= 0.036\ngini = 0.081\nsamples = 47\nvalue = [0, 0, 0, 45, 0, 0, 0, 2, 0, 0]\nclass = 3", fillcolor="#42e665"] ;
207 -> 211 ;
212 [label="popularity <= 37.5\ngini = 0.043\nsamples = 46\nvalue = [0, 0, 0, 45, 0, 0, 0, 1, 0, 0]\nclass = 3", fillcolor="#3de662"] ;
211 -> 212 ;
213 [label="gini = 0.0\nsamples = 34\nvalue = [0, 0, 0, 34, 0, 0, 0, 0, 0, 0]\nclass = 3", fillcolor="#39e55e"] ;
212 -> 213 ;
214 [label="duration_ms <= 380760.0\ngini = 0.153\nsamples = 12\nvalue = [0, 0, 0, 11, 0, 0, 0, 1, 0, 0]\nclass = 3", fillcolor="#4be76d"] ;
212 -> 214 ;
215 [label="gini = 0.0\nsamples = 10\nvalue = [0, 0, 0, 10, 0, 0, 0, 0, 0, 0]\nclass = 3", fillcolor="#39e55e"] ;
214 -> 215 ;
216 [label="valence <= 0.103\ngini = 0.5\nsamples = 2\nvalue = [0, 0, 0, 1, 0, 0, 0, 1, 0, 0]\nclass = 3", fillcolor="#ffffff"] ;
214 -> 216 ;
217 [label="gini = 0.0\nsamples = 1\nvalue = [0, 0, 0, 0, 0, 0, 0, 1, 0, 0]\nclass = 7", fillcolor="#a339e5"] ;
216 -> 217 ;
218 [label="gini = 0.0\nsamples = 1\nvalue = [0, 0, 0, 1, 0, 0, 0, 0, 0, 0]\nclass = 3", fillcolor="#39e55e"] ;
216 -> 218 ;
219 [label="gini = 0.0\nsamples = 1\nvalue = [0, 0, 0, 0, 0, 0, 0, 1, 0, 0]\nclass = 7", fillcolor="#a339e5"] ;
211 -> 219 ;
220 [label="energy <= 0.177\ngini = 0.031\nsamples = 691\nvalue = [0, 6, 0, 680, 0, 1, 0, 4, 0, 0]\nclass = 3", fillcolor="#3ce561"] ;
204 -> 220 ;
221 [label="speechiness <= 0.098\ngini = 0.026\nsamples = 682\nvalue = [0, 4, 0, 673, 0, 1, 0, 4, 0, 0]\nclass = 3", fillcolor="#3ce560"] ;
220 -> 221 ;
222 [label="danceability <= 0.065\ngini = 0.023\nsamples = 679\nvalue = [0, 3, 0, 671, 0, 1, 0, 4, 0, 0]\nclass = 3", fillcolor="#3be560"] ;
221 -> 222 ;
223 [label="liveness <= 0.112\ngini = 0.32\nsamples = 5\nvalue = [0, 0, 0, 4, 0, 0, 0, 1, 0, 0]\nclass = 3", fillcolor="#6aec86"] ;
222 -> 223 ;
224 [label="gini = 0.0\nsamples = 1\nvalue = [0, 0, 0, 0, 0, 0, 0, 1, 0, 0]\nclass = 7", fillcolor="#a339e5"] ;
223 -> 224 ;
225 [label="gini = 0.0\nsamples = 4\nvalue = [0, 0, 0, 4, 0, 0, 0, 0, 0, 0]\nclass = 3", fillcolor="#39e55e"] ;
223 -> 225 ;
226 [label="danceability <= 0.363\ngini = 0.021\nsamples = 674\nvalue = [0, 3, 0, 667, 0, 1, 0, 3, 0, 0]\nclass = 3", fillcolor="#3be560"] ;
222 -> 226 ;
227 [label="instrumentalness <= 0.971\ngini = 0.015\nsamples = 653\nvalue = [0, 3, 0, 648, 0, 1, 0, 1, 0, 0]\nclass = 3", fillcolor="#3be55f"] ;
226 -> 227 ;
228 [label="energy <= 0.135\ngini = 0.012\nsamples = 647\nvalue = [0, 2, 0, 643, 0, 1, 0, 1, 0, 0]\nclass = 3", fillcolor="#3ae55f"] ;
227 -> 228 ;
229 [label="popularity <= 28.5\ngini = 0.009\nsamples = 638\nvalue = [0, 2, 0, 635, 0, 0, 0, 1, 0, 0]\nclass = 3", fillcolor="#3ae55f"] ;
228 -> 229 ;
230 [label="danceability <= 0.088\ngini = 0.053\nsamples = 74\nvalue = [0, 2, 0, 72, 0, 0, 0, 0, 0, 0]\nclass = 3", fillcolor="#3ee662"] ;
229 -> 230 ;
231 [label="energy <= 0.04\ngini = 0.444\nsamples = 3\nvalue = [0, 1, 0, 2, 0, 0, 0, 0, 0, 0]\nclass = 3", fillcolor="#9cf2ae"] ;
230 -> 231 ;
232 [label="gini = 0.0\nsamples = 2\nvalue = [0, 0, 0, 2, 0, 0, 0, 0, 0, 0]\nclass = 3", fillcolor="#39e55e"] ;
231 -> 232 ;
233 [label="gini = 0.0\nsamples = 1\nvalue = [0, 1, 0, 0, 0, 0, 0, 0, 0, 0]\nclass = 1", fillcolor="#e2e539"] ;
231 -> 233 ;
234 [label="liveness <= 0.142\ngini = 0.028\nsamples = 71\nvalue = [0, 1, 0, 70, 0, 0, 0, 0, 0, 0]\nclass = 3", fillcolor="#3ce560"] ;
230 -> 234 ;
235 [label="gini = 0.0\nsamples = 62\nvalue = [0, 0, 0, 62, 0, 0, 0, 0, 0, 0]\nclass = 3", fillcolor="#39e55e"] ;
234 -> 235 ;
236 [label="tempo <= 72.866\ngini = 0.198\nsamples = 9\nvalue = [0, 1, 0, 8, 0, 0, 0, 0, 0, 0]\nclass = 3", fillcolor="#52e872"] ;
234 -> 236 ;
237 [label="gini = 0.0\nsamples = 1\nvalue = [0, 1, 0, 0, 0, 0, 0, 0, 0, 0]\nclass = 1", fillcolor="#e2e539"] ;
236 -> 237 ;
238 [label="gini = 0.0\nsamples = 8\nvalue = [0, 0, 0, 8, 0, 0, 0, 0, 0, 0]\nclass = 3", fillcolor="#39e55e"] ;
236 -> 238 ;
239 [label="loudness <= -23.637\ngini = 0.004\nsamples = 564\nvalue = [0, 0, 0, 563, 0, 0, 0, 1, 0, 0]\nclass = 3", fillcolor="#39e55e"] ;
229 -> 239 ;
240 [label="gini = 0.0\nsamples = 477\nvalue = [0, 0, 0, 477, 0, 0, 0, 0, 0, 0]\nclass = 3", fillcolor="#39e55e"] ;
239 -> 240 ;
241 [label="loudness <= -23.627\ngini = 0.023\nsamples = 87\nvalue = [0, 0, 0, 86, 0, 0, 0, 1, 0, 0]\nclass = 3", fillcolor="#3be560"] ;
239 -> 241 ;
242 [label="gini = 0.0\nsamples = 1\nvalue = [0, 0, 0, 0, 0, 0, 0, 1, 0, 0]\nclass = 7", fillcolor="#a339e5"] ;
241 -> 242 ;
243 [label="gini = 0.0\nsamples = 86\nvalue = [0, 0, 0, 86, 0, 0, 0, 0, 0, 0]\nclass = 3", fillcolor="#39e55e"] ;
241 -> 243 ;
244 [label="instrumentalness <= 0.831\ngini = 0.198\nsamples = 9\nvalue = [0, 0, 0, 8, 0, 1, 0, 0, 0, 0]\nclass = 3", fillcolor="#52e872"] ;
228 -> 244 ;
245 [label="gini = 0.0\nsamples = 1\nvalue = [0, 0, 0, 0, 0, 1, 0, 0, 0, 0]\nclass = 5", fillcolor="#399de5"] ;
244 -> 245 ;
246 [label="gini = 0.0\nsamples = 8\nvalue = [0, 0, 0, 8, 0, 0, 0, 0, 0, 0]\nclass = 3", fillcolor="#39e55e"] ;
244 -> 246 ;
247 [label="popularity <= 30.0\ngini = 0.278\nsamples = 6\nvalue = [0, 1, 0, 5, 0, 0, 0, 0, 0, 0]\nclass = 3", fillcolor="#61ea7e"] ;
227 -> 247 ;
248 [label="gini = 0.0\nsamples = 1\nvalue = [0, 1, 0, 0, 0, 0, 0, 0, 0, 0]\nclass = 1", fillcolor="#e2e539"] ;
247 -> 248 ;
249 [label="gini = 0.0\nsamples = 5\nvalue = [0, 0, 0, 5, 0, 0, 0, 0, 0, 0]\nclass = 3", fillcolor="#39e55e"] ;
247 -> 249 ;
250 [label="danceability <= 0.365\ngini = 0.172\nsamples = 21\nvalue = [0, 0, 0, 19, 0, 0, 0, 2, 0, 0]\nclass = 3", fillcolor="#4ee86f"] ;
226 -> 250 ;
251 [label="liveness <= 0.086\ngini = 0.444\nsamples = 3\nvalue = [0, 0, 0, 1, 0, 0, 0, 2, 0, 0]\nclass = 7", fillcolor="#d19cf2"] ;
250 -> 251 ;
252 [label="gini = 0.0\nsamples = 1\nvalue = [0, 0, 0, 1, 0, 0, 0, 0, 0, 0]\nclass = 3", fillcolor="#39e55e"] ;
251 -> 252 ;
253 [label="gini = 0.0\nsamples = 2\nvalue = [0, 0, 0, 0, 0, 0, 0, 2, 0, 0]\nclass = 7", fillcolor="#a339e5"] ;
251 -> 253 ;
254 [label="gini = 0.0\nsamples = 18\nvalue = [0, 0, 0, 18, 0, 0, 0, 0, 0, 0]\nclass = 3", fillcolor="#39e55e"] ;
250 -> 254 ;
255 [label="tempo <= 95.714\ngini = 0.444\nsamples = 3\nvalue = [0, 1, 0, 2, 0, 0, 0, 0, 0, 0]\nclass = 3", fillcolor="#9cf2ae"] ;
221 -> 255 ;
256 [label="gini = 0.0\nsamples = 2\nvalue = [0, 0, 0, 2, 0, 0, 0, 0, 0, 0]\nclass = 3", fillcolor="#39e55e"] ;
255 -> 256 ;
257 [label="gini = 0.0\nsamples = 1\nvalue = [0, 1, 0, 0, 0, 0, 0, 0, 0, 0]\nclass = 1", fillcolor="#e2e539"] ;
255 -> 257 ;
258 [label="tempo <= 94.891\ngini = 0.346\nsamples = 9\nvalue = [0, 2, 0, 7, 0, 0, 0, 0, 0, 0]\nclass = 3", fillcolor="#72ec8c"] ;
220 -> 258 ;
259 [label="gini = 0.0\nsamples = 2\nvalue = [0, 2, 0, 0, 0, 0, 0, 0, 0, 0]\nclass = 1", fillcolor="#e2e539"] ;
258 -> 259 ;
260 [label="gini = 0.0\nsamples = 7\nvalue = [0, 0, 0, 7, 0, 0, 0, 0, 0, 0]\nclass = 3", fillcolor="#39e55e"] ;
258 -> 260 ;
261 [label="valence <= 0.209\ngini = 0.377\nsamples = 18\nvalue = [0, 1, 1, 14, 0, 0, 0, 2, 0, 0]\nclass = 3", fillcolor="#6aec86"] ;
203 -> 261 ;
262 [label="gini = 0.0\nsamples = 13\nvalue = [0, 0, 0, 13, 0, 0, 0, 0, 0, 0]\nclass = 3", fillcolor="#39e55e"] ;
261 -> 262 ;
263 [label="popularity <= 32.0\ngini = 0.72\nsamples = 5\nvalue = [0, 1, 1, 1, 0, 0, 0, 2, 0, 0]\nclass = 7", fillcolor="#e8cef8"] ;
261 -> 263 ;
264 [label="valence <= 0.241\ngini = 0.667\nsamples = 3\nvalue = [0, 1, 1, 1, 0, 0, 0, 0, 0, 0]\nclass = 1", fillcolor="#ffffff"] ;
263 -> 264 ;
265 [label="gini = 0.0\nsamples = 1\nvalue = [0, 0, 1, 0, 0, 0, 0, 0, 0, 0]\nclass = 2", fillcolor="#7be539"] ;
264 -> 265 ;
266 [label="acousticness <= 0.977\ngini = 0.5\nsamples = 2\nvalue = [0, 1, 0, 1, 0, 0, 0, 0, 0, 0]\nclass = 1", fillcolor="#ffffff"] ;
264 -> 266 ;
267 [label="gini = 0.0\nsamples = 1\nvalue = [0, 0, 0, 1, 0, 0, 0, 0, 0, 0]\nclass = 3", fillcolor="#39e55e"] ;
266 -> 267 ;
268 [label="gini = 0.0\nsamples = 1\nvalue = [0, 1, 0, 0, 0, 0, 0, 0, 0, 0]\nclass = 1", fillcolor="#e2e539"] ;
266 -> 268 ;
269 [label="gini = 0.0\nsamples = 2\nvalue = [0, 0, 0, 0, 0, 0, 0, 2, 0, 0]\nclass = 7", fillcolor="#a339e5"] ;
263 -> 269 ;
270 [label="energy <= 0.019\ngini = 0.225\nsamples = 395\nvalue = [0, 19, 2, 346, 0, 0, 0, 28, 0, 0]\nclass = 3", fillcolor="#53e873"] ;
202 -> 270 ;
271 [label="gini = 0.0\nsamples = 2\nvalue = [0, 0, 0, 0, 0, 0, 0, 2, 0, 0]\nclass = 7", fillcolor="#a339e5"] ;
270 -> 271 ;
272 [label="duration_ms <= 382853.5\ngini = 0.218\nsamples = 393\nvalue = [0, 19, 2, 346, 0, 0, 0, 26, 0, 0]\nclass = 3", fillcolor="#52e873"] ;
270 -> 272 ;
273 [label="liveness <= 0.685\ngini = 0.302\nsamples = 255\nvalue = [0, 19, 2, 211, 0, 0, 0, 23, 0, 0]\nclass = 3", fillcolor="#5fea7d"] ;
272 -> 273 ;
274 [label="tempo <= 176.97\ngini = 0.288\nsamples = 251\nvalue = [0, 19, 2, 210, 0, 0, 0, 20, 0, 0]\nclass = 3", fillcolor="#5cea7b"] ;
273 -> 274 ;
275 [label="loudness <= -22.259\ngini = 0.27\nsamples = 244\nvalue = [0, 18, 2, 207, 0, 0, 0, 17, 0, 0]\nclass = 3", fillcolor="#59e978"] ;
274 -> 275 ;
276 [label="acousticness <= 0.86\ngini = 0.5\nsamples = 2\nvalue = [0, 1, 0, 0, 0, 0, 0, 1, 0, 0]\nclass = 1", fillcolor="#ffffff"] ;
275 -> 276 ;
277 [label="gini = 0.0\nsamples = 1\nvalue = [0, 0, 0, 0, 0, 0, 0, 1, 0, 0]\nclass = 7", fillcolor="#a339e5"] ;
276 -> 277 ;
278 [label="gini = 0.0\nsamples = 1\nvalue = [0, 1, 0, 0, 0, 0, 0, 0, 0, 0]\nclass = 1", fillcolor="#e2e539"] ;
276 -> 278 ;
279 [label="popularity <= 30.5\ngini = 0.259\nsamples = 242\nvalue = [0, 17, 2, 207, 0, 0, 0, 16, 0, 0]\nclass = 3", fillcolor="#58e977"] ;
275 -> 279 ;
280 [label="acousticness <= 0.982\ngini = 0.358\nsamples = 63\nvalue = [0, 12, 0, 49, 0, 0, 0, 2, 0, 0]\nclass = 3", fillcolor="#6fec8a"] ;
279 -> 280 ;
281 [label="tempo <= 87.365\ngini = 0.478\nsamples = 41\nvalue = [0, 12, 0, 27, 0, 0, 0, 2, 0, 0]\nclass = 3", fillcolor="#99f2ac"] ;
280 -> 281 ;
282 [label="mode <= 0.5\ngini = 0.473\nsamples = 13\nvalue = [0, 8, 0, 5, 0, 0, 0, 0, 0, 0]\nclass = 1", fillcolor="#f4f5b5"] ;
281 -> 282 ;
283 [label="speechiness <= 0.039\ngini = 0.408\nsamples = 7\nvalue = [0, 2, 0, 5, 0, 0, 0, 0, 0, 0]\nclass = 3", fillcolor="#88ef9e"] ;
282 -> 283 ;
284 [label="duration_ms <= 351360.0\ngini = 0.444\nsamples = 3\nvalue = [0, 2, 0, 1, 0, 0, 0, 0, 0, 0]\nclass = 1", fillcolor="#f0f29c"] ;
283 -> 284 ;
285 [label="gini = 0.0\nsamples = 2\nvalue = [0, 2, 0, 0, 0, 0, 0, 0, 0, 0]\nclass = 1", fillcolor="#e2e539"] ;
284 -> 285 ;
286 [label="gini = 0.0\nsamples = 1\nvalue = [0, 0, 0, 1, 0, 0, 0, 0, 0, 0]\nclass = 3", fillcolor="#39e55e"] ;
284 -> 286 ;
287 [label="gini = 0.0\nsamples = 4\nvalue = [0, 0, 0, 4, 0, 0, 0, 0, 0, 0]\nclass = 3", fillcolor="#39e55e"] ;
283 -> 287 ;
288 [label="gini = 0.0\nsamples = 6\nvalue = [0, 6, 0, 0, 0, 0, 0, 0, 0, 0]\nclass = 1", fillcolor="#e2e539"] ;
282 -> 288 ;
289 [label="energy <= 0.096\ngini = 0.357\nsamples = 28\nvalue = [0, 4, 0, 22, 0, 0, 0, 2, 0, 0]\nclass = 3", fillcolor="#6bec86"] ;
281 -> 289 ;
290 [label="speechiness <= 0.042\ngini = 0.64\nsamples = 5\nvalue = [0, 1, 0, 2, 0, 0, 0, 2, 0, 0]\nclass = 3", fillcolor="#ffffff"] ;
289 -> 290 ;
291 [label="speechiness <= 0.036\ngini = 0.444\nsamples = 3\nvalue = [0, 1, 0, 0, 0, 0, 0, 2, 0, 0]\nclass = 7", fillcolor="#d19cf2"] ;
290 -> 291 ;
292 [label="gini = 0.0\nsamples = 1\nvalue = [0, 1, 0, 0, 0, 0, 0, 0, 0, 0]\nclass = 1", fillcolor="#e2e539"] ;
291 -> 292 ;
293 [label="gini = 0.0\nsamples = 2\nvalue = [0, 0, 0, 0, 0, 0, 0, 2, 0, 0]\nclass = 7", fillcolor="#a339e5"] ;
291 -> 293 ;
294 [label="gini = 0.0\nsamples = 2\nvalue = [0, 0, 0, 2, 0, 0, 0, 0, 0, 0]\nclass = 3", fillcolor="#39e55e"] ;
290 -> 294 ;
295 [label="key <= 10.5\ngini = 0.227\nsamples = 23\nvalue = [0, 3, 0, 20, 0, 0, 0, 0, 0, 0]\nclass = 3", fillcolor="#57e976"] ;
289 -> 295 ;
296 [label="danceability <= 0.135\ngini = 0.165\nsamples = 22\nvalue = [0, 2, 0, 20, 0, 0, 0, 0, 0, 0]\nclass = 3", fillcolor="#4de86e"] ;
295 -> 296 ;
297 [label="gini = 0.0\nsamples = 1\nvalue = [0, 1, 0, 0, 0, 0, 0, 0, 0, 0]\nclass = 1", fillcolor="#e2e539"] ;
296 -> 297 ;
298 [label="liveness <= 0.203\ngini = 0.091\nsamples = 21\nvalue = [0, 1, 0, 20, 0, 0, 0, 0, 0, 0]\nclass = 3", fillcolor="#43e666"] ;
296 -> 298 ;
299 [label="gini = 0.0\nsamples = 19\nvalue = [0, 0, 0, 19, 0, 0, 0, 0, 0, 0]\nclass = 3", fillcolor="#39e55e"] ;
298 -> 299 ;
300 [label="danceability <= 0.325\ngini = 0.5\nsamples = 2\nvalue = [0, 1, 0, 1, 0, 0, 0, 0, 0, 0]\nclass = 1", fillcolor="#ffffff"] ;
298 -> 300 ;
301 [label="gini = 0.0\nsamples = 1\nvalue = [0, 1, 0, 0, 0, 0, 0, 0, 0, 0]\nclass = 1", fillcolor="#e2e539"] ;
300 -> 301 ;
302 [label="gini = 0.0\nsamples = 1\nvalue = [0, 0, 0, 1, 0, 0, 0, 0, 0, 0]\nclass = 3", fillcolor="#39e55e"] ;
300 -> 302 ;
303 [label="gini = 0.0\nsamples = 1\nvalue = [0, 1, 0, 0, 0, 0, 0, 0, 0, 0]\nclass = 1", fillcolor="#e2e539"] ;
295 -> 303 ;
304 [label="gini = 0.0\nsamples = 22\nvalue = [0, 0, 0, 22, 0, 0, 0, 0, 0, 0]\nclass = 3", fillcolor="#39e55e"] ;
280 -> 304 ;
305 [label="valence <= 0.09\ngini = 0.214\nsamples = 179\nvalue = [0, 5, 2, 158, 0, 0, 0, 14, 0, 0]\nclass = 3", fillcolor="#52e872"] ;
279 -> 305 ;
306 [label="speechiness <= 0.031\ngini = 0.102\nsamples = 94\nvalue = [0, 4, 0, 89, 0, 0, 0, 1, 0, 0]\nclass = 3", fillcolor="#44e667"] ;
305 -> 306 ;
307 [label="gini = 0.0\nsamples = 1\nvalue = [0, 0, 0, 0, 0, 0, 0, 1, 0, 0]\nclass = 7", fillcolor="#a339e5"] ;
306 -> 307 ;
308 [label="acousticness <= 0.993\ngini = 0.082\nsamples = 93\nvalue = [0, 4, 0, 89, 0, 0, 0, 0, 0, 0]\nclass = 3", fillcolor="#42e665"] ;
306 -> 308 ;
309 [label="popularity <= 33.5\ngini = 0.063\nsamples = 92\nvalue = [0, 3, 0, 89, 0, 0, 0, 0, 0, 0]\nclass = 3", fillcolor="#40e663"] ;
308 -> 309 ;
310 [label="speechiness <= 0.035\ngini = 0.236\nsamples = 22\nvalue = [0, 3, 0, 19, 0, 0, 0, 0, 0, 0]\nclass = 3", fillcolor="#58e977"] ;
309 -> 310 ;
311 [label="gini = 0.0\nsamples = 1\nvalue = [0, 1, 0, 0, 0, 0, 0, 0, 0, 0]\nclass = 1", fillcolor="#e2e539"] ;
310 -> 311 ;
312 [label="energy <= 0.223\ngini = 0.172\nsamples = 21\nvalue = [0, 2, 0, 19, 0, 0, 0, 0, 0, 0]\nclass = 3", fillcolor="#4ee86f"] ;
310 -> 312 ;
313 [label="loudness <= -18.292\ngini = 0.095\nsamples = 20\nvalue = [0, 1, 0, 19, 0, 0, 0, 0, 0, 0]\nclass = 3", fillcolor="#43e666"] ;
312 -> 313 ;
314 [label="gini = 0.0\nsamples = 17\nvalue = [0, 0, 0, 17, 0, 0, 0, 0, 0, 0]\nclass = 3", fillcolor="#39e55e"] ;
313 -> 314 ;
315 [label="liveness <= 0.135\ngini = 0.444\nsamples = 3\nvalue = [0, 1, 0, 2, 0, 0, 0, 0, 0, 0]\nclass = 3", fillcolor="#9cf2ae"] ;
313 -> 315 ;
316 [label="gini = 0.0\nsamples = 1\nvalue = [0, 1, 0, 0, 0, 0, 0, 0, 0, 0]\nclass = 1", fillcolor="#e2e539"] ;
315 -> 316 ;
317 [label="gini = 0.0\nsamples = 2\nvalue = [0, 0, 0, 2, 0, 0, 0, 0, 0, 0]\nclass = 3", fillcolor="#39e55e"] ;
315 -> 317 ;
318 [label="gini = 0.0\nsamples = 1\nvalue = [0, 1, 0, 0, 0, 0, 0, 0, 0, 0]\nclass = 1", fillcolor="#e2e539"] ;
312 -> 318 ;
319 [label="gini = 0.0\nsamples = 70\nvalue = [0, 0, 0, 70, 0, 0, 0, 0, 0, 0]\nclass = 3", fillcolor="#39e55e"] ;
309 -> 319 ;
320 [label="gini = 0.0\nsamples = 1\nvalue = [0, 1, 0, 0, 0, 0, 0, 0, 0, 0]\nclass = 1", fillcolor="#e2e539"] ;
308 -> 320 ;
321 [label="valence <= 0.098\ngini = 0.317\nsamples = 85\nvalue = [0, 1, 2, 69, 0, 0, 0, 13, 0, 0]\nclass = 3", fillcolor="#65eb82"] ;
305 -> 321 ;
322 [label="danceability <= 0.274\ngini = 0.375\nsamples = 4\nvalue = [0, 0, 0, 1, 0, 0, 0, 3, 0, 0]\nclass = 7", fillcolor="#c27bee"] ;
321 -> 322 ;
323 [label="gini = 0.0\nsamples = 1\nvalue = [0, 0, 0, 1, 0, 0, 0, 0, 0, 0]\nclass = 3", fillcolor="#39e55e"] ;
322 -> 323 ;
324 [label="gini = 0.0\nsamples = 3\nvalue = [0, 0, 0, 0, 0, 0, 0, 3, 0, 0]\nclass = 7", fillcolor="#a339e5"] ;
322 -> 324 ;
325 [label="acousticness <= 0.866\ngini = 0.279\nsamples = 81\nvalue = [0, 1, 2, 68, 0, 0, 0, 10, 0, 0]\nclass = 3", fillcolor="#5dea7b"] ;
321 -> 325 ;
326 [label="valence <= 0.145\ngini = 0.653\nsamples = 7\nvalue = [0, 0, 2, 3, 0, 0, 0, 2, 0, 0]\nclass = 3", fillcolor="#d7fadf"] ;
325 -> 326 ;
327 [label="gini = 0.0\nsamples = 3\nvalue = [0, 0, 0, 3, 0, 0, 0, 0, 0, 0]\nclass = 3", fillcolor="#39e55e"] ;
326 -> 327 ;
328 [label="popularity <= 39.5\ngini = 0.5\nsamples = 4\nvalue = [0, 0, 2, 0, 0, 0, 0, 2, 0, 0]\nclass = 2", fillcolor="#ffffff"] ;
326 -> 328 ;
329 [label="gini = 0.0\nsamples = 2\nvalue = [0, 0, 2, 0, 0, 0, 0, 0, 0, 0]\nclass = 2", fillcolor="#7be539"] ;
328 -> 329 ;
330 [label="gini = 0.0\nsamples = 2\nvalue = [0, 0, 0, 0, 0, 0, 0, 2, 0, 0]\nclass = 7", fillcolor="#a339e5"] ;
328 -> 330 ;
331 [label="speechiness <= 0.062\ngini = 0.217\nsamples = 74\nvalue = [0, 1, 0, 65, 0, 0, 0, 8, 0, 0]\nclass = 3", fillcolor="#54e974"] ;
325 -> 331 ;
332 [label="energy <= 0.037\ngini = 0.195\nsamples = 73\nvalue = [0, 0, 0, 65, 0, 0, 0, 8, 0, 0]\nclass = 3", fillcolor="#51e872"] ;
331 -> 332 ;
333 [label="gini = 0.0\nsamples = 1\nvalue = [0, 0, 0, 0, 0, 0, 0, 1, 0, 0]\nclass = 7", fillcolor="#a339e5"] ;
332 -> 333 ;
334 [label="tempo <= 57.035\ngini = 0.176\nsamples = 72\nvalue = [0, 0, 0, 65, 0, 0, 0, 7, 0, 0]\nclass = 3", fillcolor="#4ee86f"] ;
332 -> 334 ;
335 [label="gini = 0.0\nsamples = 1\nvalue = [0, 0, 0, 0, 0, 0, 0, 1, 0, 0]\nclass = 7", fillcolor="#a339e5"] ;
334 -> 335 ;
336 [label="loudness <= -17.31\ngini = 0.155\nsamples = 71\nvalue = [0, 0, 0, 65, 0, 0, 0, 6, 0, 0]\nclass = 3", fillcolor="#4be76d"] ;
334 -> 336 ;
337 [label="key <= 2.5\ngini = 0.114\nsamples = 66\nvalue = [0, 0, 0, 62, 0, 0, 0, 4, 0, 0]\nclass = 3", fillcolor="#46e768"] ;
336 -> 337 ;
338 [label="speechiness <= 0.034\ngini = 0.32\nsamples = 10\nvalue = [0, 0, 0, 8, 0, 0, 0, 2, 0, 0]\nclass = 3", fillcolor="#6aec86"] ;
337 -> 338 ;
339 [label="gini = 0.0\nsamples = 1\nvalue = [0, 0, 0, 0, 0, 0, 0, 1, 0, 0]\nclass = 7", fillcolor="#a339e5"] ;
338 -> 339 ;
340 [label="instrumentalness <= 0.887\ngini = 0.198\nsamples = 9\nvalue = [0, 0, 0, 8, 0, 0, 0, 1, 0, 0]\nclass = 3", fillcolor="#52e872"] ;
338 -> 340 ;
341 [label="gini = 0.0\nsamples = 7\nvalue = [0, 0, 0, 7, 0, 0, 0, 0, 0, 0]\nclass = 3", fillcolor="#39e55e"] ;
340 -> 341 ;
342 [label="instrumentalness <= 0.918\ngini = 0.5\nsamples = 2\nvalue = [0, 0, 0, 1, 0, 0, 0, 1, 0, 0]\nclass = 3", fillcolor="#ffffff"] ;
340 -> 342 ;
343 [label="gini = 0.0\nsamples = 1\nvalue = [0, 0, 0, 0, 0, 0, 0, 1, 0, 0]\nclass = 7", fillcolor="#a339e5"] ;
342 -> 343 ;
344 [label="gini = 0.0\nsamples = 1\nvalue = [0, 0, 0, 1, 0, 0, 0, 0, 0, 0]\nclass = 3", fillcolor="#39e55e"] ;
342 -> 344 ;
345 [label="energy <= 0.062\ngini = 0.069\nsamples = 56\nvalue = [0, 0, 0, 54, 0, 0, 0, 2, 0, 0]\nclass = 3", fillcolor="#40e664"] ;
337 -> 345 ;
346 [label="liveness <= 0.086\ngini = 0.375\nsamples = 4\nvalue = [0, 0, 0, 3, 0, 0, 0, 1, 0, 0]\nclass = 3", fillcolor="#7bee94"] ;
345 -> 346 ;
347 [label="gini = 0.0\nsamples = 3\nvalue = [0, 0, 0, 3, 0, 0, 0, 0, 0, 0]\nclass = 3", fillcolor="#39e55e"] ;
346 -> 347 ;
348 [label="gini = 0.0\nsamples = 1\nvalue = [0, 0, 0, 0, 0, 0, 0, 1, 0, 0]\nclass = 7", fillcolor="#a339e5"] ;
346 -> 348 ;
349 [label="mode <= 0.5\ngini = 0.038\nsamples = 52\nvalue = [0, 0, 0, 51, 0, 0, 0, 1, 0, 0]\nclass = 3", fillcolor="#3de661"] ;
345 -> 349 ;
350 [label="gini = 0.0\nsamples = 39\nvalue = [0, 0, 0, 39, 0, 0, 0, 0, 0, 0]\nclass = 3", fillcolor="#39e55e"] ;
349 -> 350 ;
351 [label="valence <= 0.266\ngini = 0.142\nsamples = 13\nvalue = [0, 0, 0, 12, 0, 0, 0, 1, 0, 0]\nclass = 3", fillcolor="#49e76b"] ;
349 -> 351 ;
352 [label="gini = 0.0\nsamples = 11\nvalue = [0, 0, 0, 11, 0, 0, 0, 0, 0, 0]\nclass = 3", fillcolor="#39e55e"] ;
351 -> 352 ;
353 [label="acousticness <= 0.965\ngini = 0.5\nsamples = 2\nvalue = [0, 0, 0, 1, 0, 0, 0, 1, 0, 0]\nclass = 3", fillcolor="#ffffff"] ;
351 -> 353 ;
354 [label="gini = 0.0\nsamples = 1\nvalue = [0, 0, 0, 0, 0, 0, 0, 1, 0, 0]\nclass = 7", fillcolor="#a339e5"] ;
353 -> 354 ;
355 [label="gini = 0.0\nsamples = 1\nvalue = [0, 0, 0, 1, 0, 0, 0, 0, 0, 0]\nclass = 3", fillcolor="#39e55e"] ;
353 -> 355 ;
356 [label="duration_ms <= 231838.5\ngini = 0.48\nsamples = 5\nvalue = [0, 0, 0, 3, 0, 0, 0, 2, 0, 0]\nclass = 3", fillcolor="#bdf6c9"] ;
336 -> 356 ;
357 [label="gini = 0.0\nsamples = 2\nvalue = [0, 0, 0, 0, 0, 0, 0, 2, 0, 0]\nclass = 7", fillcolor="#a339e5"] ;
356 -> 357 ;
358 [label="gini = 0.0\nsamples = 3\nvalue = [0, 0, 0, 3, 0, 0, 0, 0, 0, 0]\nclass = 3", fillcolor="#39e55e"] ;
356 -> 358 ;
359 [label="gini = 0.0\nsamples = 1\nvalue = [0, 1, 0, 0, 0, 0, 0, 0, 0, 0]\nclass = 1", fillcolor="#e2e539"] ;
331 -> 359 ;
360 [label="acousticness <= 0.883\ngini = 0.612\nsamples = 7\nvalue = [0, 1, 0, 3, 0, 0, 0, 3, 0, 0]\nclass = 3", fillcolor="#ffffff"] ;
274 -> 360 ;
361 [label="gini = 0.0\nsamples = 2\nvalue = [0, 0, 0, 2, 0, 0, 0, 0, 0, 0]\nclass = 3", fillcolor="#39e55e"] ;
360 -> 361 ;
362 [label="danceability <= 0.319\ngini = 0.56\nsamples = 5\nvalue = [0, 1, 0, 1, 0, 0, 0, 3, 0, 0]\nclass = 7", fillcolor="#d19cf2"] ;
360 -> 362 ;
363 [label="gini = 0.0\nsamples = 3\nvalue = [0, 0, 0, 0, 0, 0, 0, 3, 0, 0]\nclass = 7", fillcolor="#a339e5"] ;
362 -> 363 ;
364 [label="popularity <= 40.5\ngini = 0.5\nsamples = 2\nvalue = [0, 1, 0, 1, 0, 0, 0, 0, 0, 0]\nclass = 1", fillcolor="#ffffff"] ;
362 -> 364 ;
365 [label="gini = 0.0\nsamples = 1\nvalue = [0, 1, 0, 0, 0, 0, 0, 0, 0, 0]\nclass = 1", fillcolor="#e2e539"] ;
364 -> 365 ;
366 [label="gini = 0.0\nsamples = 1\nvalue = [0, 0, 0, 1, 0, 0, 0, 0, 0, 0]\nclass = 3", fillcolor="#39e55e"] ;
364 -> 366 ;
367 [label="speechiness <= 0.064\ngini = 0.375\nsamples = 4\nvalue = [0, 0, 0, 1, 0, 0, 0, 3, 0, 0]\nclass = 7", fillcolor="#c27bee"] ;
273 -> 367 ;
368 [label="gini = 0.0\nsamples = 3\nvalue = [0, 0, 0, 0, 0, 0, 0, 3, 0, 0]\nclass = 7", fillcolor="#a339e5"] ;
367 -> 368 ;
369 [label="gini = 0.0\nsamples = 1\nvalue = [0, 0, 0, 1, 0, 0, 0, 0, 0, 0]\nclass = 3", fillcolor="#39e55e"] ;
367 -> 369 ;
370 [label="danceability <= 0.366\ngini = 0.043\nsamples = 138\nvalue = [0, 0, 0, 135, 0, 0, 0, 3, 0, 0]\nclass = 3", fillcolor="#3de662"] ;
272 -> 370 ;
371 [label="tempo <= 60.125\ngini = 0.029\nsamples = 137\nvalue = [0, 0, 0, 135, 0, 0, 0, 2, 0, 0]\nclass = 3", fillcolor="#3ce560"] ;
370 -> 371 ;
372 [label="liveness <= 0.112\ngini = 0.444\nsamples = 3\nvalue = [0, 0, 0, 2, 0, 0, 0, 1, 0, 0]\nclass = 3", fillcolor="#9cf2ae"] ;
371 -> 372 ;
373 [label="gini = 0.0\nsamples = 1\nvalue = [0, 0, 0, 0, 0, 0, 0, 1, 0, 0]\nclass = 7", fillcolor="#a339e5"] ;
372 -> 373 ;
374 [label="gini = 0.0\nsamples = 2\nvalue = [0, 0, 0, 2, 0, 0, 0, 0, 0, 0]\nclass = 3", fillcolor="#39e55e"] ;
372 -> 374 ;
375 [label="instrumentalness <= 0.943\ngini = 0.015\nsamples = 134\nvalue = [0, 0, 0, 133, 0, 0, 0, 1, 0, 0]\nclass = 3", fillcolor="#3ae55f"] ;
371 -> 375 ;
376 [label="gini = 0.0\nsamples = 129\nvalue = [0, 0, 0, 129, 0, 0, 0, 0, 0, 0]\nclass = 3", fillcolor="#39e55e"] ;
375 -> 376 ;
377 [label="instrumentalness <= 0.948\ngini = 0.32\nsamples = 5\nvalue = [0, 0, 0, 4, 0, 0, 0, 1, 0, 0]\nclass = 3", fillcolor="#6aec86"] ;
375 -> 377 ;
378 [label="gini = 0.0\nsamples = 1\nvalue = [0, 0, 0, 0, 0, 0, 0, 1, 0, 0]\nclass = 7", fillcolor="#a339e5"] ;
377 -> 378 ;
379 [label="gini = 0.0\nsamples = 4\nvalue = [0, 0, 0, 4, 0, 0, 0, 0, 0, 0]\nclass = 3", fillcolor="#39e55e"] ;
377 -> 379 ;
380 [label="gini = 0.0\nsamples = 1\nvalue = [0, 0, 0, 0, 0, 0, 0, 1, 0, 0]\nclass = 7", fillcolor="#a339e5"] ;
370 -> 380 ;
381 [label="gini = 0.0\nsamples = 2\nvalue = [0, 2, 0, 0, 0, 0, 0, 0, 0, 0]\nclass = 1", fillcolor="#e2e539"] ;
201 -> 381 ;
382 [label="liveness <= 0.147\ngini = 0.56\nsamples = 5\nvalue = [0, 1, 0, 0, 0, 1, 0, 3, 0, 0]\nclass = 7", fillcolor="#d19cf2"] ;
200 -> 382 ;
383 [label="gini = 0.0\nsamples = 3\nvalue = [0, 0, 0, 0, 0, 0, 0, 3, 0, 0]\nclass = 7", fillcolor="#a339e5"] ;
382 -> 383 ;
384 [label="mode <= 0.5\ngini = 0.5\nsamples = 2\nvalue = [0, 1, 0, 0, 0, 1, 0, 0, 0, 0]\nclass = 1", fillcolor="#ffffff"] ;
382 -> 384 ;
385 [label="gini = 0.0\nsamples = 1\nvalue = [0, 1, 0, 0, 0, 0, 0, 0, 0, 0]\nclass = 1", fillcolor="#e2e539"] ;
384 -> 385 ;
386 [label="gini = 0.0\nsamples = 1\nvalue = [0, 0, 0, 0, 0, 1, 0, 0, 0, 0]\nclass = 5", fillcolor="#399de5"] ;
384 -> 386 ;
387 [label="popularity <= 34.5\ngini = 0.443\nsamples = 714\nvalue = [4, 74, 21, 520, 5, 3, 0, 87, 0, 0]\nclass = 3", fillcolor="#76ed90"] ;
83 -> 387 ;
388 [label="valence <= 0.209\ngini = 0.371\nsamples = 485\nvalue = [1, 73, 11, 377, 0, 2, 0, 21, 0, 0]\nclass = 3", fillcolor="#6dec88"] ;
387 -> 388 ;
389 [label="popularity <= 23.5\ngini = 0.468\nsamples = 193\nvalue = [0, 51, 2, 131, 0, 1, 0, 8, 0, 0]\nclass = 3", fillcolor="#8ff0a4"] ;
388 -> 389 ;
390 [label="popularity <= 7.0\ngini = 0.543\nsamples = 88\nvalue = [0, 40, 1, 44, 0, 1, 0, 2, 0, 0]\nclass = 3", fillcolor="#eefdf2"] ;
389 -> 390 ;
391 [label="speechiness <= 0.038\ngini = 0.237\nsamples = 38\nvalue = [0, 3, 0, 33, 0, 0, 0, 2, 0, 0]\nclass = 3", fillcolor="#55e975"] ;
390 -> 391 ;
392 [label="liveness <= 0.161\ngini = 0.444\nsamples = 3\nvalue = [0, 2, 0, 0, 0, 0, 0, 1, 0, 0]\nclass = 1", fillcolor="#f0f29c"] ;
391 -> 392 ;
393 [label="gini = 0.0\nsamples = 2\nvalue = [0, 2, 0, 0, 0, 0, 0, 0, 0, 0]\nclass = 1", fillcolor="#e2e539"] ;
392 -> 393 ;
394 [label="gini = 0.0\nsamples = 1\nvalue = [0, 0, 0, 0, 0, 0, 0, 1, 0, 0]\nclass = 7", fillcolor="#a339e5"] ;
392 -> 394 ;
395 [label="instrumentalness <= 0.94\ngini = 0.109\nsamples = 35\nvalue = [0, 1, 0, 33, 0, 0, 0, 1, 0, 0]\nclass = 3", fillcolor="#45e767"] ;
391 -> 395 ;
396 [label="danceability <= 0.48\ngini = 0.057\nsamples = 34\nvalue = [0, 0, 0, 33, 0, 0, 0, 1, 0, 0]\nclass = 3", fillcolor="#3fe663"] ;
395 -> 396 ;
397 [label="gini = 0.0\nsamples = 32\nvalue = [0, 0, 0, 32, 0, 0, 0, 0, 0, 0]\nclass = 3", fillcolor="#39e55e"] ;
396 -> 397 ;
398 [label="danceability <= 0.503\ngini = 0.5\nsamples = 2\nvalue = [0, 0, 0, 1, 0, 0, 0, 1, 0, 0]\nclass = 3", fillcolor="#ffffff"] ;
396 -> 398 ;
399 [label="gini = 0.0\nsamples = 1\nvalue = [0, 0, 0, 0, 0, 0, 0, 1, 0, 0]\nclass = 7", fillcolor="#a339e5"] ;
398 -> 399 ;
400 [label="gini = 0.0\nsamples = 1\nvalue = [0, 0, 0, 1, 0, 0, 0, 0, 0, 0]\nclass = 3", fillcolor="#39e55e"] ;
398 -> 400 ;
401 [label="gini = 0.0\nsamples = 1\nvalue = [0, 1, 0, 0, 0, 0, 0, 0, 0, 0]\nclass = 1", fillcolor="#e2e539"] ;
395 -> 401 ;
402 [label="instrumentalness <= 0.112\ngini = 0.403\nsamples = 50\nvalue = [0, 37, 1, 11, 0, 1, 0, 0, 0, 0]\nclass = 1", fillcolor="#ecee7b"] ;
390 -> 402 ;
403 [label="speechiness <= 0.04\ngini = 0.375\nsamples = 4\nvalue = [0, 0, 1, 3, 0, 0, 0, 0, 0, 0]\nclass = 3", fillcolor="#7bee94"] ;
402 -> 403 ;
404 [label="gini = 0.0\nsamples = 1\nvalue = [0, 0, 1, 0, 0, 0, 0, 0, 0, 0]\nclass = 2", fillcolor="#7be539"] ;
403 -> 404 ;
405 [label="gini = 0.0\nsamples = 3\nvalue = [0, 0, 0, 3, 0, 0, 0, 0, 0, 0]\nclass = 3", fillcolor="#39e55e"] ;
403 -> 405 ;
406 [label="duration_ms <= 343586.5\ngini = 0.322\nsamples = 46\nvalue = [0, 37, 0, 8, 0, 1, 0, 0, 0, 0]\nclass = 1", fillcolor="#e9eb68"] ;
402 -> 406 ;
407 [label="energy <= 0.003\ngini = 0.219\nsamples = 41\nvalue = [0, 36, 0, 4, 0, 1, 0, 0, 0, 0]\nclass = 1", fillcolor="#e6e954"] ;
406 -> 407 ;
408 [label="gini = 0.0\nsamples = 2\nvalue = [0, 0, 0, 2, 0, 0, 0, 0, 0, 0]\nclass = 3", fillcolor="#39e55e"] ;
407 -> 408 ;
409 [label="energy <= 0.234\ngini = 0.145\nsamples = 39\nvalue = [0, 36, 0, 2, 0, 1, 0, 0, 0, 0]\nclass = 1", fillcolor="#e4e749"] ;
407 -> 409 ;
410 [label="popularity <= 22.5\ngini = 0.053\nsamples = 37\nvalue = [0, 36, 0, 1, 0, 0, 0, 0, 0, 0]\nclass = 1", fillcolor="#e3e63e"] ;
409 -> 410 ;
411 [label="gini = 0.0\nsamples = 34\nvalue = [0, 34, 0, 0, 0, 0, 0, 0, 0, 0]\nclass = 1", fillcolor="#e2e539"] ;
410 -> 411 ;
412 [label="duration_ms <= 157906.5\ngini = 0.444\nsamples = 3\nvalue = [0, 2, 0, 1, 0, 0, 0, 0, 0, 0]\nclass = 1", fillcolor="#f0f29c"] ;
410 -> 412 ;
413 [label="gini = 0.0\nsamples = 2\nvalue = [0, 2, 0, 0, 0, 0, 0, 0, 0, 0]\nclass = 1", fillcolor="#e2e539"] ;
412 -> 413 ;
414 [label="gini = 0.0\nsamples = 1\nvalue = [0, 0, 0, 1, 0, 0, 0, 0, 0, 0]\nclass = 3", fillcolor="#39e55e"] ;
412 -> 414 ;
415 [label="duration_ms <= 218718.5\ngini = 0.5\nsamples = 2\nvalue = [0, 0, 0, 1, 0, 1, 0, 0, 0, 0]\nclass = 3", fillcolor="#ffffff"] ;
409 -> 415 ;
416 [label="gini = 0.0\nsamples = 1\nvalue = [0, 0, 0, 0, 0, 1, 0, 0, 0, 0]\nclass = 5", fillcolor="#399de5"] ;
415 -> 416 ;
417 [label="gini = 0.0\nsamples = 1\nvalue = [0, 0, 0, 1, 0, 0, 0, 0, 0, 0]\nclass = 3", fillcolor="#39e55e"] ;
415 -> 417 ;
418 [label="key <= 5.0\ngini = 0.32\nsamples = 5\nvalue = [0, 1, 0, 4, 0, 0, 0, 0, 0, 0]\nclass = 3", fillcolor="#6aec86"] ;
406 -> 418 ;
419 [label="gini = 0.0\nsamples = 4\nvalue = [0, 0, 0, 4, 0, 0, 0, 0, 0, 0]\nclass = 3", fillcolor="#39e55e"] ;
418 -> 419 ;
420 [label="gini = 0.0\nsamples = 1\nvalue = [0, 1, 0, 0, 0, 0, 0, 0, 0, 0]\nclass = 1", fillcolor="#e2e539"] ;
418 -> 420 ;
421 [label="acousticness <= 0.968\ngini = 0.299\nsamples = 105\nvalue = [0, 11, 1, 87, 0, 0, 0, 6, 0, 0]\nclass = 3", fillcolor="#5fea7d"] ;
389 -> 421 ;
422 [label="tempo <= 109.487\ngini = 0.608\nsamples = 21\nvalue = [0, 6, 0, 11, 0, 0, 0, 4, 0, 0]\nclass = 3", fillcolor="#bdf6c9"] ;
421 -> 422 ;
423 [label="duration_ms <= 299573.5\ngini = 0.469\nsamples = 8\nvalue = [0, 5, 0, 3, 0, 0, 0, 0, 0, 0]\nclass = 1", fillcolor="#f3f5b0"] ;
422 -> 423 ;
424 [label="liveness <= 0.078\ngini = 0.278\nsamples = 6\nvalue = [0, 5, 0, 1, 0, 0, 0, 0, 0, 0]\nclass = 1", fillcolor="#e8ea61"] ;
423 -> 424 ;
425 [label="gini = 0.0\nsamples = 1\nvalue = [0, 0, 0, 1, 0, 0, 0, 0, 0, 0]\nclass = 3", fillcolor="#39e55e"] ;
424 -> 425 ;
426 [label="gini = 0.0\nsamples = 5\nvalue = [0, 5, 0, 0, 0, 0, 0, 0, 0, 0]\nclass = 1", fillcolor="#e2e539"] ;
424 -> 426 ;
427 [label="gini = 0.0\nsamples = 2\nvalue = [0, 0, 0, 2, 0, 0, 0, 0, 0, 0]\nclass = 3", fillcolor="#39e55e"] ;
423 -> 427 ;
428 [label="liveness <= 0.108\ngini = 0.521\nsamples = 13\nvalue = [0, 1, 0, 8, 0, 0, 0, 4, 0, 0]\nclass = 3", fillcolor="#a7f3b7"] ;
422 -> 428 ;
429 [label="gini = 0.0\nsamples = 7\nvalue = [0, 0, 0, 7, 0, 0, 0, 0, 0, 0]\nclass = 3", fillcolor="#39e55e"] ;
428 -> 429 ;
430 [label="speechiness <= 0.054\ngini = 0.5\nsamples = 6\nvalue = [0, 1, 0, 1, 0, 0, 0, 4, 0, 0]\nclass = 7", fillcolor="#c888ef"] ;
428 -> 430 ;
431 [label="gini = 0.0\nsamples = 4\nvalue = [0, 0, 0, 0, 0, 0, 0, 4, 0, 0]\nclass = 7", fillcolor="#a339e5"] ;
430 -> 431 ;
432 [label="danceability <= 0.426\ngini = 0.5\nsamples = 2\nvalue = [0, 1, 0, 1, 0, 0, 0, 0, 0, 0]\nclass = 1", fillcolor="#ffffff"] ;
430 -> 432 ;
433 [label="gini = 0.0\nsamples = 1\nvalue = [0, 0, 0, 1, 0, 0, 0, 0, 0, 0]\nclass = 3", fillcolor="#39e55e"] ;
432 -> 433 ;
434 [label="gini = 0.0\nsamples = 1\nvalue = [0, 1, 0, 0, 0, 0, 0, 0, 0, 0]\nclass = 1", fillcolor="#e2e539"] ;
432 -> 434 ;
435 [label="loudness <= -20.679\ngini = 0.177\nsamples = 84\nvalue = [0, 5, 1, 76, 0, 0, 0, 2, 0, 0]\nclass = 3", fillcolor="#4de86e"] ;
421 -> 435 ;
436 [label="instrumentalness <= 0.001\ngini = 0.062\nsamples = 63\nvalue = [0, 0, 1, 61, 0, 0, 0, 1, 0, 0]\nclass = 3", fillcolor="#3fe663"] ;
435 -> 436 ;
437 [label="energy <= 0.027\ngini = 0.5\nsamples = 2\nvalue = [0, 0, 1, 1, 0, 0, 0, 0, 0, 0]\nclass = 2", fillcolor="#ffffff"] ;
436 -> 437 ;
438 [label="gini = 0.0\nsamples = 1\nvalue = [0, 0, 0, 1, 0, 0, 0, 0, 0, 0]\nclass = 3", fillcolor="#39e55e"] ;
437 -> 438 ;
439 [label="gini = 0.0\nsamples = 1\nvalue = [0, 0, 1, 0, 0, 0, 0, 0, 0, 0]\nclass = 2", fillcolor="#7be539"] ;
437 -> 439 ;
440 [label="liveness <= 0.073\ngini = 0.032\nsamples = 61\nvalue = [0, 0, 0, 60, 0, 0, 0, 1, 0, 0]\nclass = 3", fillcolor="#3ce561"] ;
436 -> 440 ;
441 [label="liveness <= 0.073\ngini = 0.198\nsamples = 9\nvalue = [0, 0, 0, 8, 0, 0, 0, 1, 0, 0]\nclass = 3", fillcolor="#52e872"] ;
440 -> 441 ;
442 [label="gini = 0.0\nsamples = 8\nvalue = [0, 0, 0, 8, 0, 0, 0, 0, 0, 0]\nclass = 3", fillcolor="#39e55e"] ;
441 -> 442 ;
443 [label="gini = 0.0\nsamples = 1\nvalue = [0, 0, 0, 0, 0, 0, 0, 1, 0, 0]\nclass = 7", fillcolor="#a339e5"] ;
441 -> 443 ;
444 [label="gini = 0.0\nsamples = 52\nvalue = [0, 0, 0, 52, 0, 0, 0, 0, 0, 0]\nclass = 3", fillcolor="#39e55e"] ;
440 -> 444 ;
445 [label="valence <= 0.119\ngini = 0.431\nsamples = 21\nvalue = [0, 5, 0, 15, 0, 0, 0, 1, 0, 0]\nclass = 3", fillcolor="#83ef9a"] ;
435 -> 445 ;
446 [label="speechiness <= 0.046\ngini = 0.594\nsamples = 8\nvalue = [0, 4, 0, 3, 0, 0, 0, 1, 0, 0]\nclass = 1", fillcolor="#f9fad7"] ;
445 -> 446 ;
447 [label="gini = 0.0\nsamples = 3\nvalue = [0, 3, 0, 0, 0, 0, 0, 0, 0, 0]\nclass = 1", fillcolor="#e2e539"] ;
446 -> 447 ;
448 [label="liveness <= 0.126\ngini = 0.56\nsamples = 5\nvalue = [0, 1, 0, 3, 0, 0, 0, 1, 0, 0]\nclass = 3", fillcolor="#9cf2ae"] ;
446 -> 448 ;
449 [label="gini = 0.0\nsamples = 3\nvalue = [0, 0, 0, 3, 0, 0, 0, 0, 0, 0]\nclass = 3", fillcolor="#39e55e"] ;
448 -> 449 ;
450 [label="tempo <= 89.241\ngini = 0.5\nsamples = 2\nvalue = [0, 1, 0, 0, 0, 0, 0, 1, 0, 0]\nclass = 1", fillcolor="#ffffff"] ;
448 -> 450 ;
451 [label="gini = 0.0\nsamples = 1\nvalue = [0, 1, 0, 0, 0, 0, 0, 0, 0, 0]\nclass = 1", fillcolor="#e2e539"] ;
450 -> 451 ;
452 [label="gini = 0.0\nsamples = 1\nvalue = [0, 0, 0, 0, 0, 0, 0, 1, 0, 0]\nclass = 7", fillcolor="#a339e5"] ;
450 -> 452 ;
453 [label="instrumentalness <= 0.938\ngini = 0.142\nsamples = 13\nvalue = [0, 1, 0, 12, 0, 0, 0, 0, 0, 0]\nclass = 3", fillcolor="#49e76b"] ;
445 -> 453 ;
454 [label="gini = 0.0\nsamples = 12\nvalue = [0, 0, 0, 12, 0, 0, 0, 0, 0, 0]\nclass = 3", fillcolor="#39e55e"] ;
453 -> 454 ;
455 [label="gini = 0.0\nsamples = 1\nvalue = [0, 1, 0, 0, 0, 0, 0, 0, 0, 0]\nclass = 1", fillcolor="#e2e539"] ;
453 -> 455 ;
456 [label="loudness <= -18.672\ngini = 0.282\nsamples = 292\nvalue = [1, 22, 9, 246, 0, 1, 0, 13, 0, 0]\nclass = 3", fillcolor="#5be979"] ;
388 -> 456 ;
457 [label="tempo <= 161.853\ngini = 0.195\nsamples = 237\nvalue = [0, 15, 4, 212, 0, 0, 0, 6, 0, 0]\nclass = 3", fillcolor="#4fe870"] ;
456 -> 457 ;
458 [label="mode <= 0.5\ngini = 0.17\nsamples = 231\nvalue = [0, 12, 3, 210, 0, 0, 0, 6, 0, 0]\nclass = 3", fillcolor="#4ce76d"] ;
457 -> 458 ;
459 [label="valence <= 0.228\ngini = 0.094\nsamples = 165\nvalue = [0, 4, 1, 157, 0, 0, 0, 3, 0, 0]\nclass = 3", fillcolor="#43e666"] ;
458 -> 459 ;
460 [label="popularity <= 32.5\ngini = 0.245\nsamples = 14\nvalue = [0, 0, 0, 12, 0, 0, 0, 2, 0, 0]\nclass = 3", fillcolor="#5ae979"] ;
459 -> 460 ;
461 [label="tempo <= 137.302\ngini = 0.142\nsamples = 13\nvalue = [0, 0, 0, 12, 0, 0, 0, 1, 0, 0]\nclass = 3", fillcolor="#49e76b"] ;
460 -> 461 ;
462 [label="gini = 0.0\nsamples = 12\nvalue = [0, 0, 0, 12, 0, 0, 0, 0, 0, 0]\nclass = 3", fillcolor="#39e55e"] ;
461 -> 462 ;
463 [label="gini = 0.0\nsamples = 1\nvalue = [0, 0, 0, 0, 0, 0, 0, 1, 0, 0]\nclass = 7", fillcolor="#a339e5"] ;
461 -> 463 ;
464 [label="gini = 0.0\nsamples = 1\nvalue = [0, 0, 0, 0, 0, 0, 0, 1, 0, 0]\nclass = 7", fillcolor="#a339e5"] ;
460 -> 464 ;
465 [label="liveness <= 0.13\ngini = 0.077\nsamples = 151\nvalue = [0, 4, 1, 145, 0, 0, 0, 1, 0, 0]\nclass = 3", fillcolor="#41e665"] ;
459 -> 465 ;
466 [label="instrumentalness <= 0.072\ngini = 0.138\nsamples = 82\nvalue = [0, 4, 1, 76, 0, 0, 0, 1, 0, 0]\nclass = 3", fillcolor="#48e76a"] ;
465 -> 466 ;
467 [label="loudness <= -22.122\ngini = 0.56\nsamples = 5\nvalue = [0, 0, 1, 3, 0, 0, 0, 1, 0, 0]\nclass = 3", fillcolor="#9cf2ae"] ;
466 -> 467 ;
468 [label="gini = 0.0\nsamples = 3\nvalue = [0, 0, 0, 3, 0, 0, 0, 0, 0, 0]\nclass = 3", fillcolor="#39e55e"] ;
467 -> 468 ;
469 [label="acousticness <= 0.943\ngini = 0.5\nsamples = 2\nvalue = [0, 0, 1, 0, 0, 0, 0, 1, 0, 0]\nclass = 2", fillcolor="#ffffff"] ;
467 -> 469 ;
470 [label="gini = 0.0\nsamples = 1\nvalue = [0, 0, 0, 0, 0, 0, 0, 1, 0, 0]\nclass = 7", fillcolor="#a339e5"] ;
469 -> 470 ;
471 [label="gini = 0.0\nsamples = 1\nvalue = [0, 0, 1, 0, 0, 0, 0, 0, 0, 0]\nclass = 2", fillcolor="#7be539"] ;
469 -> 471 ;
472 [label="duration_ms <= 198786.5\ngini = 0.098\nsamples = 77\nvalue = [0, 4, 0, 73, 0, 0, 0, 0, 0, 0]\nclass = 3", fillcolor="#44e667"] ;
466 -> 472 ;
473 [label="duration_ms <= 167587.0\ngini = 0.202\nsamples = 35\nvalue = [0, 4, 0, 31, 0, 0, 0, 0, 0, 0]\nclass = 3", fillcolor="#53e873"] ;
472 -> 473 ;
474 [label="gini = 0.0\nsamples = 23\nvalue = [0, 0, 0, 23, 0, 0, 0, 0, 0, 0]\nclass = 3", fillcolor="#39e55e"] ;
473 -> 474 ;
475 [label="instrumentalness <= 0.918\ngini = 0.444\nsamples = 12\nvalue = [0, 4, 0, 8, 0, 0, 0, 0, 0, 0]\nclass = 3", fillcolor="#9cf2ae"] ;
473 -> 475 ;
476 [label="danceability <= 0.418\ngini = 0.32\nsamples = 10\nvalue = [0, 2, 0, 8, 0, 0, 0, 0, 0, 0]\nclass = 3", fillcolor="#6aec86"] ;
475 -> 476 ;
477 [label="gini = 0.0\nsamples = 1\nvalue = [0, 1, 0, 0, 0, 0, 0, 0, 0, 0]\nclass = 1", fillcolor="#e2e539"] ;
476 -> 477 ;
478 [label="duration_ms <= 175707.0\ngini = 0.198\nsamples = 9\nvalue = [0, 1, 0, 8, 0, 0, 0, 0, 0, 0]\nclass = 3", fillcolor="#52e872"] ;
476 -> 478 ;
479 [label="gini = 0.0\nsamples = 1\nvalue = [0, 1, 0, 0, 0, 0, 0, 0, 0, 0]\nclass = 1", fillcolor="#e2e539"] ;
478 -> 479 ;
480 [label="gini = 0.0\nsamples = 8\nvalue = [0, 0, 0, 8, 0, 0, 0, 0, 0, 0]\nclass = 3", fillcolor="#39e55e"] ;
478 -> 480 ;
481 [label="gini = 0.0\nsamples = 2\nvalue = [0, 2, 0, 0, 0, 0, 0, 0, 0, 0]\nclass = 1", fillcolor="#e2e539"] ;
475 -> 481 ;
482 [label="gini = 0.0\nsamples = 42\nvalue = [0, 0, 0, 42, 0, 0, 0, 0, 0, 0]\nclass = 3", fillcolor="#39e55e"] ;
472 -> 482 ;
483 [label="gini = 0.0\nsamples = 69\nvalue = [0, 0, 0, 69, 0, 0, 0, 0, 0, 0]\nclass = 3", fillcolor="#39e55e"] ;
465 -> 483 ;
484 [label="energy <= 0.011\ngini = 0.337\nsamples = 66\nvalue = [0, 8, 2, 53, 0, 0, 0, 3, 0, 0]\nclass = 3", fillcolor="#65eb82"] ;
458 -> 484 ;
485 [label="danceability <= 0.457\ngini = 0.375\nsamples = 4\nvalue = [0, 3, 0, 1, 0, 0, 0, 0, 0, 0]\nclass = 1", fillcolor="#ecee7b"] ;
484 -> 485 ;
486 [label="gini = 0.0\nsamples = 3\nvalue = [0, 3, 0, 0, 0, 0, 0, 0, 0, 0]\nclass = 1", fillcolor="#e2e539"] ;
485 -> 486 ;
487 [label="gini = 0.0\nsamples = 1\nvalue = [0, 0, 0, 1, 0, 0, 0, 0, 0, 0]\nclass = 3", fillcolor="#39e55e"] ;
485 -> 487 ;
488 [label="loudness <= -35.289\ngini = 0.287\nsamples = 62\nvalue = [0, 5, 2, 52, 0, 0, 0, 3, 0, 0]\nclass = 3", fillcolor="#5cea7a"] ;
484 -> 488 ;
489 [label="gini = 0.0\nsamples = 1\nvalue = [0, 1, 0, 0, 0, 0, 0, 0, 0, 0]\nclass = 1", fillcolor="#e2e539"] ;
488 -> 489 ;
490 [label="liveness <= 0.097\ngini = 0.266\nsamples = 61\nvalue = [0, 4, 2, 52, 0, 0, 0, 3, 0, 0]\nclass = 3", fillcolor="#58e977"] ;
488 -> 490 ;
491 [label="valence <= 0.284\ngini = 0.556\nsamples = 13\nvalue = [0, 3, 1, 8, 0, 0, 0, 1, 0, 0]\nclass = 3", fillcolor="#9cf2ae"] ;
490 -> 491 ;
492 [label="gini = 0.0\nsamples = 2\nvalue = [0, 2, 0, 0, 0, 0, 0, 0, 0, 0]\nclass = 1", fillcolor="#e2e539"] ;
491 -> 492 ;
493 [label="speechiness <= 0.037\ngini = 0.446\nsamples = 11\nvalue = [0, 1, 1, 8, 0, 0, 0, 1, 0, 0]\nclass = 3", fillcolor="#74ed8e"] ;
491 -> 493 ;
494 [label="valence <= 0.366\ngini = 0.5\nsamples = 2\nvalue = [0, 0, 1, 0, 0, 0, 0, 1, 0, 0]\nclass = 2", fillcolor="#ffffff"] ;
493 -> 494 ;
495 [label="gini = 0.0\nsamples = 1\nvalue = [0, 0, 0, 0, 0, 0, 0, 1, 0, 0]\nclass = 7", fillcolor="#a339e5"] ;
494 -> 495 ;
496 [label="gini = 0.0\nsamples = 1\nvalue = [0, 0, 1, 0, 0, 0, 0, 0, 0, 0]\nclass = 2", fillcolor="#7be539"] ;
494 -> 496 ;
497 [label="danceability <= 0.417\ngini = 0.198\nsamples = 9\nvalue = [0, 1, 0, 8, 0, 0, 0, 0, 0, 0]\nclass = 3", fillcolor="#52e872"] ;
493 -> 497 ;
498 [label="gini = 0.0\nsamples = 1\nvalue = [0, 1, 0, 0, 0, 0, 0, 0, 0, 0]\nclass = 1", fillcolor="#e2e539"] ;
497 -> 498 ;
499 [label="gini = 0.0\nsamples = 8\nvalue = [0, 0, 0, 8, 0, 0, 0, 0, 0, 0]\nclass = 3", fillcolor="#39e55e"] ;
497 -> 499 ;
500 [label="popularity <= 33.5\ngini = 0.157\nsamples = 48\nvalue = [0, 1, 1, 44, 0, 0, 0, 2, 0, 0]\nclass = 3", fillcolor="#4ae76c"] ;
490 -> 500 ;
501 [label="tempo <= 78.375\ngini = 0.122\nsamples = 47\nvalue = [0, 1, 1, 44, 0, 0, 0, 1, 0, 0]\nclass = 3", fillcolor="#46e768"] ;
500 -> 501 ;
502 [label="energy <= 0.175\ngini = 0.56\nsamples = 5\nvalue = [0, 1, 1, 3, 0, 0, 0, 0, 0, 0]\nclass = 3", fillcolor="#9cf2ae"] ;
501 -> 502 ;
503 [label="gini = 0.0\nsamples = 3\nvalue = [0, 0, 0, 3, 0, 0, 0, 0, 0, 0]\nclass = 3", fillcolor="#39e55e"] ;
502 -> 503 ;
504 [label="valence <= 0.473\ngini = 0.5\nsamples = 2\nvalue = [0, 1, 1, 0, 0, 0, 0, 0, 0, 0]\nclass = 1", fillcolor="#ffffff"] ;
502 -> 504 ;
505 [label="gini = 0.0\nsamples = 1\nvalue = [0, 1, 0, 0, 0, 0, 0, 0, 0, 0]\nclass = 1", fillcolor="#e2e539"] ;
504 -> 505 ;
506 [label="gini = 0.0\nsamples = 1\nvalue = [0, 0, 1, 0, 0, 0, 0, 0, 0, 0]\nclass = 2", fillcolor="#7be539"] ;
504 -> 506 ;
507 [label="danceability <= 0.491\ngini = 0.046\nsamples = 42\nvalue = [0, 0, 0, 41, 0, 0, 0, 1, 0, 0]\nclass = 3", fillcolor="#3ee662"] ;
501 -> 507 ;
508 [label="gini = 0.0\nsamples = 35\nvalue = [0, 0, 0, 35, 0, 0, 0, 0, 0, 0]\nclass = 3", fillcolor="#39e55e"] ;
507 -> 508 ;
509 [label="danceability <= 0.493\ngini = 0.245\nsamples = 7\nvalue = [0, 0, 0, 6, 0, 0, 0, 1, 0, 0]\nclass = 3", fillcolor="#5ae979"] ;
507 -> 509 ;
510 [label="gini = 0.0\nsamples = 1\nvalue = [0, 0, 0, 0, 0, 0, 0, 1, 0, 0]\nclass = 7", fillcolor="#a339e5"] ;
509 -> 510 ;
511 [label="gini = 0.0\nsamples = 6\nvalue = [0, 0, 0, 6, 0, 0, 0, 0, 0, 0]\nclass = 3", fillcolor="#39e55e"] ;
509 -> 511 ;
512 [label="gini = 0.0\nsamples = 1\nvalue = [0, 0, 0, 0, 0, 0, 0, 1, 0, 0]\nclass = 7", fillcolor="#a339e5"] ;
500 -> 512 ;
513 [label="acousticness <= 0.97\ngini = 0.611\nsamples = 6\nvalue = [0, 3, 1, 2, 0, 0, 0, 0, 0, 0]\nclass = 1", fillcolor="#f8f8ce"] ;
457 -> 513 ;
514 [label="tempo <= 188.785\ngini = 0.444\nsamples = 3\nvalue = [0, 0, 1, 2, 0, 0, 0, 0, 0, 0]\nclass = 3", fillcolor="#9cf2ae"] ;
513 -> 514 ;
515 [label="gini = 0.0\nsamples = 2\nvalue = [0, 0, 0, 2, 0, 0, 0, 0, 0, 0]\nclass = 3", fillcolor="#39e55e"] ;
514 -> 515 ;
516 [label="gini = 0.0\nsamples = 1\nvalue = [0, 0, 1, 0, 0, 0, 0, 0, 0, 0]\nclass = 2", fillcolor="#7be539"] ;
514 -> 516 ;
517 [label="gini = 0.0\nsamples = 3\nvalue = [0, 3, 0, 0, 0, 0, 0, 0, 0, 0]\nclass = 1", fillcolor="#e2e539"] ;
513 -> 517 ;
518 [label="energy <= 0.101\ngini = 0.577\nsamples = 55\nvalue = [1, 7, 5, 34, 0, 1, 0, 7, 0, 0]\nclass = 3", fillcolor="#90f0a4"] ;
456 -> 518 ;
519 [label="energy <= 0.064\ngini = 0.531\nsamples = 8\nvalue = [0, 0, 2, 1, 0, 0, 0, 5, 0, 0]\nclass = 7", fillcolor="#d19cf2"] ;
518 -> 519 ;
520 [label="danceability <= 0.459\ngini = 0.444\nsamples = 3\nvalue = [0, 0, 2, 1, 0, 0, 0, 0, 0, 0]\nclass = 2", fillcolor="#bdf29c"] ;
519 -> 520 ;
521 [label="gini = 0.0\nsamples = 1\nvalue = [0, 0, 0, 1, 0, 0, 0, 0, 0, 0]\nclass = 3", fillcolor="#39e55e"] ;
520 -> 521 ;
522 [label="gini = 0.0\nsamples = 2\nvalue = [0, 0, 2, 0, 0, 0, 0, 0, 0, 0]\nclass = 2", fillcolor="#7be539"] ;
520 -> 522 ;
523 [label="gini = 0.0\nsamples = 5\nvalue = [0, 0, 0, 0, 0, 0, 0, 5, 0, 0]\nclass = 7", fillcolor="#a339e5"] ;
519 -> 523 ;
524 [label="speechiness <= 0.032\ngini = 0.478\nsamples = 47\nvalue = [1, 7, 3, 33, 0, 1, 0, 2, 0, 0]\nclass = 3", fillcolor="#7eee96"] ;
518 -> 524 ;
525 [label="tempo <= 147.964\ngini = 0.5\nsamples = 2\nvalue = [0, 0, 0, 0, 0, 1, 0, 1, 0, 0]\nclass = 5", fillcolor="#ffffff"] ;
524 -> 525 ;
526 [label="gini = 0.0\nsamples = 1\nvalue = [0, 0, 0, 0, 0, 0, 0, 1, 0, 0]\nclass = 7", fillcolor="#a339e5"] ;
525 -> 526 ;
527 [label="gini = 0.0\nsamples = 1\nvalue = [0, 0, 0, 0, 0, 1, 0, 0, 0, 0]\nclass = 5", fillcolor="#399de5"] ;
525 -> 527 ;
528 [label="acousticness <= 0.803\ngini = 0.433\nsamples = 45\nvalue = [1, 7, 3, 33, 0, 0, 0, 1, 0, 0]\nclass = 3", fillcolor="#78ed91"] ;
524 -> 528 ;
529 [label="tempo <= 122.881\ngini = 0.5\nsamples = 2\nvalue = [1, 1, 0, 0, 0, 0, 0, 0, 0, 0]\nclass = 0", fillcolor="#ffffff"] ;
528 -> 529 ;
530 [label="gini = 0.0\nsamples = 1\nvalue = [0, 1, 0, 0, 0, 0, 0, 0, 0, 0]\nclass = 1", fillcolor="#e2e539"] ;
529 -> 530 ;
531 [label="gini = 0.0\nsamples = 1\nvalue = [1, 0, 0, 0, 0, 0, 0, 0, 0, 0]\nclass = 0", fillcolor="#e58139"] ;
529 -> 531 ;
532 [label="tempo <= 76.957\ngini = 0.386\nsamples = 43\nvalue = [0, 6, 3, 33, 0, 0, 0, 1, 0, 0]\nclass = 3", fillcolor="#6fec8a"] ;
528 -> 532 ;
533 [label="liveness <= 0.121\ngini = 0.625\nsamples = 4\nvalue = [0, 2, 1, 1, 0, 0, 0, 0, 0, 0]\nclass = 1", fillcolor="#f5f6bd"] ;
532 -> 533 ;
534 [label="gini = 0.0\nsamples = 2\nvalue = [0, 2, 0, 0, 0, 0, 0, 0, 0, 0]\nclass = 1", fillcolor="#e2e539"] ;
533 -> 534 ;
535 [label="popularity <= 16.0\ngini = 0.5\nsamples = 2\nvalue = [0, 0, 1, 1, 0, 0, 0, 0, 0, 0]\nclass = 2", fillcolor="#ffffff"] ;
533 -> 535 ;
536 [label="gini = 0.0\nsamples = 1\nvalue = [0, 0, 0, 1, 0, 0, 0, 0, 0, 0]\nclass = 3", fillcolor="#39e55e"] ;
535 -> 536 ;
537 [label="gini = 0.0\nsamples = 1\nvalue = [0, 0, 1, 0, 0, 0, 0, 0, 0, 0]\nclass = 2", fillcolor="#7be539"] ;
535 -> 537 ;
538 [label="liveness <= 0.845\ngini = 0.313\nsamples = 39\nvalue = [0, 4, 2, 32, 0, 0, 0, 1, 0, 0]\nclass = 3", fillcolor="#61ea7e"] ;
532 -> 538 ;
539 [label="tempo <= 177.824\ngini = 0.278\nsamples = 38\nvalue = [0, 4, 1, 32, 0, 0, 0, 1, 0, 0]\nclass = 3", fillcolor="#5cea7a"] ;
538 -> 539 ;
540 [label="energy <= 0.113\ngini = 0.244\nsamples = 37\nvalue = [0, 3, 1, 32, 0, 0, 0, 1, 0, 0]\nclass = 3", fillcolor="#56e976"] ;
539 -> 540 ;
541 [label="gini = 0.0\nsamples = 1\nvalue = [0, 1, 0, 0, 0, 0, 0, 0, 0, 0]\nclass = 1", fillcolor="#e2e539"] ;
540 -> 541 ;
542 [label="loudness <= -18.528\ngini = 0.205\nsamples = 36\nvalue = [0, 2, 1, 32, 0, 0, 0, 1, 0, 0]\nclass = 3", fillcolor="#50e871"] ;
540 -> 542 ;
543 [label="energy <= 0.172\ngini = 0.444\nsamples = 6\nvalue = [0, 2, 0, 4, 0, 0, 0, 0, 0, 0]\nclass = 3", fillcolor="#9cf2ae"] ;
542 -> 543 ;
544 [label="gini = 0.0\nsamples = 4\nvalue = [0, 0, 0, 4, 0, 0, 0, 0, 0, 0]\nclass = 3", fillcolor="#39e55e"] ;
543 -> 544 ;
545 [label="gini = 0.0\nsamples = 2\nvalue = [0, 2, 0, 0, 0, 0, 0, 0, 0, 0]\nclass = 1", fillcolor="#e2e539"] ;
543 -> 545 ;
546 [label="acousticness <= 0.837\ngini = 0.127\nsamples = 30\nvalue = [0, 0, 1, 28, 0, 0, 0, 1, 0, 0]\nclass = 3", fillcolor="#47e769"] ;
542 -> 546 ;
547 [label="key <= 9.0\ngini = 0.5\nsamples = 2\nvalue = [0, 0, 1, 1, 0, 0, 0, 0, 0, 0]\nclass = 2", fillcolor="#ffffff"] ;
546 -> 547 ;
548 [label="gini = 0.0\nsamples = 1\nvalue = [0, 0, 0, 1, 0, 0, 0, 0, 0, 0]\nclass = 3", fillcolor="#39e55e"] ;
547 -> 548 ;
549 [label="gini = 0.0\nsamples = 1\nvalue = [0, 0, 1, 0, 0, 0, 0, 0, 0, 0]\nclass = 2", fillcolor="#7be539"] ;
547 -> 549 ;
550 [label="valence <= 0.681\ngini = 0.069\nsamples = 28\nvalue = [0, 0, 0, 27, 0, 0, 0, 1, 0, 0]\nclass = 3", fillcolor="#40e664"] ;
546 -> 550 ;
551 [label="gini = 0.0\nsamples = 24\nvalue = [0, 0, 0, 24, 0, 0, 0, 0, 0, 0]\nclass = 3", fillcolor="#39e55e"] ;
550 -> 551 ;
552 [label="liveness <= 0.091\ngini = 0.375\nsamples = 4\nvalue = [0, 0, 0, 3, 0, 0, 0, 1, 0, 0]\nclass = 3", fillcolor="#7bee94"] ;
550 -> 552 ;
553 [label="gini = 0.0\nsamples = 1\nvalue = [0, 0, 0, 0, 0, 0, 0, 1, 0, 0]\nclass = 7", fillcolor="#a339e5"] ;
552 -> 553 ;
554 [label="gini = 0.0\nsamples = 3\nvalue = [0, 0, 0, 3, 0, 0, 0, 0, 0, 0]\nclass = 3", fillcolor="#39e55e"] ;
552 -> 554 ;
555 [label="gini = 0.0\nsamples = 1\nvalue = [0, 1, 0, 0, 0, 0, 0, 0, 0, 0]\nclass = 1", fillcolor="#e2e539"] ;
539 -> 555 ;
556 [label="gini = 0.0\nsamples = 1\nvalue = [0, 0, 1, 0, 0, 0, 0, 0, 0, 0]\nclass = 2", fillcolor="#7be539"] ;
538 -> 556 ;
557 [label="acousticness <= 0.981\ngini = 0.524\nsamples = 229\nvalue = [3, 1, 10, 143, 5, 1, 0, 66, 0, 0]\nclass = 3", fillcolor="#a1f3b3"] ;
387 -> 557 ;
558 [label="valence <= 0.263\ngini = 0.63\nsamples = 119\nvalue = [2, 1, 10, 49, 5, 0, 0, 52, 0, 0]\nclass = 7", fillcolor="#fbf7fe"] ;
557 -> 558 ;
559 [label="liveness <= 0.093\ngini = 0.538\nsamples = 65\nvalue = [0, 1, 5, 18, 1, 0, 0, 40, 0, 0]\nclass = 7", fillcolor="#d4a2f3"] ;
558 -> 559 ;
560 [label="danceability <= 0.432\ngini = 0.439\nsamples = 14\nvalue = [0, 1, 0, 10, 0, 0, 0, 3, 0, 0]\nclass = 3", fillcolor="#81ee99"] ;
559 -> 560 ;
561 [label="tempo <= 118.954\ngini = 0.198\nsamples = 9\nvalue = [0, 1, 0, 8, 0, 0, 0, 0, 0, 0]\nclass = 3", fillcolor="#52e872"] ;
560 -> 561 ;
562 [label="gini = 0.0\nsamples = 8\nvalue = [0, 0, 0, 8, 0, 0, 0, 0, 0, 0]\nclass = 3", fillcolor="#39e55e"] ;
561 -> 562 ;
563 [label="gini = 0.0\nsamples = 1\nvalue = [0, 1, 0, 0, 0, 0, 0, 0, 0, 0]\nclass = 1", fillcolor="#e2e539"] ;
561 -> 563 ;
564 [label="mode <= 0.5\ngini = 0.48\nsamples = 5\nvalue = [0, 0, 0, 2, 0, 0, 0, 3, 0, 0]\nclass = 7", fillcolor="#e0bdf6"] ;
560 -> 564 ;
565 [label="gini = 0.0\nsamples = 3\nvalue = [0, 0, 0, 0, 0, 0, 0, 3, 0, 0]\nclass = 7", fillcolor="#a339e5"] ;
564 -> 565 ;
566 [label="gini = 0.0\nsamples = 2\nvalue = [0, 0, 0, 2, 0, 0, 0, 0, 0, 0]\nclass = 3", fillcolor="#39e55e"] ;
564 -> 566 ;
567 [label="instrumentalness <= 0.0\ngini = 0.439\nsamples = 51\nvalue = [0, 0, 5, 8, 1, 0, 0, 37, 0, 0]\nclass = 7", fillcolor="#c179ed"] ;
559 -> 567 ;
568 [label="energy <= 0.106\ngini = 0.469\nsamples = 8\nvalue = [0, 0, 5, 0, 0, 0, 0, 3, 0, 0]\nclass = 2", fillcolor="#caf5b0"] ;
567 -> 568 ;
569 [label="danceability <= 0.501\ngini = 0.278\nsamples = 6\nvalue = [0, 0, 5, 0, 0, 0, 0, 1, 0, 0]\nclass = 2", fillcolor="#95ea61"] ;
568 -> 569 ;
570 [label="gini = 0.0\nsamples = 4\nvalue = [0, 0, 4, 0, 0, 0, 0, 0, 0, 0]\nclass = 2", fillcolor="#7be539"] ;
569 -> 570 ;
571 [label="popularity <= 43.0\ngini = 0.5\nsamples = 2\nvalue = [0, 0, 1, 0, 0, 0, 0, 1, 0, 0]\nclass = 2", fillcolor="#ffffff"] ;
569 -> 571 ;
572 [label="gini = 0.0\nsamples = 1\nvalue = [0, 0, 1, 0, 0, 0, 0, 0, 0, 0]\nclass = 2", fillcolor="#7be539"] ;
571 -> 572 ;
573 [label="gini = 0.0\nsamples = 1\nvalue = [0, 0, 0, 0, 0, 0, 0, 1, 0, 0]\nclass = 7", fillcolor="#a339e5"] ;
571 -> 573 ;
574 [label="gini = 0.0\nsamples = 2\nvalue = [0, 0, 0, 0, 0, 0, 0, 2, 0, 0]\nclass = 7", fillcolor="#a339e5"] ;
568 -> 574 ;
575 [label="tempo <= 110.734\ngini = 0.34\nsamples = 43\nvalue = [0, 0, 0, 8, 1, 0, 0, 34, 0, 0]\nclass = 7", fillcolor="#bb6cec"] ;
567 -> 575 ;
576 [label="valence <= 0.237\ngini = 0.087\nsamples = 22\nvalue = [0, 0, 0, 0, 1, 0, 0, 21, 0, 0]\nclass = 7", fillcolor="#a742e6"] ;
575 -> 576 ;
577 [label="gini = 0.0\nsamples = 19\nvalue = [0, 0, 0, 0, 0, 0, 0, 19, 0, 0]\nclass = 7", fillcolor="#a339e5"] ;
576 -> 577 ;
578 [label="liveness <= 0.1\ngini = 0.444\nsamples = 3\nvalue = [0, 0, 0, 0, 1, 0, 0, 2, 0, 0]\nclass = 7", fillcolor="#d19cf2"] ;
576 -> 578 ;
579 [label="gini = 0.0\nsamples = 1\nvalue = [0, 0, 0, 0, 1, 0, 0, 0, 0, 0]\nclass = 4", fillcolor="#39e5c5"] ;
578 -> 579 ;
580 [label="gini = 0.0\nsamples = 2\nvalue = [0, 0, 0, 0, 0, 0, 0, 2, 0, 0]\nclass = 7", fillcolor="#a339e5"] ;
578 -> 580 ;
581 [label="loudness <= -23.054\ngini = 0.472\nsamples = 21\nvalue = [0, 0, 0, 8, 0, 0, 0, 13, 0, 0]\nclass = 7", fillcolor="#dcb3f5"] ;
575 -> 581 ;
582 [label="duration_ms <= 428220.0\ngini = 0.278\nsamples = 6\nvalue = [0, 0, 0, 5, 0, 0, 0, 1, 0, 0]\nclass = 3", fillcolor="#61ea7e"] ;
581 -> 582 ;
583 [label="gini = 0.0\nsamples = 5\nvalue = [0, 0, 0, 5, 0, 0, 0, 0, 0, 0]\nclass = 3", fillcolor="#39e55e"] ;
582 -> 583 ;
584 [label="gini = 0.0\nsamples = 1\nvalue = [0, 0, 0, 0, 0, 0, 0, 1, 0, 0]\nclass = 7", fillcolor="#a339e5"] ;
582 -> 584 ;
585 [label="energy <= 0.214\ngini = 0.32\nsamples = 15\nvalue = [0, 0, 0, 3, 0, 0, 0, 12, 0, 0]\nclass = 7", fillcolor="#ba6aec"] ;
581 -> 585 ;
586 [label="duration_ms <= 531060.0\ngini = 0.142\nsamples = 13\nvalue = [0, 0, 0, 1, 0, 0, 0, 12, 0, 0]\nclass = 7", fillcolor="#ab49e7"] ;
585 -> 586 ;
587 [label="gini = 0.0\nsamples = 12\nvalue = [0, 0, 0, 0, 0, 0, 0, 12, 0, 0]\nclass = 7", fillcolor="#a339e5"] ;
586 -> 587 ;
588 [label="gini = 0.0\nsamples = 1\nvalue = [0, 0, 0, 1, 0, 0, 0, 0, 0, 0]\nclass = 3", fillcolor="#39e55e"] ;
586 -> 588 ;
589 [label="gini = 0.0\nsamples = 2\nvalue = [0, 0, 0, 2, 0, 0, 0, 0, 0, 0]\nclass = 3", fillcolor="#39e55e"] ;
585 -> 589 ;
590 [label="energy <= 0.281\ngini = 0.606\nsamples = 54\nvalue = [2, 0, 5, 31, 4, 0, 0, 12, 0, 0]\nclass = 3", fillcolor="#a5f3b6"] ;
558 -> 590 ;
591 [label="tempo <= 176.207\ngini = 0.572\nsamples = 50\nvalue = [2, 0, 5, 31, 4, 0, 0, 8, 0, 0]\nclass = 3", fillcolor="#93f1a7"] ;
590 -> 591 ;
592 [label="instrumentalness <= 0.004\ngini = 0.533\nsamples = 47\nvalue = [2, 0, 5, 31, 4, 0, 0, 5, 0, 0]\nclass = 3", fillcolor="#84ef9b"] ;
591 -> 592 ;
593 [label="speechiness <= 0.038\ngini = 0.782\nsamples = 17\nvalue = [2, 0, 3, 5, 3, 0, 0, 4, 0, 0]\nclass = 3", fillcolor="#f0fdf3"] ;
592 -> 593 ;
594 [label="instrumentalness <= 0.001\ngini = 0.744\nsamples = 11\nvalue = [2, 0, 3, 3, 3, 0, 0, 0, 0, 0]\nclass = 2", fillcolor="#ffffff"] ;
593 -> 594 ;
595 [label="popularity <= 44.0\ngini = 0.667\nsamples = 9\nvalue = [0, 0, 3, 3, 3, 0, 0, 0, 0, 0]\nclass = 2", fillcolor="#ffffff"] ;
594 -> 595 ;
596 [label="liveness <= 0.304\ngini = 0.612\nsamples = 7\nvalue = [0, 0, 3, 3, 1, 0, 0, 0, 0, 0]\nclass = 2", fillcolor="#ffffff"] ;
595 -> 596 ;
597 [label="liveness <= 0.118\ngini = 0.56\nsamples = 5\nvalue = [0, 0, 1, 3, 1, 0, 0, 0, 0, 0]\nclass = 3", fillcolor="#9cf2ae"] ;
596 -> 597 ;
598 [label="energy <= 0.144\ngini = 0.5\nsamples = 2\nvalue = [0, 0, 1, 0, 1, 0, 0, 0, 0, 0]\nclass = 2", fillcolor="#ffffff"] ;
597 -> 598 ;
599 [label="gini = 0.0\nsamples = 1\nvalue = [0, 0, 0, 0, 1, 0, 0, 0, 0, 0]\nclass = 4", fillcolor="#39e5c5"] ;
598 -> 599 ;
600 [label="gini = 0.0\nsamples = 1\nvalue = [0, 0, 1, 0, 0, 0, 0, 0, 0, 0]\nclass = 2", fillcolor="#7be539"] ;
598 -> 600 ;
601 [label="gini = 0.0\nsamples = 3\nvalue = [0, 0, 0, 3, 0, 0, 0, 0, 0, 0]\nclass = 3", fillcolor="#39e55e"] ;
597 -> 601 ;
602 [label="gini = 0.0\nsamples = 2\nvalue = [0, 0, 2, 0, 0, 0, 0, 0, 0, 0]\nclass = 2", fillcolor="#7be539"] ;
596 -> 602 ;
603 [label="gini = 0.0\nsamples = 2\nvalue = [0, 0, 0, 0, 2, 0, 0, 0, 0, 0]\nclass = 4", fillcolor="#39e5c5"] ;
595 -> 603 ;
604 [label="gini = 0.0\nsamples = 2\nvalue = [2, 0, 0, 0, 0, 0, 0, 0, 0, 0]\nclass = 0", fillcolor="#e58139"] ;
594 -> 604 ;
605 [label="tempo <= 127.973\ngini = 0.444\nsamples = 6\nvalue = [0, 0, 0, 2, 0, 0, 0, 4, 0, 0]\nclass = 7", fillcolor="#d19cf2"] ;
593 -> 605 ;
606 [label="gini = 0.0\nsamples = 4\nvalue = [0, 0, 0, 0, 0, 0, 0, 4, 0, 0]\nclass = 7", fillcolor="#a339e5"] ;
605 -> 606 ;
607 [label="gini = 0.0\nsamples = 2\nvalue = [0, 0, 0, 2, 0, 0, 0, 0, 0, 0]\nclass = 3", fillcolor="#39e55e"] ;
605 -> 607 ;
608 [label="speechiness <= 0.031\ngini = 0.242\nsamples = 30\nvalue = [0, 0, 2, 26, 1, 0, 0, 1, 0, 0]\nclass = 3", fillcolor="#55e975"] ;
592 -> 608 ;
609 [label="gini = 0.0\nsamples = 1\nvalue = [0, 0, 1, 0, 0, 0, 0, 0, 0, 0]\nclass = 2", fillcolor="#7be539"] ;
608 -> 609 ;
610 [label="speechiness <= 0.037\ngini = 0.193\nsamples = 29\nvalue = [0, 0, 1, 26, 1, 0, 0, 1, 0, 0]\nclass = 3", fillcolor="#4ee86f"] ;
608 -> 610 ;
611 [label="popularity <= 39.5\ngini = 0.519\nsamples = 9\nvalue = [0, 0, 1, 6, 1, 0, 0, 1, 0, 0]\nclass = 3", fillcolor="#83ef9a"] ;
610 -> 611 ;
612 [label="mode <= 0.5\ngini = 0.245\nsamples = 7\nvalue = [0, 0, 0, 6, 0, 0, 0, 1, 0, 0]\nclass = 3", fillcolor="#5ae979"] ;
611 -> 612 ;
613 [label="gini = 0.0\nsamples = 6\nvalue = [0, 0, 0, 6, 0, 0, 0, 0, 0, 0]\nclass = 3", fillcolor="#39e55e"] ;
612 -> 613 ;
614 [label="gini = 0.0\nsamples = 1\nvalue = [0, 0, 0, 0, 0, 0, 0, 1, 0, 0]\nclass = 7", fillcolor="#a339e5"] ;
612 -> 614 ;
615 [label="energy <= 0.126\ngini = 0.5\nsamples = 2\nvalue = [0, 0, 1, 0, 1, 0, 0, 0, 0, 0]\nclass = 2", fillcolor="#ffffff"] ;
611 -> 615 ;
616 [label="gini = 0.0\nsamples = 1\nvalue = [0, 0, 1, 0, 0, 0, 0, 0, 0, 0]\nclass = 2", fillcolor="#7be539"] ;
615 -> 616 ;
617 [label="gini = 0.0\nsamples = 1\nvalue = [0, 0, 0, 0, 1, 0, 0, 0, 0, 0]\nclass = 4", fillcolor="#39e5c5"] ;
615 -> 617 ;
618 [label="gini = 0.0\nsamples = 20\nvalue = [0, 0, 0, 20, 0, 0, 0, 0, 0, 0]\nclass = 3", fillcolor="#39e55e"] ;
610 -> 618 ;
619 [label="gini = 0.0\nsamples = 3\nvalue = [0, 0, 0, 0, 0, 0, 0, 3, 0, 0]\nclass = 7", fillcolor="#a339e5"] ;
591 -> 619 ;
620 [label="gini = 0.0\nsamples = 4\nvalue = [0, 0, 0, 0, 0, 0, 0, 4, 0, 0]\nclass = 7", fillcolor="#a339e5"] ;
590 -> 620 ;
621 [label="instrumentalness <= 0.822\ngini = 0.253\nsamples = 110\nvalue = [1, 0, 0, 94, 0, 1, 0, 14, 0, 0]\nclass = 3", fillcolor="#5ae979"] ;
557 -> 621 ;
622 [label="valence <= 0.262\ngini = 0.588\nsamples = 17\nvalue = [1, 0, 0, 9, 0, 1, 0, 6, 0, 0]\nclass = 3", fillcolor="#c9f8d3"] ;
621 -> 622 ;
623 [label="tempo <= 74.005\ngini = 0.58\nsamples = 10\nvalue = [1, 0, 0, 2, 0, 1, 0, 6, 0, 0]\nclass = 7", fillcolor="#d19cf2"] ;
622 -> 623 ;
624 [label="gini = 0.0\nsamples = 2\nvalue = [0, 0, 0, 2, 0, 0, 0, 0, 0, 0]\nclass = 3", fillcolor="#39e55e"] ;
623 -> 624 ;
625 [label="duration_ms <= 165873.5\ngini = 0.406\nsamples = 8\nvalue = [1, 0, 0, 0, 0, 1, 0, 6, 0, 0]\nclass = 7", fillcolor="#bd72ec"] ;
623 -> 625 ;
626 [label="popularity <= 40.5\ngini = 0.5\nsamples = 2\nvalue = [1, 0, 0, 0, 0, 1, 0, 0, 0, 0]\nclass = 0", fillcolor="#ffffff"] ;
625 -> 626 ;
627 [label="gini = 0.0\nsamples = 1\nvalue = [0, 0, 0, 0, 0, 1, 0, 0, 0, 0]\nclass = 5", fillcolor="#399de5"] ;
626 -> 627 ;
628 [label="gini = 0.0\nsamples = 1\nvalue = [1, 0, 0, 0, 0, 0, 0, 0, 0, 0]\nclass = 0", fillcolor="#e58139"] ;
626 -> 628 ;
629 [label="gini = 0.0\nsamples = 6\nvalue = [0, 0, 0, 0, 0, 0, 0, 6, 0, 0]\nclass = 7", fillcolor="#a339e5"] ;
625 -> 629 ;
630 [label="gini = 0.0\nsamples = 7\nvalue = [0, 0, 0, 7, 0, 0, 0, 0, 0, 0]\nclass = 3", fillcolor="#39e55e"] ;
622 -> 630 ;
631 [label="speechiness <= 0.028\ngini = 0.157\nsamples = 93\nvalue = [0, 0, 0, 85, 0, 0, 0, 8, 0, 0]\nclass = 3", fillcolor="#4ce76d"] ;
621 -> 631 ;
632 [label="gini = 0.0\nsamples = 1\nvalue = [0, 0, 0, 0, 0, 0, 0, 1, 0, 0]\nclass = 7", fillcolor="#a339e5"] ;
631 -> 632 ;
633 [label="duration_ms <= 320373.0\ngini = 0.141\nsamples = 92\nvalue = [0, 0, 0, 85, 0, 0, 0, 7, 0, 0]\nclass = 3", fillcolor="#49e76b"] ;
631 -> 633 ;
634 [label="instrumentalness <= 0.944\ngini = 0.056\nsamples = 70\nvalue = [0, 0, 0, 68, 0, 0, 0, 2, 0, 0]\nclass = 3", fillcolor="#3fe663"] ;
633 -> 634 ;
635 [label="gini = 0.0\nsamples = 59\nvalue = [0, 0, 0, 59, 0, 0, 0, 0, 0, 0]\nclass = 3", fillcolor="#39e55e"] ;
634 -> 635 ;
636 [label="speechiness <= 0.05\ngini = 0.298\nsamples = 11\nvalue = [0, 0, 0, 9, 0, 0, 0, 2, 0, 0]\nclass = 3", fillcolor="#65eb82"] ;
634 -> 636 ;
637 [label="acousticness <= 0.995\ngini = 0.444\nsamples = 3\nvalue = [0, 0, 0, 1, 0, 0, 0, 2, 0, 0]\nclass = 7", fillcolor="#d19cf2"] ;
636 -> 637 ;
638 [label="gini = 0.0\nsamples = 1\nvalue = [0, 0, 0, 1, 0, 0, 0, 0, 0, 0]\nclass = 3", fillcolor="#39e55e"] ;
637 -> 638 ;
639 [label="gini = 0.0\nsamples = 2\nvalue = [0, 0, 0, 0, 0, 0, 0, 2, 0, 0]\nclass = 7", fillcolor="#a339e5"] ;
637 -> 639 ;
640 [label="gini = 0.0\nsamples = 8\nvalue = [0, 0, 0, 8, 0, 0, 0, 0, 0, 0]\nclass = 3", fillcolor="#39e55e"] ;
636 -> 640 ;
641 [label="loudness <= -20.599\ngini = 0.351\nsamples = 22\nvalue = [0, 0, 0, 17, 0, 0, 0, 5, 0, 0]\nclass = 3", fillcolor="#73ed8d"] ;
633 -> 641 ;
642 [label="danceability <= 0.467\ngini = 0.188\nsamples = 19\nvalue = [0, 0, 0, 17, 0, 0, 0, 2, 0, 0]\nclass = 3", fillcolor="#50e871"] ;
641 -> 642 ;
643 [label="duration_ms <= 329506.5\ngini = 0.105\nsamples = 18\nvalue = [0, 0, 0, 17, 0, 0, 0, 1, 0, 0]\nclass = 3", fillcolor="#45e767"] ;
642 -> 643 ;
644 [label="gini = 0.0\nsamples = 1\nvalue = [0, 0, 0, 0, 0, 0, 0, 1, 0, 0]\nclass = 7", fillcolor="#a339e5"] ;
643 -> 644 ;
645 [label="gini = 0.0\nsamples = 17\nvalue = [0, 0, 0, 17, 0, 0, 0, 0, 0, 0]\nclass = 3", fillcolor="#39e55e"] ;
643 -> 645 ;
646 [label="gini = 0.0\nsamples = 1\nvalue = [0, 0, 0, 0, 0, 0, 0, 1, 0, 0]\nclass = 7", fillcolor="#a339e5"] ;
642 -> 646 ;
647 [label="gini = 0.0\nsamples = 3\nvalue = [0, 0, 0, 0, 0, 0, 0, 3, 0, 0]\nclass = 7", fillcolor="#a339e5"] ;
641 -> 647 ;
648 [label="popularity <= 30.5\ngini = 0.782\nsamples = 354\nvalue = [2, 70, 53, 91, 9, 25, 1, 103, 0, 0]\nclass = 7", fillcolor="#fbf6fe"] ;
2 -> 648 ;
649 [label="instrumentalness <= 0.819\ngini = 0.646\nsamples = 146\nvalue = [0, 67, 23, 50, 0, 2, 0, 4, 0, 0]\nclass = 1", fillcolor="#fafadc"] ;
648 -> 649 ;
650 [label="acousticness <= 0.838\ngini = 0.639\nsamples = 59\nvalue = [0, 9, 21, 27, 0, 0, 0, 2, 0, 0]\nclass = 3", fillcolor="#e0fbe6"] ;
649 -> 650 ;
651 [label="popularity <= 23.0\ngini = 0.322\nsamples = 21\nvalue = [0, 3, 17, 1, 0, 0, 0, 0, 0, 0]\nclass = 2", fillcolor="#98eb65"] ;
650 -> 651 ;
652 [label="instrumentalness <= 0.138\ngini = 0.375\nsamples = 4\nvalue = [0, 3, 1, 0, 0, 0, 0, 0, 0, 0]\nclass = 1", fillcolor="#ecee7b"] ;
651 -> 652 ;
653 [label="gini = 0.0\nsamples = 1\nvalue = [0, 0, 1, 0, 0, 0, 0, 0, 0, 0]\nclass = 2", fillcolor="#7be539"] ;
652 -> 653 ;
654 [label="gini = 0.0\nsamples = 3\nvalue = [0, 3, 0, 0, 0, 0, 0, 0, 0, 0]\nclass = 1", fillcolor="#e2e539"] ;
652 -> 654 ;
655 [label="valence <= 0.258\ngini = 0.111\nsamples = 17\nvalue = [0, 0, 16, 1, 0, 0, 0, 0, 0, 0]\nclass = 2", fillcolor="#83e745"] ;
651 -> 655 ;
656 [label="gini = 0.0\nsamples = 1\nvalue = [0, 0, 0, 1, 0, 0, 0, 0, 0, 0]\nclass = 3", fillcolor="#39e55e"] ;
655 -> 656 ;
657 [label="gini = 0.0\nsamples = 16\nvalue = [0, 0, 16, 0, 0, 0, 0, 0, 0, 0]\nclass = 2", fillcolor="#7be539"] ;
655 -> 657 ;
658 [label="liveness <= 0.15\ngini = 0.493\nsamples = 38\nvalue = [0, 6, 4, 26, 0, 0, 0, 2, 0, 0]\nclass = 3", fillcolor="#83ef9a"] ;
650 -> 658 ;
659 [label="tempo <= 109.112\ngini = 0.689\nsamples = 21\nvalue = [0, 6, 4, 9, 0, 0, 0, 2, 0, 0]\nclass = 3", fillcolor="#d7fadf"] ;
658 -> 659 ;
660 [label="popularity <= 19.0\ngini = 0.694\nsamples = 11\nvalue = [0, 4, 4, 1, 0, 0, 0, 2, 0, 0]\nclass = 1", fillcolor="#ffffff"] ;
659 -> 660 ;
661 [label="tempo <= 82.139\ngini = 0.32\nsamples = 5\nvalue = [0, 4, 0, 0, 0, 0, 0, 1, 0, 0]\nclass = 1", fillcolor="#e9ec6a"] ;
660 -> 661 ;
662 [label="gini = 0.0\nsamples = 1\nvalue = [0, 0, 0, 0, 0, 0, 0, 1, 0, 0]\nclass = 7", fillcolor="#a339e5"] ;
661 -> 662 ;
663 [label="gini = 0.0\nsamples = 4\nvalue = [0, 4, 0, 0, 0, 0, 0, 0, 0, 0]\nclass = 1", fillcolor="#e2e539"] ;
661 -> 663 ;
664 [label="key <= 4.5\ngini = 0.5\nsamples = 6\nvalue = [0, 0, 4, 1, 0, 0, 0, 1, 0, 0]\nclass = 2", fillcolor="#b0ef88"] ;
660 -> 664 ;
665 [label="acousticness <= 0.967\ngini = 0.5\nsamples = 2\nvalue = [0, 0, 0, 1, 0, 0, 0, 1, 0, 0]\nclass = 3", fillcolor="#ffffff"] ;
664 -> 665 ;
666 [label="gini = 0.0\nsamples = 1\nvalue = [0, 0, 0, 0, 0, 0, 0, 1, 0, 0]\nclass = 7", fillcolor="#a339e5"] ;
665 -> 666 ;
667 [label="gini = 0.0\nsamples = 1\nvalue = [0, 0, 0, 1, 0, 0, 0, 0, 0, 0]\nclass = 3", fillcolor="#39e55e"] ;
665 -> 667 ;
668 [label="gini = 0.0\nsamples = 4\nvalue = [0, 0, 4, 0, 0, 0, 0, 0, 0, 0]\nclass = 2", fillcolor="#7be539"] ;
664 -> 668 ;
669 [label="acousticness <= 0.984\ngini = 0.32\nsamples = 10\nvalue = [0, 2, 0, 8, 0, 0, 0, 0, 0, 0]\nclass = 3", fillcolor="#6aec86"] ;
659 -> 669 ;
670 [label="gini = 0.0\nsamples = 7\nvalue = [0, 0, 0, 7, 0, 0, 0, 0, 0, 0]\nclass = 3", fillcolor="#39e55e"] ;
669 -> 670 ;
671 [label="acousticness <= 0.993\ngini = 0.444\nsamples = 3\nvalue = [0, 2, 0, 1, 0, 0, 0, 0, 0, 0]\nclass = 1", fillcolor="#f0f29c"] ;
669 -> 671 ;
672 [label="gini = 0.0\nsamples = 2\nvalue = [0, 2, 0, 0, 0, 0, 0, 0, 0, 0]\nclass = 1", fillcolor="#e2e539"] ;
671 -> 672 ;
673 [label="gini = 0.0\nsamples = 1\nvalue = [0, 0, 0, 1, 0, 0, 0, 0, 0, 0]\nclass = 3", fillcolor="#39e55e"] ;
671 -> 673 ;
674 [label="gini = 0.0\nsamples = 17\nvalue = [0, 0, 0, 17, 0, 0, 0, 0, 0, 0]\nclass = 3", fillcolor="#39e55e"] ;
658 -> 674 ;
675 [label="popularity <= 27.5\ngini = 0.484\nsamples = 87\nvalue = [0, 58, 2, 23, 0, 2, 0, 2, 0, 0]\nclass = 1", fillcolor="#eff193"] ;
649 -> 675 ;
676 [label="popularity <= 5.5\ngini = 0.297\nsamples = 64\nvalue = [0, 53, 1, 8, 0, 0, 0, 2, 0, 0]\nclass = 1", fillcolor="#e8ea60"] ;
675 -> 676 ;
677 [label="speechiness <= 0.045\ngini = 0.642\nsamples = 9\nvalue = [0, 3, 0, 4, 0, 0, 0, 2, 0, 0]\nclass = 3", fillcolor="#defbe4"] ;
676 -> 677 ;
678 [label="gini = 0.0\nsamples = 3\nvalue = [0, 3, 0, 0, 0, 0, 0, 0, 0, 0]\nclass = 1", fillcolor="#e2e539"] ;
677 -> 678 ;
679 [label="tempo <= 93.761\ngini = 0.444\nsamples = 6\nvalue = [0, 0, 0, 4, 0, 0, 0, 2, 0, 0]\nclass = 3", fillcolor="#9cf2ae"] ;
677 -> 679 ;
680 [label="gini = 0.0\nsamples = 2\nvalue = [0, 0, 0, 0, 0, 0, 0, 2, 0, 0]\nclass = 7", fillcolor="#a339e5"] ;
679 -> 680 ;
681 [label="gini = 0.0\nsamples = 4\nvalue = [0, 0, 0, 4, 0, 0, 0, 0, 0, 0]\nclass = 3", fillcolor="#39e55e"] ;
679 -> 681 ;
682 [label="duration_ms <= 57466.5\ngini = 0.168\nsamples = 55\nvalue = [0, 50, 1, 4, 0, 0, 0, 0, 0, 0]\nclass = 1", fillcolor="#e5e84c"] ;
676 -> 682 ;
683 [label="gini = 0.0\nsamples = 2\nvalue = [0, 0, 0, 2, 0, 0, 0, 0, 0, 0]\nclass = 3", fillcolor="#39e55e"] ;
682 -> 683 ;
684 [label="loudness <= -38.861\ngini = 0.108\nsamples = 53\nvalue = [0, 50, 1, 2, 0, 0, 0, 0, 0, 0]\nclass = 1", fillcolor="#e4e745"] ;
682 -> 684 ;
685 [label="gini = 0.0\nsamples = 1\nvalue = [0, 0, 0, 1, 0, 0, 0, 0, 0, 0]\nclass = 3", fillcolor="#39e55e"] ;
684 -> 685 ;
686 [label="acousticness <= 0.61\ngini = 0.075\nsamples = 52\nvalue = [0, 50, 1, 1, 0, 0, 0, 0, 0, 0]\nclass = 1", fillcolor="#e3e641"] ;
684 -> 686 ;
687 [label="loudness <= -19.585\ngini = 0.5\nsamples = 2\nvalue = [0, 1, 1, 0, 0, 0, 0, 0, 0, 0]\nclass = 1", fillcolor="#ffffff"] ;
686 -> 687 ;
688 [label="gini = 0.0\nsamples = 1\nvalue = [0, 0, 1, 0, 0, 0, 0, 0, 0, 0]\nclass = 2", fillcolor="#7be539"] ;
687 -> 688 ;
689 [label="gini = 0.0\nsamples = 1\nvalue = [0, 1, 0, 0, 0, 0, 0, 0, 0, 0]\nclass = 1", fillcolor="#e2e539"] ;
687 -> 689 ;
690 [label="popularity <= 25.5\ngini = 0.039\nsamples = 50\nvalue = [0, 49, 0, 1, 0, 0, 0, 0, 0, 0]\nclass = 1", fillcolor="#e3e63d"] ;
686 -> 690 ;
691 [label="gini = 0.0\nsamples = 46\nvalue = [0, 46, 0, 0, 0, 0, 0, 0, 0, 0]\nclass = 1", fillcolor="#e2e539"] ;
690 -> 691 ;
692 [label="liveness <= 0.097\ngini = 0.375\nsamples = 4\nvalue = [0, 3, 0, 1, 0, 0, 0, 0, 0, 0]\nclass = 1", fillcolor="#ecee7b"] ;
690 -> 692 ;
693 [label="gini = 0.0\nsamples = 1\nvalue = [0, 0, 0, 1, 0, 0, 0, 0, 0, 0]\nclass = 3", fillcolor="#39e55e"] ;
692 -> 693 ;
694 [label="gini = 0.0\nsamples = 3\nvalue = [0, 3, 0, 0, 0, 0, 0, 0, 0, 0]\nclass = 1", fillcolor="#e2e539"] ;
692 -> 694 ;
695 [label="danceability <= 0.673\ngini = 0.518\nsamples = 23\nvalue = [0, 5, 1, 15, 0, 2, 0, 0, 0, 0]\nclass = 3", fillcolor="#91f1a6"] ;
675 -> 695 ;
696 [label="energy <= 0.425\ngini = 0.36\nsamples = 19\nvalue = [0, 2, 1, 15, 0, 1, 0, 0, 0, 0]\nclass = 3", fillcolor="#68eb84"] ;
695 -> 696 ;
697 [label="danceability <= 0.632\ngini = 0.117\nsamples = 16\nvalue = [0, 1, 0, 15, 0, 0, 0, 0, 0, 0]\nclass = 3", fillcolor="#46e769"] ;
696 -> 697 ;
698 [label="gini = 0.0\nsamples = 13\nvalue = [0, 0, 0, 13, 0, 0, 0, 0, 0, 0]\nclass = 3", fillcolor="#39e55e"] ;
697 -> 698 ;
699 [label="valence <= 0.413\ngini = 0.444\nsamples = 3\nvalue = [0, 1, 0, 2, 0, 0, 0, 0, 0, 0]\nclass = 3", fillcolor="#9cf2ae"] ;
697 -> 699 ;
700 [label="gini = 0.0\nsamples = 1\nvalue = [0, 1, 0, 0, 0, 0, 0, 0, 0, 0]\nclass = 1", fillcolor="#e2e539"] ;
699 -> 700 ;
701 [label="gini = 0.0\nsamples = 2\nvalue = [0, 0, 0, 2, 0, 0, 0, 0, 0, 0]\nclass = 3", fillcolor="#39e55e"] ;
699 -> 701 ;
702 [label="loudness <= -18.106\ngini = 0.667\nsamples = 3\nvalue = [0, 1, 1, 0, 0, 1, 0, 0, 0, 0]\nclass = 1", fillcolor="#ffffff"] ;
696 -> 702 ;
703 [label="gini = 0.0\nsamples = 1\nvalue = [0, 0, 1, 0, 0, 0, 0, 0, 0, 0]\nclass = 2", fillcolor="#7be539"] ;
702 -> 703 ;
704 [label="tempo <= 144.927\ngini = 0.5\nsamples = 2\nvalue = [0, 1, 0, 0, 0, 1, 0, 0, 0, 0]\nclass = 1", fillcolor="#ffffff"] ;
702 -> 704 ;
705 [label="gini = 0.0\nsamples = 1\nvalue = [0, 1, 0, 0, 0, 0, 0, 0, 0, 0]\nclass = 1", fillcolor="#e2e539"] ;
704 -> 705 ;
706 [label="gini = 0.0\nsamples = 1\nvalue = [0, 0, 0, 0, 0, 1, 0, 0, 0, 0]\nclass = 5", fillcolor="#399de5"] ;
704 -> 706 ;
707 [label="valence <= 0.789\ngini = 0.375\nsamples = 4\nvalue = [0, 3, 0, 0, 0, 1, 0, 0, 0, 0]\nclass = 1", fillcolor="#ecee7b"] ;
695 -> 707 ;
708 [label="gini = 0.0\nsamples = 3\nvalue = [0, 3, 0, 0, 0, 0, 0, 0, 0, 0]\nclass = 1", fillcolor="#e2e539"] ;
707 -> 708 ;
709 [label="gini = 0.0\nsamples = 1\nvalue = [0, 0, 0, 0, 0, 1, 0, 0, 0, 0]\nclass = 5", fillcolor="#399de5"] ;
707 -> 709 ;
710 [label="acousticness <= 0.983\ngini = 0.699\nsamples = 208\nvalue = [2, 3, 30, 41, 9, 23, 1, 99, 0, 0]\nclass = 7", fillcolor="#dfbaf6"] ;
648 -> 710 ;
711 [label="acousticness <= 0.664\ngini = 0.664\nsamples = 178\nvalue = [2, 2, 30, 17, 9, 23, 1, 94, 0, 0]\nclass = 7", fillcolor="#d7a9f4"] ;
710 -> 711 ;
712 [label="valence <= 0.387\ngini = 0.716\nsamples = 52\nvalue = [1, 1, 8, 0, 4, 19, 1, 18, 0, 0]\nclass = 5", fillcolor="#f9fcfe"] ;
711 -> 712 ;
713 [label="danceability <= 0.655\ngini = 0.447\nsamples = 26\nvalue = [0, 0, 0, 0, 1, 18, 0, 7, 0, 0]\nclass = 5", fillcolor="#8cc6f0"] ;
712 -> 713 ;
714 [label="loudness <= -18.957\ngini = 0.497\nsamples = 13\nvalue = [0, 0, 0, 0, 0, 6, 0, 7, 0, 0]\nclass = 7", fillcolor="#f2e3fb"] ;
713 -> 714 ;
715 [label="valence <= 0.322\ngini = 0.278\nsamples = 6\nvalue = [0, 0, 0, 0, 0, 5, 0, 1, 0, 0]\nclass = 5", fillcolor="#61b1ea"] ;
714 -> 715 ;
716 [label="gini = 0.0\nsamples = 4\nvalue = [0, 0, 0, 0, 0, 4, 0, 0, 0, 0]\nclass = 5", fillcolor="#399de5"] ;
715 -> 716 ;
717 [label="gini = 0.5\nsamples = 2\nvalue = [0, 0, 0, 0, 0, 1, 0, 1, 0, 0]\nclass = 5", fillcolor="#ffffff"] ;
715 -> 717 ;
718 [label="acousticness <= 0.209\ngini = 0.245\nsamples = 7\nvalue = [0, 0, 0, 0, 0, 1, 0, 6, 0, 0]\nclass = 7", fillcolor="#b25ae9"] ;
714 -> 718 ;
719 [label="gini = 0.5\nsamples = 2\nvalue = [0, 0, 0, 0, 0, 1, 0, 1, 0, 0]\nclass = 5", fillcolor="#ffffff"] ;
718 -> 719 ;
720 [label="gini = 0.0\nsamples = 5\nvalue = [0, 0, 0, 0, 0, 0, 0, 5, 0, 0]\nclass = 7", fillcolor="#a339e5"] ;
718 -> 720 ;
721 [label="instrumentalness <= 0.008\ngini = 0.142\nsamples = 13\nvalue = [0, 0, 0, 0, 1, 12, 0, 0, 0, 0]\nclass = 5", fillcolor="#49a5e7"] ;
713 -> 721 ;
722 [label="gini = 0.0\nsamples = 1\nvalue = [0, 0, 0, 0, 1, 0, 0, 0, 0, 0]\nclass = 4", fillcolor="#39e5c5"] ;
721 -> 722 ;
723 [label="gini = 0.0\nsamples = 12\nvalue = [0, 0, 0, 0, 0, 12, 0, 0, 0, 0]\nclass = 5", fillcolor="#399de5"] ;
721 -> 723 ;
724 [label="duration_ms <= 176604.0\ngini = 0.707\nsamples = 26\nvalue = [1, 1, 8, 0, 3, 1, 1, 11, 0, 0]\nclass = 7", fillcolor="#f0defb"] ;
712 -> 724 ;
725 [label="popularity <= 42.5\ngini = 0.449\nsamples = 7\nvalue = [0, 1, 5, 0, 0, 0, 0, 1, 0, 0]\nclass = 2", fillcolor="#a7ee7b"] ;
724 -> 725 ;
726 [label="valence <= 0.917\ngini = 0.278\nsamples = 6\nvalue = [0, 1, 5, 0, 0, 0, 0, 0, 0, 0]\nclass = 2", fillcolor="#95ea61"] ;
725 -> 726 ;
727 [label="gini = 0.0\nsamples = 5\nvalue = [0, 0, 5, 0, 0, 0, 0, 0, 0, 0]\nclass = 2", fillcolor="#7be539"] ;
726 -> 727 ;
728 [label="gini = 0.0\nsamples = 1\nvalue = [0, 1, 0, 0, 0, 0, 0, 0, 0, 0]\nclass = 1", fillcolor="#e2e539"] ;
726 -> 728 ;
729 [label="gini = 0.0\nsamples = 1\nvalue = [0, 0, 0, 0, 0, 0, 0, 1, 0, 0]\nclass = 7", fillcolor="#a339e5"] ;
